{"encoder_net_0_weight": [0.0937894731760025, 0.0941571518778801, -0.14714370667934418, -0.1015549823641777, -0.03270389884710312, 0.06200491636991501, 0.04827258363366127, -0.06728065013885498, -0.04771929234266281, 0.005140008870512247, 0.06980620324611664, 0.010779611766338348, 0.08997339010238647, 0.04481569677591324, 0.026777656748890877, 0.04090236499905586, 0.012575208209455013, 0.03986767306923866, 0.043132077902555466, 0.06623142957687378, 0.026210222393274307, 0.005476903636008501, 0.030416859313845634, 0.027002878487110138, 0.025084586814045906, 0.09468916058540344, 0.09789476543664932, -0.10715188831090927, -0.07003545761108398, -0.004078855272382498, 0.11091498285531998, 0.05168178305029869, -0.06459153443574905, -0.06612437963485718, -0.013537921011447906, -4.9239526088677585e-40, -4.9048669237836545e-40, 3.4878178647198264e-40, -4.967238718430752e-40, 1.624385179845328e-41, -4.9084822738216125e-40, -4.91550277912788e-40, 4.980382898026119e-40, -5.154998699665634e-40, -5.020039644566511e-40, -5.213741131290131e-40, -4.925718244932808e-40, -5.03616858989089e-40, -4.964450134486746e-40, -4.90946318274664e-40, -0.08758943527936935, -0.11314748972654343, 0.3987845182418823, 0.34810420870780945, 0.1239338293671608, 0.17885392904281616, 0.14355510473251343, -0.12266751378774643, -0.11095856875181198, 0.005406610202044249, 0.1248987466096878, -0.025592636317014694, -0.07994506508111954, 0.3237228989601135, 0.15900877118110657, -4.9274558550285705e-40, -5.027592643289222e-40, -5.030857668711099e-40, 5.1936324983270695e-40, -4.938273879173158e-40, 0.07430677860975266, -0.06996781378984451, 0.2329670935869217, 0.24763205647468567, 0.1676802784204483, -4.9332712436555185e-40, -4.941679034441467e-40, -4.965781368027854e-40, -4.942617904412565e-40, -4.934224126611259e-40, -6.00965063305734e-40, -6.049994015845252e-40, -5.505729692301493e-40, 4.922747492188439e-40, -5.050980314658803e-40, 0.10312801599502563, -0.0695415660738945, 0.2977023422718048, 0.12320452928543091, 0.1027439534664154, -6.20054952285231e-40, -4.9194964797512055e-40, -4.992924519281826e-40, 4.920127064060152e-40, 4.992602220635031e-40, 0.22433999180793762, 0.1768292784690857, -0.15694113075733185, -0.1098937839269638, -0.03214521333575249, -0.005762207321822643, -0.022746575996279716, 0.06963559240102768, 0.036049436777830124, 0.021135181188583374, 0.031268563121557236, 0.06683199852705002, -0.07926943898200989, -0.06049099937081337, -0.005190610885620117, -0.04832393676042557, -0.0725056529045105, 0.15037205815315247, 0.19747988879680634, 0.10295616090297699, 0.030407700687646866, 0.0891895592212677, -0.09367755800485611, -0.08287040889263153, 0.004644400905817747, 0.057376470416784286, 0.0021229367703199387, 0.08276530355215073, 0.030813315883278847, 0.07702236622571945, -0.006114214658737183, -0.04110034555196762, 0.13284459710121155, 0.10953787714242935, 0.048357363790273666, -4.956560824132597e-40, -4.936508243108109e-40, -4.909323052900207e-40, -4.924050699760261e-40, -4.9633150827306426e-40, 0.19948862493038177, 0.11729323863983154, -0.12459350377321243, -0.10041268914937973, -0.02673381380736828, -2.1220283034810002e-40, -4.954248681666461e-40, 4.917044207438637e-40, -4.994732194300805e-40, 4.937040736524552e-40, 0.028389761224389076, 0.03272155299782753, -0.038547467440366745, -0.030584607273340225, -0.002722483826801181, -4.979444028055021e-40, -4.9406140476085805e-40, -4.925059634654575e-40, -4.9345744512273406e-40, -4.9277361147214355e-40, 0.0523056797683239, 0.056172795593738556, -0.06175442785024643, -0.048846956342458725, -0.0062736948020756245], "encoder_net_0_bias": [0.22470298409461975, 0.08039539307355881, 0.1424107700586319, 0.13260501623153687, 0.05910641327500343, 0.1327022761106491, 0.14880400896072388, -4.914619961095355e-40, 4.980915391442562e-40, 4.9107383643491754e-40, 0.025865932926535606, 0.14712469279766083, 0.1275329887866974, -4.935429243290579e-40, -0.0916670709848404, -4.9714426138237265e-40, -5.006587179308993e-40, -0.07720693945884705, -4.930468646726869e-40, 0.17716427147388458, 0.0027791864704340696, 0.12777350842952728, 0.00738515006378293, 0.1581040769815445, 0.09954833984375, 0.0720108151435852, -9.793394707473282e-41, 0.14397192001342773, -4.938988541389964e-40, 0.0568530410528183, -4.914157532602128e-40, 0.08884287625551224], "encoder_net_2_weight": [-0.03982144594192505, -0.017295710742473602, 0.059688013046979904, 0.006398577243089676, 0.008904661051928997, -0.028482796624302864, -0.00578278535977006, -4.996778090058719e-40, -6.085138581330518e-41, -4.910079754070943e-40, 0.09774085134267807, -0.027445588260889053, 0.10704531520605087, -5.839911350073675e-40, 0.10202287882566452, -5.0209084496143926e-40, 4.99113085724749e-40, 0.07562357932329178, -5.052115366414906e-40, -0.048984214663505554, 0.02053775079548359, -0.021170353516936302, 0.05409137159585953, -0.02665112540125847, 0.020977290347218513, 0.07306823879480362, -4.915965207621107e-40, -0.03889137879014015, -5.00657316632435e-40, -0.010591862723231316, 5.060158819600131e-40, -0.017541127279400826, 0.08254658430814743, 0.03525272011756897, 0.034802455455064774, 0.02250710129737854, 0.009859651327133179, 0.057713788002729416, 0.05584105849266052, 4.3587248602977e-40, -4.947130085467691e-40, 4.91382122097069e-40, -0.08090661466121674, 0.07715507596731186, 0.012235032394528389, -5.034809330380495e-40, -0.05359865725040436, 4.984586793419093e-40, -4.9274558550285705e-40, -0.047534577548503876, 4.955790109977218e-40, 0.09555666148662567, -0.011396733112633228, 0.04226062074303627, -0.0429898165166378, 0.051781218498945236, 0.015377853997051716, -0.015618111938238144, 4.905931910616541e-40, 0.08459605276584625, -4.953197707818217e-40, 0.021677101030945778, -5.058407196519725e-40, 0.03589978814125061, -0.05787353217601776, -0.02404976636171341, 0.0701962411403656, 0.06243788078427315, 0.034808192402124405, -0.03870808333158493, -0.01660698652267456, 5.00484956921323e-40, 5.646756369751142e-40, 4.932276321745848e-40, 0.21636319160461426, -0.040381018072366714, 0.11968051642179489, -5.035622083489803e-40, 0.1416752189397812, -4.8400428568239884e-40, 5.0975314496436736e-40, 0.13038252294063568, 5.016690541236775e-40, -0.07026233524084091, 0.03393726423382759, -0.029318546876311302, 0.09292490035295486, -0.036420803517103195, 0.0645638108253479, 0.07415656000375748, 4.983774040309785e-40, -0.050023145973682404, -4.931785867283334e-40, -0.01487255934625864, -4.9670985885843196e-40, -0.024340424686670303, 4.930020231218285e-40, 4.909519234685213e-40, -4.955467811330424e-40, -4.937349022186704e-40, 4.906478417017628e-40, -4.945518592233717e-40, -4.81563223757545e-40, 4.907431299973369e-40, 4.919062077227265e-40, 4.95437479852825e-40, -5.27029753731028e-40, -4.914045428724982e-40, -4.9423656706889866e-40, -4.962376212759545e-40, -5.5956089758032865e-40, -4.9105702085334565e-40, -4.9912569741092794e-40, -4.907795637574093e-40, 4.913891285893906e-40, 4.91222374072136e-40, -4.9942557528229345e-40, -4.929641880632917e-40, -4.943654865276165e-40, -4.949764526580622e-40, -4.973180223919489e-40, -4.953604084372872e-40, -4.930468646726869e-40, 4.926404881180327e-40, 4.9251437125624346e-40, -4.951376019814595e-40, 4.93194001011441e-40, -4.915923168667177e-40, -4.929193465124333e-40, 5.0615601180644555e-40, -4.9526371884324875e-40, -4.909351078869494e-40, -5.003588400595338e-40, -4.964800459102827e-40, 4.975576444293485e-40, -4.931253373866891e-40, 5.017152969730002e-40, 4.952595149478558e-40, 4.94945624091847e-40, 5.025504708577378e-40, -4.95829843422836e-40, -4.912812286076376e-40, -4.943192436782938e-40, 4.947172124421621e-40, -4.942449748596846e-40, -4.972843912288051e-40, -4.9369986975706225e-40, -5.08988036002846e-40, -5.01632620363605e-40, 4.971680834562662e-40, -4.924933517792786e-40, -4.907277157142293e-40, -4.940908320286089e-40, -4.961983849189534e-40, 4.969985263420829e-40, -5.095149242254321e-40, 5.011379620056984e-40, 5.054988028266772e-40, 5.088759321257e-40, 4.99065441576962e-40, -0.018415339291095734, -0.008663254790008068, 0.02768036536872387, 0.0289838295429945, 0.013050940819084644, -0.01389082707464695, -0.004859813489019871, -4.941651008472181e-40, 4.705195905602011e-40, 4.914311675433204e-40, 0.11551229655742645, -0.015488717705011368, 0.06698448210954666, 4.9547811750829044e-40, 0.0712193176150322, -4.9336075552869565e-40, -5.046790432250472e-40, 0.05530325695872307, 4.943949137953674e-40, -0.02209901250898838, 0.014649774879217148, -0.010569899342954159, 0.03888046368956566, -0.012945867143571377, 0.028157914057374, 0.04070539027452469, 4.9237844530520395e-40, -0.018096106126904488, -4.95225883784712e-40, -0.00548675749450922, -4.978112794513913e-40, -0.008799093775451183, -0.03308736905455589, -0.01478783693164587, 0.06789183616638184, 0.012996272183954716, 0.029333483427762985, -0.024472221732139587, -0.011422483250498772, 4.98353581957085e-40, -4.959027109429809e-40, -4.9290393222932576e-40, 0.17916904389858246, -0.03168068081140518, 0.01133559737354517, -4.961591485619523e-40, 0.05496576800942421, -5.021454956015479e-40, 5.078375699636353e-40, 0.10163608193397522, 4.757576442198473e-40, -0.040949806571006775, 0.017226772382855415, -0.018196607008576393, 0.031936075538396835, -0.02265370637178421, 0.06413520872592926, 0.04861187934875488, 4.990500272938544e-40, -0.032528530806303024, 4.927708088752149e-40, -0.009160535410046577, 5.1276733796113e-40, -0.015032496303319931, 0.011784096248447895, 0.004258408211171627, 0.010154246352612972, 0.04668702930212021, 0.02943907305598259, 0.008203394711017609, 0.02020111121237278, -4.998179388523044e-40, -4.9796261968553834e-40, 4.931393503713323e-40, 0.10459986329078674, 0.018920762464404106, 0.10037164390087128, -4.914662000049285e-40, 0.012490767985582352, -5.021384891092263e-40, 4.9290953742318305e-40, 0.011275798082351685, -4.99880997283199e-40, 0.019081346690654755, 0.007634137291461229, 0.005481654778122902, 0.031201958656311035, 0.007207528222352266, 0.06941065937280655, 0.04302533343434334, -4.906604533879417e-40, 0.012483169324696064, 4.978421080176064e-40, 0.0024713571183383465, 5.126706483670916e-40, 0.004327088128775358, -0.05327398329973221, -0.02658114954829216, 0.06512629240751266, 0.028216898441314697, 0.04344958811998367, -0.040553558617830276, -0.026926109567284584, -5.077647024434904e-40, 5.034557096656916e-40, -4.920869752246244e-40, 0.1321534365415573, -0.05175440385937691, 0.11275052279233932, -5.059822507968693e-40, 0.1079581081867218, 4.916427636114334e-40, -4.529122753559598e-40, 0.13058051466941833, 4.995222648763319e-40, -0.07526247203350067, 0.0275174118578434, -0.03199826925992966, 0.11045060306787491, -0.038362983614206314, 0.031902655959129333, 0.08512822538614273, 4.983507793601563e-40, -0.05117582529783249, -4.915839090759318e-40, -0.01628885790705681, 5.1589083223811005e-40, -0.0267763901501894, -4.919594570643708e-40, -5.0220294883858524e-40, -4.907711559666234e-40, -4.9793459371625185e-40, -4.932920919039437e-40, -4.953099616925715e-40, -4.994830285193308e-40, -4.948881708548097e-40, -4.924316946468483e-40, 5.087049737130524e-40, -4.919412401843346e-40, -4.927862231583225e-40, -4.972465561702684e-40, 5.475825983072801e-40, -5.0040788550578515e-40, -4.940053528222851e-40, 5.021482981984766e-40, -4.910864481210965e-40, -4.928941231400755e-40, -4.909281013946278e-40, -5.01468668443279e-40, -4.958200343335857e-40, -4.920239167937298e-40, -4.9319119841451234e-40, -4.9984316222466225e-40, -4.9485734228859455e-40, 5.003266101948543e-40, -4.96269851140634e-40, -4.928086439337517e-40, -4.9384700609581636e-40, 4.924989569731359e-40, -4.982610962584395e-40, 0.059431448578834534, 0.04489007964730263, 0.004379565827548504, 0.009072104468941689, 0.0064870319329202175, 0.08029552549123764, 0.07234317809343338, 5.03556603155123e-40, -5.050307691395927e-40, 4.947396332175913e-40, -0.11264465749263763, 0.12392944097518921, 0.020904522389173508, 5.030353201263942e-40, -0.07541264593601227, 5.0131732820913196e-40, -5.039839991867421e-40, -0.06290494650602341, -3.2036765751086833e-40, 0.07944241166114807, -0.016174521297216415, 0.05759645998477936, -0.0562996044754982, 0.06545975804328918, -0.012981679290533066, -0.026116419583559036, 4.928857153492895e-40, 0.10517630726099014, 5.360499119458869e-40, 0.02701524831354618, 2.4532812474627437e-40, 0.046217117458581924, 0.05250266194343567, 0.024502675980329514, 0.020975161343812943, 0.008024998009204865, 0.003973999060690403, 0.03672712296247482, 0.030569402500987053, 5.145609999954658e-40, -7.204075405093885e-42, 4.908790559483764e-40, -0.06310349702835083, 0.052075404673814774, -0.0035531423054635525, -5.001276258129202e-40, -0.04488162323832512, 5.031474240035402e-40, 4.020703644733268e-40, -0.038434095680713654, 4.2211313640856465e-41, 0.07262478023767471, -0.00940575823187828, 0.029665738344192505, -0.033618438988924026, 0.0379079207777977, 0.011887545697391033, -0.014720420353114605, 4.911032637026684e-40, 0.05811455845832825, 5.040246368422075e-40, 0.015426620841026306, -4.9485734228859455e-40, 0.02481970749795437, -4.9660756407053625e-40, -5.080673829117846e-40, -4.936592321015968e-40, -4.9824007678147466e-40, -4.989253117305295e-40, -4.9106823124106024e-40, -4.912279792659933e-40, 4.9403898398542886e-40, -4.94393512496903e-40, -4.916245467313972e-40, -4.9751140158002575e-40, -4.952665214401774e-40, 4.932570594423356e-40, -4.9146900260185714e-40, 4.967392861261828e-40, -4.929249517062906e-40, 4.9576117979808406e-40, -4.993036623158972e-40, 4.97637518441815e-40, -6.021225358372663e-40, -5.02956847412392e-40, -4.974273236721663e-40, -5.015625554403888e-40, -5.02408939712841e-40, -4.937629281879569e-40, -4.96813554944792e-40, 4.935961736707022e-40, -4.933845776025892e-40, 4.905483495107957e-40, -5.062667143851272e-40, 5.032861525515083e-40, -5.053572716817804e-40, -4.986660715146294e-40, -5.053138314293863e-40, -4.9336636072255294e-40, -4.972871938257338e-40, 4.999426544156293e-40, -5.019114787580057e-40, 4.981447884859006e-40, 4.9338878149798214e-40, 4.982610962584395e-40, 5.191558576599869e-40, 4.925620154040305e-40, 5.011435671995557e-40, -4.935975749691665e-40, 4.939633138683553e-40, -4.947116072483048e-40, 4.944719852109052e-40, -4.904726793937222e-40, -4.951824435323179e-40, 4.932514542484783e-40, -5.0517370158295385e-40, 4.90618414434012e-40, 5.7337209524471405e-40, -4.926292777303181e-40, -5.092949203665331e-40, -4.9546130192671855e-40, -4.973320353765922e-40, 4.920729622399811e-40, 5.053404561002085e-40, 4.944187358692609e-40, 4.9657953810124975e-40, 5.112903693797317e-40, -5.134371586270773e-40, 4.927147569366419e-40, 4.908412208898396e-40, 4.905441456154028e-40, 4.913092545769241e-40, 4.914213584540701e-40, 4.920351271814444e-40, 4.91101862404204e-40, 4.9984876741851955e-40, 5.003420244779619e-40, 4.923153868743093e-40, -4.932925367801984e-31, 4.912461961460295e-40, -4.980352854187044e-37, -5.063339767114148e-40, 4.9047548199065085e-40, 5.014140178031704e-40, 2.0911576983119245e-41, 4.916511714022194e-40, 4.904600677075433e-40, 4.911733286258846e-40, 4.913975363801766e-40, -4.942085410996122e-40, 4.910261922871305e-40, -4.907991819359099e-40, 4.908356156959823e-40, 4.911298883734905e-40, 5.092696969941753e-40, 4.919244246027627e-40, 5.0783897126209966e-40, -4.91442377931035e-40, -5.029722616954996e-40, 4.944257423615825e-40, 4.909575286623786e-40, -4.924933517792786e-40, -4.907417286988726e-40, 4.9460931246040906e-40, -4.966425965321444e-40, -4.922046842956277e-40, 4.92262137532665e-40, 4.993569116575415e-40, 4.919594570643708e-40, -4.9136250391856846e-40, 4.9414548266871754e-40, -4.95117983802959e-40, -6.2339424652571705e-40, -5.54186917969643e-40, -4.9268953356428406e-40, -5.823992599518945e-40, 5.093229463358196e-40, -4.933229204701589e-40, -4.934364256457692e-40, 4.9503250459663515e-40, 4.935064905689854e-40, -4.927259673243565e-40, -4.949848604488481e-40, -4.958830927644803e-40, -4.919734700490141e-40, 4.9222009857873524e-40, 4.932192243837988e-40, -4.9404458917928616e-40, 4.9298240494332794e-40, 4.9775382621435395e-40, 4.955383733422564e-40, -4.949232033164178e-40, -4.993260830913264e-40, 4.9156569219589555e-40, -4.928030387398944e-40, -4.944299462569755e-40, -5.070920791806145e-40, 4.911831377151349e-40, -3.230413349808001e-41, -4.946051085650161e-40, 4.941987320103619e-40, 4.9250876606238616e-40, -4.943780982137955e-40, 4.939521034806407e-40, -4.925171738531721e-40, 4.972031159178743e-40, -4.904936988706871e-40, 4.91382122097069e-40, 4.940109580161424e-40, -4.9421975148732676e-40, 5.6611056660258285e-40, -4.9682196273557794e-40, -5.1154820829716745e-40, 4.939352878990688e-40, -4.907991819359099e-40, 5.025406617684875e-40, -4.9259284397024565e-40, -4.914844168849647e-40, -4.985021195943034e-40, 4.967126614553606e-40, -4.961689576512026e-40, 5.005634296353252e-40, -5.036981343000198e-40, 4.957513707088338e-40, 0.029528606683015823, 0.013420742936432362, 0.007554955314844847, 0.008078109472990036, 0.0026533547788858414, 0.021917499601840973, 0.019435765221714973, 4.92473733600778e-40, -5.070234155558626e-40, 4.9241207646834774e-40, -0.033910661935806274, 0.03195696324110031, 0.007196363527327776, -5.032581265822218e-40, -0.021955786272883415, -4.912363870567792e-40, -4.918515570826178e-40, -0.019242847338318825, 5.066422623735663e-40, 0.034924015402793884, -0.005210944917052984, 0.016395188868045807, -0.016866015270352364, 0.020266778767108917, 0.0036335482727736235, -0.007279055658727884, 4.921682505355552e-40, 0.02905500866472721, 4.983269572862628e-40, 0.008433029055595398, -5.011631853780562e-40, 0.013611427508294582, 4.937096788463125e-40, 4.939983463299634e-40, 4.9547251231443314e-40, -4.982596949599752e-40, -5.008394854327972e-40, 4.9127702471224464e-40, -4.986548611269148e-40, 5.029078019661406e-40, 4.953604084372872e-40, 4.9735725874895e-40, 5.008787217897983e-40, -4.94449564435476e-40, -4.907949780405169e-40, -5.00765216614188e-40, 4.9294877378018415e-40, -4.916483688052907e-40, 5.1287523794288305e-40, 4.92758197189036e-40, 4.911845390135992e-40, -4.907319196096223e-40, -4.998459648215909e-40, -4.956336616378305e-40, -5.056095054053589e-40, -4.938175788280655e-40, -6.210807027611168e-40, -4.976585379187799e-40, 5.015457398588169e-40, 4.93793756754172e-40, -4.951516149661028e-40, -4.974063041952014e-40, 4.928030387398944e-40, 4.946961929651972e-40, -4.9481250073773616e-40, -4.926362842226397e-40, -4.94125864490217e-40, -4.914956272726793e-40, 4.937124814432412e-40, -4.941524891610392e-40, -3.401862216918142e-40, 4.9104581046563105e-40, -4.91050014361024e-40, -4.947522449037702e-40, -4.936802515785617e-40, -5.044576380676839e-40, -4.934462347350195e-40, -4.910205870932732e-40, -4.936788502800974e-40, -5.011842048550211e-40, -5.067908000107847e-40, -4.916147376421469e-40, -4.997618869137314e-40, -4.909659364531645e-40, -5.3470466542013505e-40, -4.913064519799955e-40, -4.9100657410862995e-40, -4.933971892887681e-40, -4.935905684768449e-40, -4.9200009471983625e-40, -4.9518524612924656e-40, -4.906324274186552e-40, 4.907151040280504e-40, -4.935106944643784e-40, -5.004779504290014e-40, -4.943780982137955e-40, -5.021875345554777e-40, -4.92538193330137e-40, -5.699571308871545e-40, -5.453895662106118e-40, -5.573552537974814e-40, -5.0516809638909655e-40, -5.062106624465542e-40, 4.9197206875054975e-40, -5.03060543498752e-40, -4.936788502800974e-40, -4.9233920894820285e-40, -5.086615334606583e-40, 4.95825639527443e-40, -4.948545396916659e-40, -4.9118734161052785e-40, -4.941034437147878e-40, -5.0504338082577165e-40, -4.949694461657405e-40, -4.955285642530061e-40, 4.986674728130937e-40, -4.910934546134181e-40, -5.0841490493093716e-40, -4.9700833543133314e-40, -5.010678970824821e-40, -6.075637777742396e-40, -5.751377313097633e-40, 4.927371777120711e-40, -5.013943996246698e-40, 4.907207092219077e-40, -5.00976812682301e-40, -5.006405010508631e-40, -4.921822635201985e-40, -0.032803233712911606, -0.016287675127387047, 0.06064295396208763, 0.0793360248208046, -0.018216805532574654, -0.02587331086397171, 0.003335666609928012, 5.175191410536555e-40, -4.949344137041324e-40, -4.929081361247187e-40, 0.15178422629833221, -0.01808578334748745, 0.13449303805828094, -4.927932296506441e-40, 0.08925657719373703, -5.049915327825916e-40, 4.907038936403358e-40, 0.07888846099376678, -4.988174117487765e-40, -0.03915029391646385, 0.02312510833144188, -0.019742751494050026, 0.06470008939504623, -0.024877378717064857, 0.06564099341630936, 0.0317227877676487, 4.98405430000265e-40, -0.033139318227767944, -5.043399289966806e-40, -0.010029861703515053, 4.981405845905076e-40, -0.016435936093330383, -5.1933522386342045e-40, -4.936143905507384e-40, -4.969676977758677e-40, -4.9641558618092375e-40, -4.955762084007932e-40, -4.966916419783957e-40, -4.9222570377259254e-40, -4.908005832343742e-40, 4.926671127888549e-40, -4.917212363254356e-40, -4.926699153857835e-40, -4.975534405339555e-40, -4.919314310950843e-40, 4.932738750239075e-40, -4.911565130443127e-40, 4.944944059863344e-40, 4.9238405049906125e-40, -4.940291748961786e-40, -4.957471668134408e-40, -4.92482141391564e-40, -4.9395910997296234e-40, -4.968261666309709e-40, -4.916245467313972e-40, -4.921332180739471e-40, -4.9236723491748935e-40, 4.9346585291352e-40, -4.940207671053926e-40, -5.4296531986732984e-40, 4.929585828694344e-40, 4.967729172893266e-40, 5.068986999925377e-40, -4.952230811877833e-40, 0.13396988809108734, 0.0632249116897583, 0.05991209298372269, 0.06887935101985931, 0.023501435294747353, 0.11092646420001984, 0.0962953269481659, 5.128598236597755e-40, 4.999482596094866e-40, 4.947480410083772e-40, -0.12771044671535492, 0.13085992634296417, 0.06438565999269485, -4.931449555651896e-40, -0.08176589012145996, 5.0563613007618104e-40, -4.966762276952882e-40, -0.066764697432518, 5.044254082030044e-40, 0.16983406245708466, -0.01650267280638218, 0.07684639096260071, -0.06108427420258522, 0.09694249927997589, 0.03970804065465927, -0.01417129673063755, 4.985819936067699e-40, 0.14595352113246918, -3.320769074787665e-40, 0.0390019416809082, 1.4023914771269904e-40, 0.06314732879400253, -4.931954023099053e-40, 4.951446084737811e-40, -4.966327874428941e-40, -4.949526305841686e-40, 4.9194404278126326e-40, 4.9409503592400185e-40, -5.042880809535006e-40, -4.938385983050304e-40, -4.9577799537965595e-40, 4.93966116465284e-40, -5.00985220473087e-40, -4.935975749691665e-40, -4.915054363619296e-40, -4.933635581256243e-40, 4.941048450132521e-40, -4.953351850649293e-40, -4.943024280967219e-40, -4.921514349539833e-40, 5.621266750685074e-40, -4.915096402573226e-40, -4.919090103196551e-40, 5.465106049820716e-40, -4.944649787185836e-40, -4.951516149661028e-40, -4.98013066430254e-40, -5.0291480845846225e-40, -4.942183501888624e-40, 4.941314696840743e-40, -4.979486067008951e-40, -4.96429599165567e-40, -5.000897907543834e-40, -4.918711752611184e-40, -0.05524778366088867, -0.02547774277627468, 0.059276871383190155, 0.036063581705093384, 0.032712433487176895, -0.042229752987623215, -0.016975602135062218, 4.955089460745056e-40, 5.071537363130448e-40, 4.933859789010535e-40, 0.10141275078058243, -0.05904076248407364, 0.057622119784355164, -5.0707105970364966e-40, 0.13676272332668304, -5.821890651822458e-40, 5.094981086438602e-40, 0.09805002808570862, -1.1392556514960763e-42, -0.08187884837388992, 0.02542431280016899, -0.029581397771835327, 0.07988421618938446, -0.03878733143210411, 0.004696752410382032, 0.07089731097221375, -4.953323824680007e-40, -0.049046292901039124, -5.018372099393965e-40, -0.01522502489387989, 4.955958265792937e-40, -0.025028187781572342, -4.9969042069205084e-40, -5.040316433345291e-40, -4.965641238181422e-40, -4.922971699942731e-40, -5.012108295258433e-40, -5.006755335124712e-40, -5.0084228802972584e-40, -4.9250316086852886e-40, -4.934224126611259e-40, -4.933089074855156e-40, -4.9145218702028524e-40, -4.910037715117013e-40, -4.912405909521722e-40, 4.925788309856024e-40, -4.9556359671461426e-40, -4.936452191169536e-40, 4.954584993297899e-40, -4.9581723173665705e-40, -4.955075447760413e-40, -4.919006025288692e-40, -5.0211326573686845e-40, -4.955047421791126e-40, -4.914493844233566e-40, -5.0186103201329e-40, -4.987151169608808e-40, -4.924639245115278e-40, 4.907669520712304e-40, -4.994620090423659e-40, -4.937867502618504e-40, -4.916035272544323e-40, -5.027872902982087e-40, -5.000701725758829e-40, -4.948923747502027e-40, 3.6032848581801914e-40, -5.042236212241416e-40, -6.229752582848839e-40, 3.498131421417257e-40, -5.108643746465769e-40, -4.997422687352309e-40, -4.9459810207269446e-40, 4.924891478838856e-40, 4.94673772189768e-40, -4.90506310556866e-40, -2.3154215045424682e-40, -4.912125649828857e-40, 4.9338317630412484e-40, -4.976907677834593e-40, -4.928688997677176e-40, -4.9377834247106444e-40, -4.916749934761129e-40, -4.993597142544702e-40, -5.1625797243576316e-40, 4.949750513595978e-40, -5.08336432216935e-40, 4.94889572153274e-40, -4.652871420944123e-41, 4.939563073760337e-40, -5.204674730225949e-40, -4.919090103196551e-40, -4.999818907726304e-40, -4.912461961460295e-40, -5.01645232049784e-40, 4.993527077621486e-40, -4.92870301066182e-40, 0.096971794962883, 0.03725734353065491, 0.04941045120358467, 0.034314896911382675, 0.0187664944678545, 0.06398297846317291, 0.06086297705769539, -5.060551183170142e-40, -4.966425965321444e-40, -4.944369527492971e-40, -0.06060542166233063, 0.0922255590558052, 0.022299431264400482, 4.984306533726228e-40, -0.040008801966905594, -6.267965991970977e-40, 4.525058988013056e-40, -0.03573407977819443, 4.9847129102808825e-40, 0.10298384726047516, -0.00882202573120594, 0.045611388981342316, -0.0306174885481596, 0.05956851691007614, 0.01973826251924038, -0.0054425341077148914, -5.030157019478936e-40, 0.0938163474202156, -4.933453412455881e-40, 0.022658344358205795, 4.8751173573860386e-42, 0.03730856999754906, -0.05846814438700676, -0.026699388399720192, 0.01328161172568798, 0.05274232104420662, 0.019432732835412025, -0.04523157328367233, -0.025346506386995316, -4.714290332635479e-40, -5.209565261866443e-40, -4.90562362495439e-40, 0.1507505178451538, -0.03907898813486099, 0.150628924369812, 5.047589172375137e-40, 0.14752300083637238, -4.991425129924998e-40, -4.9603723559555605e-40, 0.1406029760837555, -5.22978599870665e-40, -0.07386244088411331, 0.03901447728276253, -0.03273315355181694, 0.12944401800632477, -0.04100973904132843, 0.053582608699798584, 0.06467952579259872, -5.0053820626296736e-40, -0.06107812747359276, -4.978154833467842e-40, -0.016430459916591644, -5.088338931717703e-40, -0.027098653838038445, 0.11389054358005524, 0.05366724357008934, 0.04132862016558647, 0.020280230790376663, 0.02124057710170746, 0.08884058892726898, 0.06301787495613098, 5.0251964229152265e-40, -4.932150204884059e-40, 4.9215844144630495e-40, -0.137571319937706, 0.09565647691488266, 0.015779422596096992, -5.024832085314502e-40, -0.08518128842115402, -4.948993812425243e-40, -5.03172647375898e-40, -0.07135362923145294, 5.011463697964843e-40, 0.14980822801589966, -0.017984895035624504, 0.0648108571767807, -0.06386078149080276, 0.07652321457862854, 0.01978514902293682, -0.02184411697089672, 4.942687969335781e-40, 0.09709524363279343, -4.959251317184101e-40, 0.03295676410198212, 3.975203483596641e-41, 0.053578104823827744, 0.09960171580314636, 0.04789671301841736, 0.045689452439546585, 0.05201815441250801, 0.02707647532224655, 0.07195409387350082, 0.07152645289897919, 5.148748908514746e-40, -5.077408803695969e-40, 4.936171931476671e-40, -0.09813714027404785, 0.12460877001285553, 0.020364835858345032, -6.212082209213703e-40, -0.0582030713558197, -5.012935061352384e-40, -5.0201657614283e-40, -0.04525536671280861, -4.909925611239867e-40, 0.14426591992378235, -0.011555829085409641, 0.05862575024366379, -0.0444999560713768, 0.07588566839694977, 0.05176572501659393, 0.0003653762396425009, -4.986786832008083e-40, 0.1019664779305458, -4.952090682031401e-40, 0.029429495334625244, -4.984110351941223e-40, 0.04907340183854103], "encoder_net_2_bias": [0.09360611438751221, 0.10682849586009979, 0.02438219264149666, -1.5924215618740789e-40, 4.9291514261704035e-40, -0.0031915311701595783, 0.028382858261466026, 0.013070275075733662, 0.1427404284477234, 4.915180480481085e-40, 0.17798790335655212, 0.09990516304969788, 4.921037908061963e-40, 4.937152840401698e-40, -2.1459291145275842e-27, 4.933355321563378e-40, -4.936003775660952e-40, 0.07770748436450958, -6.285286040990032e-40, -5.979915079644368e-40, -4.9480689554387886e-40, 0.09375637769699097, 4.904936988706871e-40, 0.11467516422271729, 4.909168910069132e-40, 0.11082229763269424, 4.927259673243565e-40, -5.0160459439431854e-40, 0.05183812603354454, 0.04314551502466202, 0.1856355220079422, 0.08640369027853012], "backbone_net_0_weight": [0.02267145924270153, -0.020084477961063385, -0.011547344736754894, -0.021445227786898613, 0.0875130370259285, 0.011329438537359238, 0.00121383520308882, 0.0022423663176596165, 0.009355037473142147, -0.0001610003091627732, 0.02003658376634121, -0.009567243978381157, 0.027230270206928253, -5.004947660105733e-40, -5.024818072329859e-40, 0.013159593567252159, 0.013757984153926373, 0.013576218858361244, 0.036965444684028625, -5.077128544003104e-40, -0.011341816745698452, -0.006217648275196552, 4.922831570096299e-40, 4.982498858707249e-40, -4.917730843686156e-40, 4.932150204884059e-40, -4.969957237451542e-40, -0.0022880977485328913, -4.956126421608656e-40, -4.934560438242697e-40, -4.9830733910776225e-40, 0.0436459518969059, -4.906030001509044e-40, -0.01451843325048685, 5.2094391450046534e-40, 0.02242697961628437, -4.998669842985558e-40, -4.970223484159764e-40, -0.00809287466108799, 0.04077870771288872, -0.01468613464385271, -0.01021578535437584, -0.028903339058160782, 0.007041628938168287, 0.038254544138908386, -0.13839463889598846, 0.08658300340175629, -0.0315731056034565, 0.0026113465428352356, 0.0016401924658566713, 0.07005845755338669, 0.0019027619855478406, -0.00942093413323164, 0.04984710365533829, -0.03906295448541641, -4.9586207328751544e-40, -4.963090874976351e-40, -0.018375974148511887, -0.0253432709723711, 0.02172921784222126, -0.023550771176815033, 5.041871874640692e-40, 0.04761591553688049, 0.0337832048535347, 4.930174374049361e-40, 4.955117486714342e-40, -1.4454612262070923e-38, -4.939871359422488e-40, -5.991307636159328e-40, 0.007629390340298414, -4.905875858677968e-40, -2.7961649686983832e-40, -5.035790239305522e-40, -0.005013101268559694, 4.928674984692533e-40, 0.10589767247438431, -4.975352236539193e-40, -0.02341974712908268, -4.935513321198438e-40, -5.0647831045324026e-40, 0.03802625089883804, -0.038250189274549484, 0.0948675125837326, 0.06890081614255905, -0.014389470219612122, 0.011960976757109165, -0.07890063524246216, -0.14284329116344452, -0.1704338788986206, -0.025348003953695297, 0.005371556151658297, 2.748512997641228e-05, 0.13375788927078247, -0.0021543586626648903, 0.06525719910860062, 0.01289126556366682, 0.05575919151306152, -4.972703782441619e-40, 5.021314826169047e-40, -0.00637601874768734, -0.016938386484980583, 0.022532405331730843, -0.016538891941308975, 4.999510622064153e-40, -0.017820723354816437, 0.030776197090744972, -4.966173731597865e-40, -5.018694398040759e-40, -5.160363174527895e-29, -4.9308469973122366e-40, -4.957317525303332e-40, 0.010713666677474976, -5.906290858328742e-40, 4.948279150208437e-40, 4.992518142727172e-40, -0.01677621342241764, 4.9377834247106444e-40, -0.03128652274608612, 5.362923365802151e-40, -0.05549359694123268, -4.9373350092020605e-40, -4.9632590307920696e-40, 0.02176394686102867, -0.008555702865123749, 0.038369130343198776, 0.06438814103603363, -0.06829792261123657, 0.049699775874614716, -0.010717689990997314, 0.10105238109827042, 0.017969369888305664, 0.02266729809343815, 0.0030283492524176836, 0.0012189833214506507, 0.08894121646881104, -0.0006466401391662657, -0.03822983801364899, 0.05658886581659317, -0.05445431172847748, 4.939338866006045e-40, 4.907851689512666e-40, -0.024900656193494797, -0.034248560667037964, -0.0113253528252244, -0.030900804325938225, -4.971764912470521e-40, 0.06223636493086815, -0.0007792621036060154, 5.023683020573756e-40, -4.958480603028722e-40, 4.907879715481953e-40, 4.9567570059176024e-40, -4.9777624698978314e-40, -0.011203710921108723, -4.9565327981633105e-40, -4.94393512496903e-40, -4.938946502436034e-40, -0.04170570895075798, 4.9411185150557375e-40, 0.021003244444727898, -4.93353749036374e-40, -0.03933040052652359, 4.982667014522968e-40, 5.014042087139201e-40, 0.04007495567202568, -0.05164085328578949, 0.032943304628133774, 0.08423851430416107, -0.0257941335439682, 0.04419899731874466, -0.010192153044044971, -0.1142924427986145, -0.05278363078832626, -0.02516481839120388, -0.020231323316693306, -0.0003521561447996646, 0.048790570348501205, 0.0030240307096391916, -0.02584523893892765, 0.01702406257390976, -0.039099354296922684, 4.980410923995405e-40, -5.017279086591791e-40, -0.018006371334195137, -0.024718178436160088, 0.0022020426113158464, -0.04482356831431389, 5.028909863845687e-40, 0.002334344433620572, 0.02521761879324913, 4.9216965183401955e-40, 4.922271050710569e-40, -4.904894949752941e-40, 4.948433293039513e-40, -4.936410152215606e-40, 0.030252210795879364, -4.976108937709928e-40, 4.917380519070075e-40, 4.9172403892236426e-40, -0.013342762365937233, -4.9329909839626535e-40, 0.06225144863128662, 4.917338480116145e-40, -0.027598271146416664, 5.025883059162746e-40, -5.0119261264580705e-40, 0.04459000006318092, -0.03721476346254349, 0.08390277624130249, 0.047736864537000656, -0.04988224431872368, 0.021237026900053024, -0.013205721974372864, 0.05652659013867378, 0.06807322055101395, -0.057789236307144165, 0.05429241433739662, 0.00011396800255170092, 0.03991328552365303, -0.00014016436762176454, 0.004092383664101362, -0.011376747861504555, 0.05964965373277664, -4.916133363436826e-40, 4.919412401843346e-40, 0.001534551614895463, 0.03513885289430618, 0.029690369963645935, -0.0070668719708919525, -5.07020612958934e-40, -0.01524266880005598, -0.0073794773779809475, -5.031880616590056e-40, -4.964478160456032e-40, -4.9077535986201636e-40, 4.949834591503838e-40, -5.005059763982879e-40, -5.4815882322145626e-05, -5.0899083859977466e-40, 4.910374026748451e-40, -4.910710338379889e-40, -0.0010274125961586833, -4.905749741816179e-40, -0.022676004096865654, -5.0984282806608414e-40, -0.023341555148363113, -4.977734443928545e-40, -4.919020038273335e-40, -0.01118672639131546, 0.020559804514050484, -0.01642637886106968, -0.01462852954864502, -0.04254905879497528, -0.05573759227991104, 0.07026304304599762, 0.11296521872282028, 0.0184871144592762, -0.048469770699739456, -0.06981907039880753, -0.00045286654494702816, -0.03059484250843525, 0.0007918717456050217, -0.03347735106945038, 0.0475120022892952, -0.047196730971336365, 4.9871371566241645e-40, 4.990598363831047e-40, -0.021930214017629623, -0.03010871633887291, -0.005268745124340057, -0.039141301065683365, -4.906534468956201e-40, 0.030900033190846443, 0.05724117159843445, 5.014196229970277e-40, -5.544755854532939e-40, -4.904628703044719e-40, -4.920028973167649e-40, 4.920659557476595e-40, -0.010220387019217014, 4.9539403960043095e-40, 4.9376713208334984e-40, 5.374624207979263e-40, -0.02136227861046791, -4.916245467313972e-40, 0.10822699964046478, -4.9368305417549035e-40, -0.031067010015249252, 4.909196936038418e-40, 4.9451822806022794e-40, 0.06852798908948898, -0.0451427698135376, -0.0051001301035285, 0.06399750709533691, 0.003339835675433278, 0.0013881857739761472, -0.023063991218805313, 0.04701006039977074, 0.04496118053793907, 0.014220384880900383, -0.006142949685454369, -0.00040137217729352415, -0.00885570514947176, -0.0001231906353496015, -0.0053798179142177105, 0.004870996344834566, -0.011157194152474403, -4.937741385756715e-40, -5.081416517303938e-40, -0.00473639415577054, -0.006650617346167564, -0.0012889972422271967, -0.009061397984623909, 4.912349857583149e-40, 0.02537459135055542, 0.010179751552641392, 5.057538391471843e-40, -5.039755913959561e-40, 4.905749741816179e-40, -4.9939194411914966e-40, -5.203777899208781e-40, 0.0022600917145609856, 5.005101802936809e-40, 4.928885179462182e-40, -5.03284751253044e-40, -0.006033675279468298, -4.939675177637483e-40, 0.026710376143455505, 4.978421080176064e-40, -0.007467265706509352, 4.962964758114561e-40, -4.980452962949335e-40, 0.01189348567277193, -0.010547314770519733, 0.004536783788353205, 0.022778822109103203, -0.016271578148007393, 0.026170847937464714, -0.04061838611960411, -0.12451387941837311, -0.14546291530132294, 0.013765985146164894, 0.13826997578144073, 0.006399886216968298, -0.09329643100500107, -0.006185379344969988, 0.027000457048416138, -0.025286752730607986, 0.005393484141677618, 4.944803930016912e-40, -4.92257933637272e-40, 0.05500571429729462, -0.001441904460079968, 0.06930061429738998, 0.11190231144428253, 5.0671512989371115e-40, -0.0322578027844429, -0.019311806187033653, 4.959111187337668e-40, -4.92486345286957e-40, 2.2854774016423665e-23, 4.9520206171081846e-40, 4.9262086993953214e-40, 0.01238717045634985, 5.041787796732832e-40, 4.9274978939825e-40, 4.990262052199609e-40, 0.002728475956246257, -4.938722294681742e-40, -0.04213669151067734, -4.9565888501018835e-40, -0.017929984256625175, 4.929950166295069e-40, -4.914998311680723e-40, -0.023172443732619286, 0.10732089728116989, -0.03816485404968262, -0.030737776309251785, 0.08850713819265366, -0.04185992106795311, 0.06485163420438766, 0.053825318813323975, 0.15866652131080627, 0.002372216433286667, -0.010546068660914898, 4.837798041990027e-05, 0.08039088547229767, -0.001108307857066393, -0.01635022647678852, 0.012227443046867847, 0.045891858637332916, 4.915642908974312e-40, 5.0485700813001644e-40, 0.003798094345256686, 0.013363709673285484, -0.008938243612647057, -0.03220684453845024, 4.92866097170789e-40, 0.014945317059755325, 0.014199819415807724, 4.937643294864212e-40, 4.9677712118471955e-40, -4.1923907325823445e-40, -4.937489152033136e-40, 5.011771983626995e-40, -0.0001386330695822835, -5.001948881392078e-40, 4.91106066299597e-40, -5.021174696322614e-40, 0.03804678097367287, -4.941552917579678e-40, 0.02970082312822342, -4.946919890698042e-40, 0.05395256355404854, -5.00920760743728e-40, 5.1705951515735695e-40, 0.010732743889093399, 0.0382210873067379, 0.02043859101831913, 0.016326509416103363, 0.1000024750828743, -0.07761581987142563, 0.02192266844213009, 0.0238773413002491, -0.12212100625038147, -0.010074499994516373, 0.10877955704927444, -0.003479433013126254, 0.04444398730993271, -0.004765628837049007, -0.024372493848204613, -0.013904529623687267, 0.05801894888281822, -4.912111636844214e-40, -5.054525599773545e-40, 0.0005380837828852236, 0.0283382385969162, 0.0341898575425148, -0.0359034389257431, -4.90937910483878e-40, -0.017048465088009834, -0.010329491458833218, -5.041871874640692e-40, 4.905791780770109e-40, 4.912237753706003e-40, -4.961703589496669e-40, -4.9375031650177794e-40, -0.006894955411553383, 4.995432843532967e-40, -5.223480155617188e-40, 4.9556359671461426e-40, -0.022091444581747055, -4.9088185854530504e-40, -0.024591032415628433, 5.113029810659106e-40, -0.018241530284285545, -6.193262770837821e-40, -4.9904161950306845e-40, -0.012502041645348072, 0.0023825119715183973, -0.02153835818171501, -0.016671113669872284, -0.025253579020500183, 0.00364554557017982, -0.012260138988494873, 0.05201725661754608, -0.19101744890213013, 0.04704457148909569, 0.07770023494958878, -0.0050374045968055725, 0.08796703815460205, 0.00029933761106804013, 0.02218967117369175, 0.008509800769388676, 0.009512125514447689, 4.978210885406415e-40, -5.01748928136144e-40, 0.008544668555259705, -0.0035081510432064533, 0.02928898110985756, 0.012887529097497463, 5.02244987792515e-40, 0.010708138346672058, 0.006335031241178513, -5.049298756501613e-40, -5.0188205149025486e-40, -4.911382961642765e-40, -4.9134568833699656e-40, -4.921276128800898e-40, 0.0070642875507473946, -4.948867695563454e-40, 4.9290393222932576e-40, 4.9157690258361015e-40, 0.007766550872474909, 4.930594763588658e-40, 0.014339489862322807, 4.962222069928469e-40, 0.024235812947154045, -4.978028716606053e-40, 4.966552082183233e-40, 0.007876986637711525, 0.014370718970894814, 0.013132468797266483, 0.010325619950890541, -0.09913960844278336, 0.09933433681726456, 0.10567294806241989, -0.05137033760547638, -0.011043856851756573, 0.05421674996614456, -0.09575526416301727, 0.01525674294680357, 0.0820644423365593, -0.009983359836041927, 0.003282197518274188, 0.018811767920851707, -0.0072130062617361546, 5.000813829635975e-40, -4.995671064271903e-40, 0.003873735200613737, 0.007799596060067415, 0.021921783685684204, -0.02318383939564228, 4.946723708913037e-40, 0.02215319499373436, 0.01336743775755167, -4.92538193330137e-40, 4.999804894741661e-40, -3.783205594652458e-36, 4.946919890698042e-40, -4.981559988736152e-40, 0.02076522260904312, -5.022800202541231e-40, 4.937475139048493e-40, 5.014756749356007e-40, -0.01856601983308792, 4.936284035353817e-40, 0.028159787878394127, 4.948054942454145e-40, 0.010427706874907017, -4.915755012851458e-40, 5.052717924754566e-40, 0.017041530460119247, -0.006093149539083242, 0.02547045238316059, 0.02015192061662674, 0.08278485387563705, 0.028153367340564728, -0.05617693439126015, 0.0004789897648151964, -0.058560509234666824, 0.03331107273697853, -0.1288088709115982, 0.002504926174879074, 0.048975635319948196, -0.009540743194520473, -0.018868116661906242, 0.04471699893474579, -0.04341014847159386, -4.906254209263336e-40, 4.928562880815387e-40, -0.02132909558713436, -0.02775169536471367, 0.0023718199227005243, -0.021227873861789703, -5.040190316483502e-40, 0.05378536507487297, 0.031883399933576584, -5.007512036295447e-40, -4.9366063340006116e-40, 4.926390868195684e-40, 4.985035208927677e-40, 5.017601385238586e-40, 0.019023971632122993, 5.075713232554136e-40, 4.94617720251195e-40, -4.964968614918546e-40, -0.017805615440011024, 4.915110415557869e-40, 0.06593018025159836, 4.980495001903265e-40, -0.028050733730196953, -5.036897265092339e-40, 4.9467657478669665e-40, 0.04057035595178604, -0.04167045280337334, 0.06507310271263123, 0.05178677290678024, 0.039938099682331085, 0.12787370383739471, 0.08114940673112869, -0.02427775412797928, -0.021897021681070328, -0.015052848495543003, -0.047373514622449875, -0.009254321455955505, -0.026120366528630257, 0.004953179508447647, -0.00786245334893465, 0.02487119473516941, -0.027080541476607323, -4.9583965251208625e-40, 4.92693737459677e-40, -0.012645866721868515, -0.019185680896043777, 0.017188072204589844, -0.016825459897518158, -5.0668710392442466e-40, 0.029309125617146492, 0.018049705773591995, -5.086545269683367e-40, 5.768823478978477e-40, -4.907249131173007e-40, -4.91873977858047e-40, -4.946961929651972e-40, 0.011393747292459011, 4.936690411908471e-40, -4.9254239722552995e-40, -5.038732966080604e-40, 0.0017022363608703017, 4.944103280784749e-40, 0.0418064258992672, -5.08172480296609e-40, -0.026761788874864578, 5.032469161945072e-40, -4.970755977576207e-40, 0.022452041506767273, -0.019609112292528152, 0.03333369642496109, 0.029305290430784225, -0.008864050731062889, 0.07843973487615585, -0.016867369413375854, 0.005141568835824728, 0.12456392496824265, -0.002130568027496338, 0.0792609378695488, 0.0004946025437675416, -0.009804840199649334, 0.0024185762740671635, 0.046845272183418274, -0.014337022788822651, 0.06406112760305405, -4.951333980860665e-40, -4.998403596277336e-40, 0.019282301887869835, 0.019394418224692345, 0.041763320565223694, 0.02784012071788311, -4.949806565534551e-40, -0.01868065632879734, -0.01024283654987812, -4.9883843122574136e-40, -4.980509014887908e-40, -4.907543403850515e-40, -4.974791717153463e-40, 5.023402760880891e-40, -0.007142046000808477, -5.050125522595565e-40, 4.913470896354609e-40, -4.971120315176932e-40, -0.02307583950459957, -4.911789338197419e-40, -0.021517008543014526, -5.631986683937159e-40, 0.010181835852563381, 4.996708025135503e-40, -5.002523413762451e-40, -0.013661115430295467, 0.056198157370090485, -0.019001716747879982, -0.017989005893468857, 0.025836406275629997, -0.013378866016864777, -0.03361830487847328, -0.061375100165605545, 0.12045852094888687, -0.00729011557996273, 0.018496127799153328, 0.0047173332422971725, 0.08420276641845703, -0.0008898954256437719, 0.014600363560020924, -0.0008480612304992974, 0.0402047373354435, -4.978603248976426e-40, 4.968205614371136e-40, 0.012243209406733513, 0.009937443770468235, 0.02342820353806019, 0.03858066350221634, -5.5112508082509325e-40, -0.001561690354719758, -6.640834180871025e-05, -5.049298756501613e-40, -5.005704361276468e-40, -4.92473733600778e-40, -5.018862553856478e-40, 5.022155605247642e-40, 0.002317504258826375, 4.9596436807541116e-40, -4.90553954704653e-40, -5.041787796732832e-40, 0.018015611916780472, -4.9164416490989774e-40, -0.003010204527527094, -4.920911791200174e-40, 0.04041740670800209, -4.945756812972653e-40, -4.93086101029688e-40, -0.0007115521584637463, 0.017124943435192108, -0.0024121818132698536, -0.0016102016670629382, 0.02310003712773323, -0.017706573009490967, -0.09663435071706772, -0.09180469810962677, 0.029558276757597923, 0.03805488720536232, 0.0353156216442585, 0.0004964626859873533, -0.0440419539809227, 0.003767658956348896, -0.0029937857761979103, 0.030015230178833008, -0.014333953149616718, -4.964870524026043e-40, 4.912447948475652e-40, -0.00752118369564414, -0.008930077776312828, 0.005844262894243002, 0.01805727556347847, 5.034248810994765e-40, 0.032262902706861496, 0.03532475233078003, -5.041661679871043e-40, 5.078641946344575e-40, -4.913835233955333e-40, -4.9681075234786335e-40, 5.026709825256697e-40, 0.029194816946983337, 4.951418058768525e-40, 4.912335844598506e-40, 4.936284035353817e-40, 0.021396629512310028, 4.949736500611335e-40, 0.05284780263900757, 4.936284035353817e-40, -0.004733140580356121, -4.967280757384682e-40, 5.1976402119350385e-40, 0.043272361159324646, -0.015309689566493034, 0.06566675752401352, 0.06475261598825455, -0.015516200102865696, 0.013942176476120949, -0.009613602422177792, -0.08477465808391571, 0.09818275272846222, 0.037561818957328796, -0.04894223436713219, 0.0038045719265937805, 0.06282968074083328, 0.0031592301093041897, 0.004294755402952433, 0.02849670499563217, -0.009252400137484074, 4.974497444475955e-40, 5.71952579900353e-40, -0.006249819416552782, -0.008082794025540352, 0.013631518930196762, 0.001906625577248633, -5.0150370090488716e-40, 0.02199109084904194, 0.015746871009469032, 5.129733288353858e-40, 5.042852783565719e-40, 4.917983077409735e-40, 4.920407323753017e-40, -4.992378012880739e-40, 0.010766208171844482, -4.923868530959899e-40, -4.926573036996046e-40, -5.0041909589349975e-40, 0.002829313976690173, -4.9442293976465386e-40, 0.054607853293418884, 4.9144097663257065e-40, -0.009187763556838036, -5.015555489480672e-40, -5.0578326641493515e-40, 0.025782126933336258, -0.01305136177688837, 0.040790583938360214, 0.026558715850114822, -0.1194971352815628, 0.12591201066970825, 0.13024210929870605, -0.13324368000030518, 0.09283238649368286, 0.05215909332036972, 0.024528877809643745, 0.013517693616449833, 0.13404352962970734, -0.006988964509218931, -0.023455649614334106, 0.0543677993118763, 0.059497006237506866, 5.000169232342385e-40, 4.961983849189534e-40, 0.02486531250178814, -0.03804825246334076, -0.001382799819111824, 0.07080314308404922, 4.9893932471517274e-40, 0.04113496467471123, 0.021430931985378265, -5.038396654449166e-40, -4.917198350269713e-40, 6.901575194241108e-26, 4.925774296871381e-40, -4.983675949417282e-40, 0.014262383803725243, -6.093252099438959e-40, 4.9415669305643214e-40, 4.99885201178592e-40, 0.02662414126098156, 4.940978385209305e-40, -0.0032216098625212908, 4.914816142880361e-40, -0.03645173832774162, -4.95217475993926e-40, -4.988804701796711e-40, 0.04880993813276291, -0.032366376370191574, 0.0583588108420372, 0.05734937638044357, 0.019540192559361458, -0.017408648505806923, -0.008174711838364601, -0.14117303490638733, 0.05632292851805687, 0.0517471618950367, 0.0025626961141824722, 0.00521768257021904, 0.08018617331981659, 0.00029273261316120625, 0.021431569010019302, 0.025507837533950806, 0.016867373138666153, 4.98457278043445e-40, 4.947116072483048e-40, 0.0014094916405156255, -0.005846179556101561, -0.013486810028553009, 0.04092724621295929, 5.019310969365062e-40, 0.008970290422439575, 0.01085304282605648, -4.92154237550912e-40, 5.042040030456411e-40, -1.9717561726545915e-35, -4.974105080905944e-40, 4.914101480663555e-40, 0.027978036552667618, 4.9441172937693926e-40, 4.932486516515497e-40, -5.028153162674952e-40, -0.004518618807196617, -4.939044593328537e-40, 0.04344073310494423, 5.00105205037491e-40, 0.054974786937236786, -4.947578500976275e-40, -4.927820192629295e-40, 0.008203689008951187, 0.03230397403240204, 0.04906105622649193, -0.009993636049330235, 0.07056225091218948, 0.01148799154907465, 0.03662741556763649, 0.01305715274065733, 0.13944898545742035, 0.09597495198249817, -0.08477869629859924, -0.0004597393563017249, -0.015140450559556484, -0.0015883679734542966, 0.007703891023993492, -0.005610340740531683, 0.04646042361855507, 4.9775382621435395e-40, 5.024425708759848e-40, 0.026557177305221558, 0.037877313792705536, 0.020335501059889793, -0.013972525484859943, -4.9855536893594774e-40, -0.007927621714770794, -0.000726790283806622, 4.9467096959283935e-40, -4.907641494743018e-40, 3.868999072985463e-40, -4.973040094073057e-40, 5.004597335489652e-40, 0.0008464400889351964, 5.032357058067926e-40, 4.9064503910483415e-40, -4.970587821760488e-40, 0.06587204337120056, -4.928745049615749e-40, -0.009505721740424633, -4.975520392354912e-40, 0.040672458708286285, 5.017082904806786e-40, 4.9194964797512055e-40, -0.004299929365515709, 0.023057136684656143, -0.010831671766936779, -0.00872816052287817, 0.0210708174854517, -0.05858521908521652, 0.01022425852715969, -0.011130991391837597, -0.022871794179081917, 0.021609080955386162, -0.07825428247451782, -0.000568470626603812, 0.034196339547634125, 0.001237558084540069, -0.024765025824308395, 0.04497932642698288, -0.05097219720482826, 4.94449564435476e-40, 5.107088305170369e-40, -0.024028632789850235, -0.03296155855059624, -0.0051905205473303795, -0.03592541068792343, 4.9740350159827274e-40, 0.056763019412755966, 0.03282219544053078, -4.96861199092579e-40, -4.995979349934054e-40, 4.9272316472742785e-40, 4.931813893252621e-40, 4.946849825774826e-40, 0.01845400780439377, -5.05584282033001e-40, -4.918011103379021e-40, -4.952342915754979e-40, -0.027095943689346313, 4.95661687607117e-40, 0.07273368537425995, -4.9797383007325294e-40, -0.03627575933933258, 5.030423266187158e-40, 5.1245204580665695e-40, 0.04102490469813347, -0.04839765280485153, 0.06432553380727768, 0.05453214794397354, -0.0382266603410244, 0.03229954093694687, 0.011682411655783653, 0.1371435970067978, -0.1798940747976303, 0.005973597522825003, -0.03376215323805809, -0.005067327059805393, 0.07811729609966278, 0.0035241125151515007, 0.0248822383582592, 0.01795416884124279, 0.042226288467645645, 5.005732387245755e-40, -4.975478353400982e-40, 0.008787192404270172, -0.01000636164098978, 0.0589357390999794, -0.009614501148462296, -5.019759384873646e-40, 0.04796596243977547, 0.010282530449330807, 4.999076219540212e-40, -5.051919184629901e-40, -4.909309039915564e-40, -4.942323631735057e-40, -4.972549639610543e-40, 0.023789921775460243, 4.98241478079939e-40, -4.911901442074565e-40, 4.931617711467615e-40, -0.013490025885403156, -4.913919311863193e-40, 0.0032405867241322994, 4.9604844598327064e-40, 0.019460443407297134, 5.026751864210627e-40, 4.97301206810377e-40, 0.02404259331524372, -0.02921544387936592, 0.04507556930184364, 0.017291618511080742, -0.07145398110151291, -0.13948923349380493, -0.05586879700422287, 0.12050949037075043, -0.04689500853419304, 0.036250945180654526, -0.08877113461494446, 0.0015157621819525957, 0.0553099624812603, 0.005350789520889521, -0.0018189030233770609, 0.034108176827430725, -0.05616442859172821, -4.965164796703551e-40, 4.922453219510931e-40, -0.009187456220388412, 0.0029495060443878174, -0.007349168416112661, 0.016192730516195297, 5.008268737466183e-40, 0.05263182520866394, 0.03390364348888397, 4.9273998030899975e-40, -5.059444157383325e-40, 3.38884862040303e-35, -4.940754177455013e-40, 6.097063631261922e-40, 0.003435255726799369, -4.988804701796711e-40, 4.940978385209305e-40, 4.905301326307595e-40, -0.036953698843717575, 4.939380904959975e-40, 0.0707663968205452, -5.0209084496143926e-40, -0.025672972202301025, -4.996609934243e-40, -4.936760476831687e-40, 0.03752509877085686, 0.012704044580459595, 0.0231210645288229, 0.02513187564909458, -0.0057642217725515366, 0.006916847545653582, 0.0024505925830453634, -0.10805705934762955, 0.10705390572547913, 0.025354905053973198, -0.015261649154126644, 0.0015172272687777877, 0.06493540108203888, -8.445362618658692e-05, -0.021041085943579674, 0.036186058074235916, -0.034035105258226395, 4.976529327249226e-40, -4.9637074463006535e-40, -0.015823259949684143, -0.021684052422642708, 0.007431196514517069, -0.011765644885599613, 5.02132883915369e-40, 0.04777535796165466, 0.032775212079286575, 5.083686620816144e-40, 4.959881901493047e-40, -4.9098975852705805e-40, 4.952567123509271e-40, -5.0385227713109555e-40, 0.011550582014024258, 4.907571429819801e-40, 4.947003968605902e-40, 4.954599006282542e-40, -0.018119607120752335, -4.924162803637407e-40, 0.07391654700040817, 5.279448016282321e-40, -0.023849984630942345, 4.910780403303105e-40, -5.113604343029479e-40, 0.0638759583234787, -0.03223754093050957, 0.029497869312763214, 0.011073105968534946, 0.028277333825826645, -0.025869831442832947, -0.015972623601555824, 0.03097105585038662, -0.07985223829746246, 0.037350136786699295, -0.07097277790307999, -0.002068274188786745, 0.046528857201337814, -0.0009696557535789907, -0.02049044705927372, 0.04720432311296463, -0.04175177216529846, -4.973460483612354e-40, 5.103024539623827e-40, -0.0215873122215271, -0.028981730341911316, 0.0016404855996370316, -0.02278793230652809, 5.692718959380996e-40, 0.05976622924208641, 0.034667760133743286, 4.9293756339246955e-40, -4.92318189471238e-40, 4.915755012851458e-40, -4.979598170886097e-40, 4.991102831278204e-40, 0.02010839246213436, 4.9928964933125395e-40, 3.2902628072193137e-40, -6.101673903209551e-40, -0.01609642058610916, 4.955299655514705e-40, 0.06722785532474518, 5.016662515267488e-40, -0.02844235487282276, 4.923994647821688e-40, -4.909827520347364e-40, 0.043792475014925, -0.04418671131134033, 0.07015389949083328, 0.0564911924302578, -0.009677448309957981, 0.011237879283726215, -0.007673484273254871, 0.09610768407583237, -0.094315305352211, 0.061052288860082626, -0.01512537244707346, -0.004156298469752073, 0.15781450271606445, 0.005146571900695562, -0.012511635199189186, 0.06911858916282654, -0.04922020435333252, 4.982596949599752e-40, -5.0285315132603196e-40, -0.024448905140161514, -0.03960120677947998, 0.01220204122364521, -0.0387258343398571, -5.051989249553117e-40, 0.06579980254173279, 0.04129854217171669, 4.9204493627069464e-40, -4.926699153857835e-40, -4.908888650376267e-40, -4.962432264698118e-40, -4.940796216408943e-40, 0.03407628834247589, 4.9881601045031216e-40, -4.909995676163083e-40, 5.046580237480823e-40, 0.02037660963833332, -4.9212481028316116e-40, 0.1123066246509552, 5.031264045265753e-40, 0.010143465362489223, 4.9928964933125395e-40, -4.9280724263528734e-40, 0.05273555964231491, -0.06526754796504974, 0.08520648628473282, 0.07997041940689087, -0.033097583800554276, -0.05036967247724533, 0.0407981313765049, 0.12989665567874908, -0.1231212392449379, -0.026531217619776726, -0.0017384992679581046, -0.0027196123264729977, 0.10409396886825562, -0.0003042007447220385, -0.01149502582848072, 0.032975226640701294, -0.02865544520318508, 4.9144097663257065e-40, 5.092542827110677e-40, -0.01200240757316351, -0.01734301447868347, 0.0029170068446546793, -0.01398508157581091, -4.953155668864288e-40, 0.046337470412254333, 0.0345541313290596, 4.933089074855156e-40, -5.043707575628957e-40, 4.91494225974215e-40, 4.938736307666385e-40, 4.922299076679855e-40, 0.014598928391933441, -4.954122564804672e-40, 4.9298240494332794e-40, -4.9730260810884136e-40, -0.009930100291967392, 4.937363035171347e-40, 0.03588755801320076, -4.949918669411697e-40, -0.022114334627985954, 4.917268415192929e-40, 4.937643294864212e-40, 0.019258400425314903, -0.027809681370854378, 0.08961988240480423, 0.019293835386633873, 0.10829495638608932, 0.12602499127388, 0.03944919630885124, 0.06039445102214813, -0.03487275913357735, -0.02430868335068226, -0.07287661731243134, -0.011651452630758286, 0.015583256259560585, 0.013490122742950916, -0.008964641951024532, 0.024401608854532242, -0.01897856406867504, 4.911789338197419e-40, 4.9289272184161116e-40, -0.010734784416854382, -0.024230163544416428, 0.026243126019835472, 0.005761398933827877, 5.070794674944356e-40, 0.0311629306524992, 0.016162754967808723, 5.0942524112371535e-40, -5.022632046725512e-40, -4.9047548199065085e-40, -4.934924775843422e-40, -4.967925354678271e-40, 0.014594336971640587, -4.966089653690006e-40, -4.913106558753884e-40, -4.997618869137314e-40, -0.02474965713918209, -4.912840312045663e-40, 0.0381091833114624, -5.179073007282735e-40, 0.008961883373558521, -4.9288711664775386e-40, -5.497546109269836e-40, 0.022556692361831665, -0.023451628163456917, 0.027533449232578278, 0.030669458210468292, -0.05425534024834633, 0.006328852381557226, 0.04682838171720505, 0.15023191273212433, 0.102601058781147, 0.006802653893828392, -0.049505047500133514, 0.0008995388634502888, 0.03649386763572693, 0.0013975616311654449, -0.028216280043125153, 0.018638035282492638, 0.024273933842778206, -4.956995226656538e-40, 5.006124750815766e-40, -0.0015932151582092047, -0.017459753900766373, -0.016139209270477295, 0.033238764852285385, -5.010608905901605e-40, 0.028122657909989357, 0.0024248305708169937, 5.000001076526666e-40, -5.006965529894361e-40, 2.9302172738292886e-35, -4.972927990195911e-40, -6.090897918018893e-40, 0.02634556218981743, 4.960218213124485e-40, 4.925550089117089e-40, -3.257136111522675e-40, -0.025663655251264572, 4.926671127888549e-40, 0.022708751261234283, -5.390500919580063e-40, 0.035209015011787415, 5.0332118501311645e-40, 4.905749741816179e-40, 0.02870910055935383, 0.026035021990537643, 0.08606602996587753, 0.057787030935287476, 0.07107333093881607, -0.0004945949767716229, -0.0005516007076948881, -0.143936887383461, 0.13156670331954956, 0.09921054542064667, -0.04998702555894852, 0.0016565886326134205, -0.03247186914086342, -0.002387646585702896, -0.03650093823671341, 0.011650186032056808, -0.028990687802433968, -4.907417286988726e-40, 4.982989313169763e-40, -0.022197654470801353, -0.02986760437488556, -0.012603424489498138, -0.05266723409295082, 5.016130021851045e-40, 0.07110705226659775, 0.027413807809352875, 4.935877658799163e-40, 5.012304477043438e-40, -4.904656729014006e-40, -4.909925611239867e-40, 5.013537619692044e-40, 0.014381889253854752, 4.910331987794521e-40, 4.9298801013718524e-40, -5.034711239487992e-40, 0.013703620992600918, 4.909224962007705e-40, 0.03213169798254967, -4.913540961277825e-40, -0.028036946430802345, 4.98957541595209e-40, -5.02788691596673e-40, 0.0659913644194603, -0.04734748229384422, 0.07306774705648422, 0.02710249461233616, -0.024569550529122353, 0.01677018590271473, 0.0300709567964077, 0.06133401766419411, -0.0029793500434607267, -0.00534781813621521, 0.07402141392230988, -0.0014902869006618857, -0.015341416001319885, 0.0012156948214396834, 0.021310895681381226, -0.010393911972641945, 0.03709094971418381, 4.98353581957085e-40, 4.915951194636464e-40, 0.01746351830661297, 0.020767590031027794, 0.018640263006091118, 0.016811378300189972, -4.9259284397024565e-40, -0.013462480157613754, -0.0071903737261891365, -5.078529842467429e-40, -5.0580008199650705e-40, 4.908117936220888e-40, -5.012752892552022e-40, -4.9620118751588205e-40, -0.004344640299677849, 5.0233326959576745e-40, 4.909603312593072e-40, 4.9310712050665285e-40, 0.004068377427756786, -4.926545011026759e-40, -0.01615120843052864, -4.978757391807502e-40, 0.01733097806572914, -5.0162140997589044e-40, 4.947578500976275e-40, -0.009525787085294724, 0.026178687810897827, -0.015754444524645805, -0.012637617066502571, -0.004305821843445301, -0.0069520194083452225, 0.02870512381196022, -0.05251743644475937, -0.1613888293504715, 0.04340105876326561, 0.02226831391453743, 0.0003554597496986389, -0.02660563960671425, -0.0020771590061485767, -0.018398726359009743, 0.0037633171305060387, 0.06692706793546677, -4.909575286623786e-40, -5.047070691943337e-40, 0.005330813582986593, 0.014622804708778858, -0.019067028537392616, 0.043344706296920776, -5.057692534302919e-40, 0.00467102974653244, 0.003313785884529352, 4.950759448490292e-40, -4.9940875970072156e-40, 4.90674466372585e-40, -4.907109001326574e-40, 4.924709310038494e-40, 0.002399039687588811, 5.020333917244019e-40, -4.910948559118824e-40, 5.003111959117467e-40, -0.008835355751216412, -4.912195714752073e-40, 0.004700839519500732, 5.109540577482937e-40, 0.019866662099957466, -5.028713682060682e-40, 5.002201115115656e-40, 0.003678316483274102, 0.06064540520310402, 0.004602890927344561, 0.004319615196436644, -0.01060860138386488, 0.008595707826316357, -0.011082211509346962, 0.04773136228322983, -0.07427090406417847, 0.03041856363415718, 0.08711528033018112, -0.002837670734152198, -0.04398852214217186, 0.00027874665101990104, 0.007524974178522825, -0.009398224763572216, 0.020052345469594002, -4.945280371494782e-40, 5.065077377209911e-40, 0.010534606873989105, 0.012900171801447868, -0.0013617256190627813, 0.004894950892776251, 4.916175402390756e-40, -0.011520863510668278, -0.007109764497727156, 4.937292970248131e-40, 4.929473724817198e-40, -4.910037715117013e-40, -4.916315532237188e-40, 5.820068963818836e-40, -0.003024856559932232, -5.024243539959486e-40, 4.9421414629346946e-40, 4.916862038638275e-40, 0.03328993171453476, 4.922817557111655e-40, -0.014059319160878658, 4.943164410813652e-40, 0.007100576534867287, -5.010538840978389e-40, 4.959027109429809e-40, -0.008580290712416172, 0.03226441890001297, -0.013131694868206978, -0.011120420880615711, 0.02083772048354149, -0.01614760421216488, -0.00860647577792406, 0.09672519564628601, -0.13343746960163116, -0.005630672909319401, 0.046870213001966476, -0.005960023961961269, 0.006630489602684975, 0.0010423514759168029, 0.04212154820561409, -0.020878946408629417, 0.0069314767606556416, -4.9644921734406754e-40, 5.026303448702043e-40, 0.01728430949151516, 0.03287907689809799, 0.02709251083433628, 0.051898855715990067, 4.981938339321519e-40, -0.023007767274975777, -0.012473082169890404, 4.976235054571717e-40, 5.0191568265339865e-40, -4.909252987976991e-40, 4.982947274215833e-40, -5.020277865305446e-40, -0.00902546662837267, -5.034388940841197e-40, 4.917492622947221e-40, 4.995376791594394e-40, 0.01134063582867384, 4.946863838759469e-40, -0.029282212257385254, 4.92262137532665e-40, 0.05172181501984596, 4.99937049221772e-40, -5.126188003239116e-40, -0.01718509942293167, 0.04422389343380928, -0.0321112684905529, -0.026949068531394005, 0.003356226021423936, -0.013997921720147133, -0.0095088891685009, 0.007582125253975391, 0.036836158484220505, 0.02120022661983967, 0.05944536253809929, 0.0018596196314319968, 0.039415355771780014, -0.00039055259549058974, 0.03862052038311958, -0.02634652890264988, 0.0658038780093193, 4.948265137223794e-40, 5.084639503771885e-40, 0.033388324081897736, 0.045020706951618195, 0.028687888756394386, 0.06830853223800659, -5.842195466570525e-40, -0.033174823969602585, -0.018846089020371437, -5.0380743558023716e-40, -4.955159525668272e-40, -4.920855739261601e-40, 4.9523569287396225e-40, -5.035902343182668e-40, -0.006885515060275793, -5.577476173674923e-40, -4.905315339292238e-40, -4.913022480846025e-40, 0.048054780811071396, 4.942954216044003e-40, -0.03981635347008705, 5.0314602270507584e-40, 0.05635882914066315, -5.038943160850253e-40, 4.945812864911226e-40, -0.024282237514853477, 0.05166860669851303, -0.03754622861742973, -0.03239727392792702, 0.03429129347205162, 0.019335417076945305, 0.010764434933662415, 0.025747669860720634, -0.10754510760307312, 0.030333835631608963, -0.01508860383182764, -0.002422724850475788, 0.06333226710557938, -0.0016236976953223348, -0.00902722217142582, 0.02239999547600746, -0.025940924882888794, 4.963413173623145e-40, -5.001864803484218e-40, -0.00987680908292532, -0.015536473132669926, 0.0013135557528585196, -0.02849467284977436, 4.93681652877026e-40, 0.02820068784058094, 0.016606729477643967, -5.143522065242814e-40, -4.904600677075433e-40, 4.9215283625244765e-40, 4.977215963496745e-40, 4.975100002815614e-40, 0.009495408274233341, -4.969158497326877e-40, 4.908188001144104e-40, 4.9955729733794e-40, -0.006221343297511339, 4.917828934578659e-40, 0.03458581864833832, 4.989211078351365e-40, -0.013924159109592438, 4.946751734882323e-40, -4.979472054024308e-40, 0.020637324079871178, -0.018144579604268074, 0.032563284039497375, 0.0276706051081419, -0.05963489040732384, -0.045840971171855927, 0.009194856509566307, -0.18871665000915527, -0.041431769728660583, 0.012887157499790192, -0.01951868273317814, 0.003589683212339878, 0.060369305312633514, 0.0021422752179205418, 0.005994495004415512, 0.033246736973524094, -0.027826257050037384, 4.910149818994159e-40, 4.9240647127449045e-40, -0.030593816190958023, -0.004337816033512354, -0.04627543315291405, -0.013932455331087112, 4.908776546499121e-40, 0.03744182735681534, 0.04689567908644676, -4.9754503274316955e-40, 4.927806179644652e-40, 2.73756384272605e-30, 4.917548674885794e-40, 4.982232611999028e-40, 0.0006539683672599494, 4.954739136128975e-40, 4.9051471834765194e-40, -4.971848990378381e-40, -0.0039456370286643505, -4.913190636661744e-40, 0.04891166836023331, 5.3314642152780585e-40, 0.06453094631433487, -4.998585765077698e-40, -4.939857346437845e-40, 0.028425799682736397, -0.0027966820634901524, -0.009987636469304562, 0.017996322363615036, 0.021265361458063126, -0.00352576095610857, -0.07265900075435638, 0.13408993184566498, 0.033659789711236954, 0.050564490258693695, -0.014314414002001286, -1.6834619600558653e-05, -0.016171157360076904, -0.0020117147359997034, -0.009457181207835674, 0.03052581287920475, -0.04717223346233368, 4.959013096445165e-40, 5.0943645151142995e-40, -0.02185986191034317, -0.029912568628787994, 0.029651623219251633, -0.04457634314894676, -4.9157129738975285e-40, 0.0714225172996521, 0.007102772127836943, -5.033534148777959e-40, -5.020375956197949e-40, -4.797219175754222e-40, 4.925550089117089e-40, -5.318179905836259e-40, 0.006850556470453739, 4.944761891062982e-40, -4.924148790652764e-40, 4.944663800170479e-40, -0.036786846816539764, -4.908832598437694e-40, 0.12464981526136398, -4.91710025937721e-40, -0.03413752466440201, -4.977286028419961e-40, 5.120064328950017e-40, 0.07808768004179001, -0.04505114629864693, 0.10696761310100555, 0.015539545565843582, 0.012205536477267742, 0.039159245789051056, 0.008630447089672089, 0.14985400438308716, -0.09601609408855438, -0.04043133556842804, 0.10982444137334824, -0.004869206342846155, -0.07300255447626114, 0.004129024688154459, -0.03262244164943695, -0.01989067904651165, 0.08739224076271057, 4.964464147471389e-40, 4.910275935855948e-40, 0.0233176127076149, -0.004021426662802696, 0.015801377594470978, 0.06835426390171051, 4.967518978123617e-40, -0.02451365627348423, -0.01191200502216816, 4.9408943073014455e-40, -4.9369986975706225e-40, -1.1087207974390528e-37, -4.937489152033136e-40, -5.006993555863647e-40, -0.012465355917811394, -4.9489797994406e-40, -4.932248295776561e-40, 4.993078662112902e-40, -0.03597066551446915, -4.942786060228284e-40, -0.03363286703824997, -6.022402449082696e-40, 0.0844632014632225, -4.959741771646614e-40, 4.975520392354912e-40, -0.01770465075969696, -0.0067391423508524895, -0.03367163985967636, -0.02341954968869686, -0.025813506916165352, -0.011860472150146961, -0.0135431420058012, -0.16230662167072296, -0.1435743272304535, 0.010808825492858887, -0.08623670786619186, -0.001761330640874803, -0.049362052232027054, 0.0019384095212444663, -0.018762631341814995, 0.03881203383207321, -0.05049337074160576, -4.9354152303059355e-40, -5.097055008165803e-40, -0.023539988324046135, -0.0324053019285202, -0.013667299412190914, -0.032692961394786835, 5.007343880479728e-40, 0.09816965460777283, 0.06019540876150131, -5.0502656524419975e-40, -5.020305891274733e-40, -1.19349991505009e-40, 4.922397167572358e-40, -4.9443415015236846e-40, 0.026833748444914818, -5.2782148736337155e-40, 4.930314503895793e-40, -5.047140756866553e-40, 0.0020098958630114794, 4.948475331993443e-40, 0.10862839221954346, 4.948643487809162e-40, -0.029462426900863647, -5.0020469722845805e-40, -4.910612247487386e-40, 0.03941817209124565, -0.04868575558066368, 0.028643542900681496, 0.10434059053659439, 0.03253761678934097, -0.017367061227560043, 0.022853998467326164, -0.02502099797129631, 0.11685661226511002, 0.012847695499658585, 0.045266542583703995, 0.002821364440023899, 0.03977026417851448, -0.0004285895556677133, 0.0302559956908226, -0.01815197616815567, 0.06888967007398605, 4.955145512683629e-40, 4.928745049615749e-40, 0.028078623116016388, 0.03443199396133423, 0.024442702531814575, 0.06366219371557236, 5.001752699607072e-40, -0.022989438846707344, -0.012879741378128529, -5.041661679871043e-40, -4.944383540477614e-40, -4.9196085836283515e-40, -4.9116492083509866e-40, 4.948993812425243e-40, -0.001552607398480177, 5.041899900609978e-40, -4.915516792112523e-40, -4.983255559877985e-40, 0.05710930377244949, 4.938371970065661e-40, -0.02386486530303955, -5.023318682973031e-40, 0.028985535725951195, -4.967645094985406e-40, 4.961129057126296e-40, -0.01670185849070549, 0.06271493434906006, -0.024043777957558632, -0.021904297173023224, 0.03748102858662605, 0.004458214621990919, 0.045587919652462006, 0.15834163129329681, 0.09395584464073181, 0.09391774237155914, 0.0463971272110939, -0.002085034502670169, -0.0020015654154121876, 0.0025792864616960287, 0.08312378823757172, -0.005227704998105764, -0.054185520857572556, 4.959279343153387e-40, -4.929347607955409e-40, -0.0037959585897624493, -0.007165385410189629, 0.024312680587172508, 0.04168517887592316, -5.004569309520365e-40, 0.016689732670783997, -0.004456906113773584, 4.9576958758887e-40, 4.9924480778039555e-40, 3.3294884053255527e-29, 4.941328709825386e-40, -4.97905166448501e-40, 0.004410012625157833, 4.934154061688043e-40, -4.917955051440448e-40, -4.961044979218436e-40, 0.06264980882406235, 4.941847190257186e-40, -0.021648868918418884, -4.985819936067699e-40, -0.04342775419354439, 4.9788975216539345e-40, 4.976711496049588e-40, -0.008115218952298164, 0.010864521376788616, 0.01178042683750391, -0.015647796913981438, -0.009263245388865471, -0.060260456055402756, -0.03532026335597038, 0.1594790816307068, -0.040419887751340866, -0.01816740073263645, -0.056463997811079025, -0.0008825993863865733, 0.05260351672768593, 0.00569131737574935, 0.005033823195844889, 0.04722743481397629, -0.012871700339019299, -4.95281935723285e-40, -4.98837029927277e-40, -0.01309245079755783, -0.04482612386345863, -0.010535642504692078, 0.009744438342750072, -4.9506053056592165e-40, 0.05393507331609726, 0.004697348456829786, -5.042278251195346e-40, -4.991018753370344e-40, 7.110972014085372e-38, 4.999608712956655e-40, -4.968794159726153e-40, -0.0038902887608855963, -4.947031994575188e-40, 4.921486323570547e-40, 4.9674909521543305e-40, -0.024236785247921944, 4.909519234685213e-40, 0.037486180663108826, -4.928352686045738e-40, -0.027790984138846397, 4.918123207256167e-40, -5.4394763009082154e-40, 0.012836477719247341, 0.007203914225101471, 0.07131212204694748, 0.0438704714179039, -0.13502156734466553, 0.004764724522829056, 0.02673134207725525, 0.15498068928718567, -0.07173988968133926, 0.06465021520853043, 0.06198938935995102, -0.0040108757093548775, 0.02734796144068241, 0.006770382635295391, -0.007766054943203926, 0.0053879511542618275, -0.020301643759012222, -5.465106049820716e-40, 4.905371391230811e-40, -0.016714589670300484, 0.06728245317935944, 0.03622277453541756, 0.0329664871096611, 5.074690284675179e-40, 0.00554279237985611, 0.006070498842746019, 4.962740550360269e-40, -5.0450107832007794e-40, -1.5130160186044003e-30, 4.911298883734905e-40, -4.932360399653707e-40, 0.004727278370410204, 4.925620154040305e-40, -4.904726793937222e-40, 4.960008018354836e-40, 0.017330678179860115, 4.936928632647406e-40, 0.004050442948937416, -5.642230175711373e-40, 0.0853913202881813, -4.992349986911453e-40, 5.079202465730305e-40, 0.005204095039516687, 0.04526243731379509, 0.005797564517706633, 0.005387007258832455, 0.0010394550627097487, 0.003411457408219576, 0.0018915706314146519, -0.00023496757785324007, -0.023057157173752785, 0.007712232414633036, 0.014064367860555649, -0.0005194138502702117, 0.009445013478398323, -0.00030769442673772573, 0.017330601811408997, -0.011061757802963257, 0.027503851801156998, 4.933131113809086e-40, 4.930580750604015e-40, 0.012576784938573837, 0.017118507996201515, 0.007962028495967388, 0.024864282459020615, -4.920309232860514e-40, -0.01434619165956974, -0.008277162909507751, -5.6302770998106825e-40, -4.9242889204991964e-40, 4.911214805827046e-40, -5.005984620969333e-40, 4.9797943526711024e-40, -0.003812831826508045, 4.932038101006913e-40, -4.934154061688043e-40, -4.994662129377589e-40, 0.019892409443855286, 4.918431492918319e-40, -0.017758386209607124, 4.964968614918546e-40, 0.020785681903362274, -5.0274525134427895e-40, 4.975926768909566e-40, -0.010076148435473442, 0.026064077392220497, -0.01677696779370308, -0.013465886004269123, -0.005727971903979778, 0.00239745550788939, -0.007290908135473728, -0.052842963486909866, 0.04668699949979782, 0.0042539010755717754, 0.03588195890188217, 0.0029519882518798113, 0.03701835498213768, -0.001543650752864778, 0.047897737473249435, -0.012552617117762566, 0.049789171665906906, -4.932150204884059e-40, 6.06996251896188e-40, 0.023517921566963196, 0.035692404955625534, 0.03196921944618225, 0.07058745622634888, -4.991817493495009e-40, -0.016085460782051086, -0.009649894200265408, -4.930945088204739e-40, 5.024103410113053e-40, -4.914213584540701e-40, 4.910135806009516e-40, 4.9733063407812785e-40, -0.0010142057435587049, 4.923195907697023e-40, -4.904993040645444e-40, -5.032020746436488e-40, 0.06258299201726913, -4.91054218256417e-40, -0.01891261525452137, 4.958242382289787e-40, 0.04791247099637985, -5.00765216614188e-40, -4.98069118368827e-40, -0.011888294480741024, 0.04828605055809021, -0.019496768712997437, -0.014395072124898434, -0.0065806275233626366, 0.02304476872086525, -0.07304568588733673, -0.10587966442108154, -0.14631697535514832, 0.03992914780974388, 0.009527730755507946, 0.001405398128554225, 0.034134626388549805, -0.002913965145125985, 0.06545515358448029, 0.009254795499145985, 0.07919249683618546, -4.913933324847836e-40, 6.134660469059757e-40, 0.01094671431928873, 0.037691548466682434, 0.06685720384120941, 0.08617944270372391, -4.9827370794461845e-40, 0.0017331974813714623, 0.004066329915076494, -5.0077502570343825e-40, -4.9999590375727365e-40, 2.1097578390833338e-36, 4.959573615830895e-40, 6.161817633298372e-40, 0.005972019862383604, -4.9720171461941e-40, 4.949316111072038e-40, 4.908188001144104e-40, -0.009477298706769943, -4.911368948658122e-40, 0.011625014245510101, 5.005199893829311e-40, 0.06071572005748749, -5.000547582927753e-40, -4.987515507209532e-40, 0.01674000918865204, -0.00875618401914835, 0.033763911575078964, 0.01048348005861044, 0.06680338084697723, -0.017676997929811478, 0.012346405535936356, -0.10692308098077774, 0.10637559741735458, 0.04537424072623253, 0.08388112485408783, 0.004882408306002617, -0.021945493295788765, -0.0025481898337602615, 0.07234204560518265, -0.020810747519135475, 0.09257687628269196, 5.0191568265339865e-40, -4.995671064271903e-40, 0.03510623052716255, 0.04717227816581726, 0.04108934476971626, 0.08831048011779785, 4.992700311527534e-40, -0.013324531726539135, -0.00370078906416893, -5.094098268406078e-40, 4.96981710760511e-40, -4.915362649281447e-40, -4.961703589496669e-40, 5.012066256304503e-40, -0.004465644247829914, -4.9812657160586435e-40, 4.909757455424148e-40, -4.933173152763016e-40, 0.0927993431687355, -4.932066126976199e-40, 0.015536066144704819, -5.02788691596673e-40, 0.05223655328154564, -4.969102445388304e-40, 5.054917963343556e-40, -0.008372262120246887, 0.07846565544605255, -0.014995078556239605, -0.025462685152888298, 0.07141579687595367, -0.05498719587922096, -0.015475280582904816, -0.09817110002040863, 0.08874766528606415, 0.026973700150847435, -0.028141604736447334, 0.004277319647371769, 0.013752356171607971, 0.004228099714964628, 0.0027999887242913246, 0.021587258204817772, 0.004198695067316294, 4.995334752640465e-40, 5.000323375173461e-40, 0.0005131398793309927, 0.00300078047439456, 0.010318419896066189, 0.00391334667801857, -4.974609548353101e-40, 0.015853019431233406, 0.012259721755981445, -5.021763241677631e-40, -4.928857153492895e-40, 4.918669713657254e-40, 4.963287056761356e-40, 4.936578308031325e-40, 0.006278803572058678, -4.963343108699929e-40, -4.913695104108901e-40, -5.036560953460901e-40, 0.012409444898366928, 4.954542954343969e-40, 0.013662050478160381, -4.98353581957085e-40, 0.01718256063759327, 4.926236725364608e-40, -4.980747235626843e-40, 0.017898013815283775, -0.0005402649403549731, 0.01572543941438198, 0.02749376744031906, 0.06569630652666092, -0.025369107723236084, -0.021286064758896828, 0.15035952627658844, -0.026137037202715874, 0.04910629987716675, -0.03169858828186989, -0.001778037752956152, 0.0753340795636177, 0.0023107121232897043, -0.042563166469335556, 0.08330956846475601, -0.05888821929693222, 5.8849350697324315e-40, 5.026135292886324e-40, -0.02672802470624447, -0.03688827529549599, 0.010992071591317654, -0.04606275260448456, -4.999006154616996e-40, 0.04027323052287102, 0.019628627225756645, -4.96489854999533e-40, -5.016914748991067e-40, -4.904600677075433e-40, -4.928731036631106e-40, -4.916007246575037e-40, 0.020975103601813316, -4.947031994575188e-40, -4.93629804833846e-40, 5.0546096776814044e-40, -0.04974193125963211, -4.94294020305936e-40, 0.11771928519010544, 6.0862876460712645e-40, -0.04574614763259888, 4.93737704815599e-40, 4.9530295520024984e-40, 0.03408292308449745, -0.05580620840191841, -0.01088305376470089, 0.07242313772439957, 0.04794667661190033, 0.16804230213165283, 0.06069719418883324, -0.05323077365756035, 0.0334484837949276, -0.014308478683233261, 0.0748412236571312, -0.002293384401127696, -0.043687280267477036, 0.007861597463488579, 0.005762903485447168, -0.000792005390394479, -0.025717541575431824, -4.920435349722303e-40, 4.978098781529269e-40, -0.009164751507341862, -0.01896565780043602, -0.032822512090206146, 0.0026602568104863167, -4.9606526156484254e-40, -0.001551561988890171, -0.0006231701117940247, 4.92150033655519e-40, -4.970447691914056e-40, 9.503845807088309e-39, -4.94565872208015e-40, 4.970966172345856e-40, -0.0007264729356393218, -5.025322539777016e-40, -4.922439206526288e-40, -5.020319904259376e-40, -0.026932157576084137, 4.931533633559756e-40, -0.001618255046196282, -5.1864578501897264e-40, -0.020263036713004112, 4.982246624983671e-40, -4.974707639245603e-40, -0.000767499441280961, -0.027234837412834167, -0.0015343747800216079, -0.0012948212679475546, 0.0012610494159162045, 0.13412293791770935, -0.08710211515426636, 0.038213565945625305, 0.01036726962774992, 0.009183893911540508, -0.06484176963567734, 0.006625629961490631, -0.026472307741642, -0.006257885601371527, -0.011564813554286957, 0.02833252027630806, -0.027755022048950195, 4.942912177090073e-40, -4.947088046513761e-40, -0.008376918733119965, -0.013480394147336483, 0.004619152285158634, 0.03129586577415466, 5.02357091669661e-40, 0.0239433441311121, 0.023285210132598877, -4.971190380100148e-40, 4.912335844598506e-40, 4.913330766508176e-40, -6.0254152407809944e-40, -4.927694075767506e-40, 0.019517194479703903, 4.916483688052907e-40, 4.929291556016836e-40, 4.988244182410981e-40, 0.001006283680908382, 5.388595153668581e-40, 0.035789117217063904, 4.995937310980124e-40, 0.011910585686564445, -4.906800715664423e-40, -5.90878516959524e-40, 0.0300825797021389, -0.01627989672124386, 0.04299454018473625, 0.04221668839454651, 0.03847384452819824, -0.031165212392807007, 0.07820258289575577, -0.13083341717720032, -0.11281172186136246, -0.05021130293607712, 0.0609477236866951, 0.0022207654546946287, 0.03874558210372925, -0.003368066856637597, 0.023536568507552147, 0.003929122816771269, 0.08564455062150955, -4.9932328049439774e-40, -4.9884403641959865e-40, 0.027010660618543625, 0.041270382702350616, 0.04184426739811897, 0.10334746539592743, -5.036350758691252e-40, 0.004773789085447788, 0.0053085582330822945, -4.929838062417923e-40, -4.999384505202363e-40, 2.892997575536216e-33, -4.914914233772863e-40, 5.886364394166043e-40, 0.0057181138545274734, 5.004737465336084e-40, 4.939997476284278e-40, 4.936844554739547e-40, 0.0031648934818804264, -4.911439013581338e-40, -0.00436032610014081, 5.049312769486257e-40, 0.05532009154558182, -4.945252345525496e-40, 4.972199314994462e-40, 0.0010709977941587567, 0.051168378442525864, 0.0017779524205252528, -0.0012464286992326379, 0.057737380266189575, -0.08438421785831451, 0.1959415078163147, 0.07104191184043884, 0.04314403235912323, -0.03861139714717865, 0.020247237756848335, -0.006445887964218855, -0.050972457975149155, -0.0007002303027547896, 0.07035758346319199, -0.00022021785844117403, 0.09673072397708893, -4.929165439155047e-40, 4.91718433728507e-40, -0.004793023690581322, 0.04303745925426483, 0.052434373646974564, 0.048089779913425446, -4.976249067556361e-40, -0.001037691137753427, 0.0023657598067075014, 5.025841020208816e-40, -4.9580602134894245e-40, 2.760605577362337e-32, -4.940263722992499e-40, -4.9407261514857265e-40, 0.002393383299931884, 4.943879073030457e-40, -4.922775518157726e-40, 4.979542118947524e-40, -0.010908537544310093, -4.915530805097166e-40, -0.0044297752901911736, -4.9520766690467575e-40, -0.010361085645854473, -4.9329909839626535e-40, 4.9722273409637484e-40, 2.6317473384551704e-05, -0.019567610695958138, -0.0002451217151246965, 0.0005179332219995558, -0.04420993849635124, -0.15031510591506958, -0.0800105556845665, 0.07876195758581161, -0.025433147326111794, 0.05397600680589676, -0.038992200046777725, 0.0011640769662335515, -0.0029492489993572235, -0.001344408025033772, 0.04797981679439545, -0.013637459836900234, -0.0025395741686224937, 4.918109194271524e-40, 5.00704960780222e-40, 0.008725746534764767, 0.052222564816474915, 0.05576738342642784, 0.07218167185783386, 4.9198327913826435e-40, -0.016933633014559746, -0.00922399666160345, 5.050868210781657e-40, -5.037864161032723e-40, 1.4812145157452614e-40, -4.959405460015176e-40, -4.975716574139917e-40, -0.008191782981157303, 5.08552232180441e-40, -4.916315532237188e-40, -5.023963280266621e-40, 0.033916156738996506, -4.90950522170057e-40, -0.02055458538234234, -5.235909672995749e-40, 0.005398929119110107, 4.940487930746791e-40, 4.999566674002726e-40, -0.012769297696650028, 0.05105740204453468, -0.01924957148730755, -0.01629028096795082, -0.001966677838936448, -0.040329087525606155, 0.03964359313249588, -0.13001787662506104, -0.05303916707634926, -0.0045549301430583, 0.07284455001354218, 0.0017649850342422724, 0.09543044120073318, -0.0006999924080446362, -0.0089103439822793, 0.04276108369231224, 0.027104830369353294, -4.925451998224586e-40, 4.985483624436261e-40, 0.015306220389902592, -0.012876707129180431, 0.06297123432159424, 0.06830964237451553, 4.9385821648353096e-40, 0.036519937217235565, 0.03002943843603134, 4.963090874976351e-40, 5.020319904259376e-40, -1.875658648517093e-35, 4.9760668987559984e-40, 5.000337388158104e-40, 0.025142386555671692, 4.909533247669856e-40, -4.915783038820745e-40, 4.91822129814867e-40, -0.017473114654421806, -4.931996062052983e-40, -0.01984577625989914, 5.030857668711099e-40, -0.031827736645936966, -4.9430943458904355e-40, -4.951936539200325e-40, 0.04001724720001221, 0.012118089944124222, 0.05274473875761032, -0.005605487618595362, 0.027787651866674423, -0.03975899517536163, 0.06247333064675331, -0.09170328080654144, 0.0939611941576004, -0.004843262489885092, -0.03449137881398201, 0.002535026054829359, -0.0013825043570250273, 0.0016981239896267653, -0.002356636105105281, 0.00721163721755147, -0.00813759583979845, -4.930580750604015e-40, -4.952945474094639e-40, -0.003903858596459031, -0.005195778328925371, 0.0068339696153998375, -0.008751565590500832, 5.029778668893569e-40, 0.012998043559491634, 0.012537338770925999, -4.919748713474784e-40, -5.0173491515150075e-40, 4.922901635019515e-40, -4.958130278412641e-40, -5.0388590829423935e-40, 0.00975065678358078, 4.955621954161499e-40, -3.3360011890948758e-40, 5.053895015464599e-40, 0.003953773993998766, -4.933033022916583e-40, 0.03824688121676445, -5.0084789322358314e-40, -0.004353600088506937, -4.937405074125277e-40, 5.010524827993746e-40, 0.010527504608035088, -0.00798027217388153, 0.036343835294246674, 0.03161841258406639, -0.04740506783127785, 0.09482518583536148, 0.014561218209564686, -0.06407125294208527, -0.08675279468297958, 0.1022147536277771, -0.09762103855609894, 0.007075612433254719, 0.08565814793109894, -0.007834039628505707, 0.0057604131288826466, 0.05027449131011963, -0.02236396074295044, -4.974021002998084e-40, -4.97413310687523e-40, -0.025197166949510574, -0.034302905201911926, 0.03909100219607353, 0.010242789052426815, -4.948447306024156e-40, 0.06152253970503807, 0.037941623479127884, -5.065609870626354e-40, 4.944705839124409e-40, 4.91270018219923e-40, -4.981630053659368e-40, 4.933075061870513e-40, 0.0318942628800869, 4.9778745737749774e-40, 4.907235118188363e-40, 5.029792681878212e-40, -0.002351868897676468, 4.909477195731283e-40, 0.07586385309696198, 5.234031933053554e-40, -0.04873288795351982, -4.983507793601563e-40, -5.058995741874741e-40, 0.04840885475277901, -0.0766378864645958, 0.0758366659283638, 0.06691160053014755, -0.0530703105032444, 0.020984424278140068, -0.25646597146987915, 0.0293847918510437, 0.0707712396979332, -0.05233707278966904, -0.1309550553560257, 0.012893179431557655, 0.09415235370397568, 0.012072628363966942, 0.03259113430976868, -0.004773356486111879, -0.007226746995002031, -4.935345165382719e-40, 4.976683470080301e-40, 0.008104744367301464, 0.00880602840334177, 0.0028017349541187286, -0.003594012465327978, -5.0685666103860796e-40, -0.007072196342051029, -0.001882303273305297, 4.9691865232961636e-40, -4.909519234685213e-40, 3.594613999743912e-31, 4.918291363071886e-40, 5.000029102495953e-40, -0.01017613522708416, 4.941847190257186e-40, -4.909252987976991e-40, 4.9832415468933415e-40, 0.03333878889679909, -4.91490022078822e-40, -0.01179839763790369, -6.1207876142629415e-40, 0.047172289341688156, 4.945882929834442e-40, -4.9065624949254875e-40, -0.004240818787366152, -0.011444784700870514, -0.007248444948345423, -0.005957168992608786, -0.003756381804123521, -0.0036808676086366177, -0.0420585535466671, 0.04754120483994484, 0.15080353617668152, 0.02816956304013729, -0.04141077771782875, 0.002028325805440545, 0.07807639986276627, 0.002107810927554965, 0.014852417632937431, -0.0009896717965602875, 0.03469435125589371, -5.0027756474860294e-40, -5.017839605977521e-40, 0.01374460756778717, 0.009981936775147915, 0.03618888556957245, 0.05276573821902275, 5.046159847941526e-40, -0.0054814573377370834, 0.0022751041688024998, 4.917492622947221e-40, 4.913597013216398e-40, -4.907963793389812e-40, -4.926867309673554e-40, 4.993961480145426e-40, -0.0019468450918793678, 4.944145319738679e-40, 4.929361620940052e-40, -5.033814408470824e-40, 0.05604139342904091, -4.912167688782787e-40, 0.005653358995914459, -5.182422110612471e-40, 0.04113210365176201, 4.9183614279951024e-40, 5.1034589421477675e-40, -0.00241656880825758, 0.03172392025589943, -0.004153775982558727, -0.0031950329430401325, 0.04889163374900818, 0.001961065921932459, 0.024864543229341507, -0.12225018441677094, -0.06323029845952988, -0.06673943251371384, 0.04645291343331337, 0.002562762936577201, -0.03973425552248955, -0.0041640703566372395, 0.04415097460150719, 0.01964709721505642, 0.015720896422863007, -4.963231004822783e-40, -4.907627481758374e-40, -0.01965165324509144, 0.06527207791805267, 0.0342291034758091, 0.011587045155465603, -4.965529134304276e-40, 0.0033001156989485025, 0.002519049448892474, 5.012949074337028e-40, -4.929417672878625e-40, -7.149033145655806e-30, 4.935681477014157e-40, 4.975015924907755e-40, 0.006228655576705933, -4.9427580342589975e-40, 4.943766969153311e-40, 4.906422365079055e-40, -0.01857447437942028, -4.927876244567868e-40, -0.008374009281396866, 5.035173667981219e-40, -0.0044375318102538586, -4.9480689554387886e-40, -4.978140820483199e-40, 0.004036851227283478, -0.016880694776773453, -0.0017306514782831073, 0.007108278106898069, -0.03678988665342331, -0.049425479024648666, 0.05127868428826332, 0.10693556070327759, -0.027264658361673355, -0.012011729180812836, -0.08248981833457947, -0.001341880182735622, 0.07774368673563004, 0.0021994723938405514, -0.03235059976577759, 0.001367012388072908, 0.037272222340106964, 4.983255559877985e-40, 5.017769541054305e-40, 0.014176185242831707, 0.036887042224407196, 0.03298184648156166, 0.03253395855426788, -5.624755983861243e-40, -0.025736136361956596, -0.0015060199657455087, -4.91274222115316e-40, -4.90778162458945e-40, 2.2245305059702074e-36, -4.9941997008843615e-40, -5.029764655908925e-40, 0.008779486641287804, 4.98677281902344e-40, 6.132782729117562e-40, -5.042824757596433e-40, 0.08425707370042801, 4.919076090211908e-40, -0.03216918930411339, -5.027354422550287e-40, -0.028727753087878227, 4.943164410813652e-40, -4.9807612486114865e-40, -0.01416368130594492, 0.04313354194164276, -0.022428298369050026, -0.023348912596702576, 0.04846864938735962, -0.07068400830030441, 0.03589983284473419, -0.09681262820959091, -0.1824248731136322, 0.055901918560266495, -0.0690959021449089, 0.0032554627396166325, 0.059741564095020294, -0.006354332435876131, 0.07704542577266693, 0.026476962491869926, -0.05136645585298538, 4.979836391625032e-40, -5.00877320491334e-40, 0.020566819235682487, -0.02240739017724991, 0.07733377814292908, 0.09899996221065521, -5.031193980342537e-40, 0.04143325239419937, 0.02081829123198986, 4.968808172710796e-40, -4.982036430214022e-40, -6.083234498251124e-29, -4.964618290302465e-40, 5.055478482729286e-40, 0.022448362782597542, -5.04212410836427e-40, 4.914115493648198e-40, 4.975156054754187e-40, 0.06174534186720848, 4.932108165930129e-40, 0.04650845006108284, 6.183481707556834e-40, 0.061322540044784546, 4.949708474642049e-40, 5.845740751685266e-40, 0.02945331111550331, 0.018607517704367638, 0.04333199933171272, 0.04361630603671074, -0.00852124486118555, 0.021830307319760323, -0.0048112766817212105, -0.010751227848231792, -1.1493773854454048e-05, 0.023539066314697266, 0.011764013208448887, 0.0009473618702031672, 0.04775809124112129, -0.0003438455460127443, 0.033053699880838394, -0.019962221384048462, 0.049021121114492416, 4.990220013245679e-40, 5.087329996823389e-40, 0.02431350201368332, 0.03353118151426315, 0.016070138663053513, 0.05672958493232727, -4.983339637785844e-40, -0.02529555931687355, -0.014767655171453953, -5.046916549112261e-40, -5.0256448384238104e-40, -4.933355321563378e-40, 5.023374734911604e-40, -5.011435671995557e-40, -0.005958416499197483, 4.99285445435861e-40, -4.912854325030306e-40, 4.951347993845309e-40, 0.04058150574564934, -4.917927025471162e-40, -0.03153520077466965, 5.009403789222286e-40, 0.04554227367043495, 5.084891737495464e-40, -5.0391953945738314e-40, -0.01834418810904026, 0.05107526481151581, -0.029350001364946365, -0.02421806938946247, -0.019826587289571762, 0.09109997749328613, -0.05445680022239685, 0.1323929876089096, -0.008355744183063507, 0.04572198912501335, -0.01919100619852543, -0.0057094041258096695, 0.006658175960183144, 0.004952676594257355, 0.03883647173643112, 0.013225419446825981, -0.022351475432515144, -4.958900992568019e-40, 4.947284228298767e-40, -0.002718165749683976, -0.008144928142428398, 0.043860290199518204, -0.016231276094913483, -5.049158626655181e-40, 0.03409804031252861, 0.01975361444056034, 5.048822315023743e-40, -4.911747299243489e-40, 1.5700848643527413e-38, -4.969228562250093e-40, -4.923237946650953e-40, 8.726748637855053e-05, 4.927161582351062e-40, -4.9452383325408524e-40, -5.023640981619826e-40, 0.002235115272924304, 4.9309030492508096e-40, 0.03149450942873955, -5.1130017846898195e-40, 0.02448112890124321, 5.003532348656765e-40, -4.96209595306668e-40, 0.015359756536781788, -0.028418079018592834, 0.03544645756483078, -0.011111903004348278, 0.06834117323160172, 0.03834804892539978, -0.031109265983104706, 0.1345990002155304, -0.017458811402320862, 0.03095637820661068, -0.0002508224861230701, -0.00019339119899086654, -0.008756013587117195, -0.0029733292758464813, -0.027153005823493004, 0.0002245357318315655, -0.048197466880083084, 4.92637685521104e-40, 5.090623048214552e-40, -0.021833693608641624, -0.02995740994811058, -0.028797917068004608, -0.023585859686136246, -4.99773097301446e-40, -0.005043091252446175, 0.05977007746696472, -4.930510685680799e-40, -5.6840309089021825e-40, 3.3890543489542133e-40, -4.955341694468634e-40, -4.9756184832474145e-40, 0.019628360867500305, -4.905315339292238e-40, -4.92861893275396e-40, 5.037345680600923e-40, -0.013565936125814915, 4.932164217868702e-40, 0.08251074701547623, 4.935092931659141e-40, -0.03439337760210037, 4.924933517792786e-40, 5.011828035565568e-40, 0.08610702306032181, -0.04542141780257225, 0.09237974882125854, 0.07230393588542938, 0.04279699921607971, 0.041864268481731415, -0.055810149759054184, -0.13775986433029175, -0.038168855011463165, 0.05214058980345726, 0.11971346288919449, 0.0018066333141177893, 0.015055356547236443, -0.0023510372266173363, 0.01079708430916071, -0.003201970597729087, -0.020231155678629875, 4.936396139230963e-40, 5.006405010508631e-40, -0.0035539723467081785, -0.009401571936905384, -0.024814046919345856, -0.01711161993443966, -5.0723641292244e-40, -0.004352154675871134, 0.003972434438765049, -4.956000304746867e-40, -4.953183694833574e-40, -2.062017476394909e-33, -4.9632590307920696e-40, 4.9699712504361855e-40, 0.018731532618403435, -4.9689623155418716e-40, 4.9335515033483835e-40, -6.194117562901059e-40, 0.08270800858736038, -4.9058898716626116e-40, 0.004854713100939989, 5.0196612939811435e-40, 0.037678610533475876, -5.000757777697402e-40, -4.951347993845309e-40, -0.005947826895862818, 0.04569889232516289, -0.0005822735838592052, 0.016928182914853096, 0.09134302288293839, 0.13315045833587646, -0.09644215553998947, 0.11206898093223572, 0.06748472899198532, -0.05716956779360771, 0.0713735967874527, 0.0001046748147928156, -0.020134806632995605, 0.007677518296986818, -0.03212159126996994, -0.005283553618937731, -0.024785272777080536, -4.940263722992499e-40, 4.972129250071246e-40, 0.018911682069301605, 0.04650987684726715, 0.007810351438820362, 0.03596201911568642, -4.9392547880981855e-40, -0.007170733064413071, -0.0038252801168709993, -4.920757648369098e-40, 4.960568537740566e-40, 6.474379520264341e-35, -4.959041122414452e-40, 5.013915970277412e-40, 0.008386000990867615, 5.032511200899002e-40, 4.929894114356496e-40, -5.018456177301824e-40, -0.005217427387833595, -4.933089074855156e-40, -0.009510892443358898, -6.275476951739758e-40, -0.03733909875154495, 4.947662578884134e-40, 4.925353907332083e-40, -0.0049684662371873856, 0.04073188081383705, -0.00858631357550621, -0.006693245843052864, -0.03475393354892731, -0.012897198088467121, 0.02153800055384636, 0.012254273518919945, 0.12814995646476746, 0.06965180486440659, 0.012269247323274612, 0.0021797034423798323, 0.08600115031003952, 0.0009006566251628101, 0.04920799285173416, -0.013164871372282505, 0.04518333822488785, -4.993513064636842e-40, -4.930931075220096e-40, 0.021080775186419487, 0.0316447950899601, 0.006553197279572487, 0.03049568086862564, -4.927974335460371e-40, -0.01841924525797367, -0.007622445933520794, 4.93357952931767e-40, 4.9565888501018835e-40, -4.907403274004082e-40, 5.006825400047928e-40, 4.965010653872476e-40, 0.001264320220798254, 5.017671450161802e-40, -4.91054218256417e-40, -5.027214292703854e-40, 0.05719141289591789, -4.938778346620315e-40, -0.03057030774652958, -5.02188935853942e-40, 0.02194526419043541, -5.029274201446412e-40, 4.911214805827046e-40, -0.014687004499137402, 0.039139337837696075, -0.01514890231192112, -0.019123224541544914, -0.003933802712708712, -0.0031098329927772284, 0.0014621157897636294, 0.13875022530555725, -0.08906376361846924, 0.041836947202682495, 0.011263960972428322, -0.002096048090606928, 0.047555774450302124, -0.0021672549191862345, -0.02557693049311638, 0.05749354884028435, -0.041396718472242355, 4.930552724634728e-40, 4.9652348616267676e-40, -0.019509728997945786, -0.026759205386042595, 0.016510600224137306, -0.0336112342774868, -4.970699925637634e-40, 0.08504363894462585, 0.04810024052858353, -4.922649401295936e-40, 5.0775909724963314e-40, 4.369192559826207e-40, -4.966664186060379e-40, 4.955313668499348e-40, 0.009744026698172092, -4.9383579570810176e-40, -4.946121150573377e-40, 5.39596598359093e-40, -0.00394041184335947, -4.987403403332386e-40, 0.10703272372484207, -4.972787860349478e-40, -0.03233404457569122, 4.9501008382120596e-40, 4.98241478079939e-40, 0.03795548900961876, -0.04051375389099121, 0.08222511410713196, -0.0009271620656363666, 0.08097799122333527, -0.024831699207425117, 0.004779179580509663, 0.125692680478096, -0.15414893627166748, -0.03646674379706383, -0.059096138924360275, -0.001964099705219269, 0.0637652799487114, -0.008140401914715767, -0.038358572870492935, 0.034941453486680984, -0.06164650246500969, 4.980523027872551e-40, 5.038592836234172e-40, -0.021852288395166397, -0.030712885782122612, 0.03810065984725952, -0.04291394725441933, -5.026681799287411e-40, 0.0763205960392952, 0.03377608582377434, -4.97689366484995e-40, -4.987459455270959e-40, 4.9102899488405915e-40, 4.983171481970125e-40, 4.9677712118471955e-40, 0.014926298521459103, 4.926250738349251e-40, -6.081313036522911e-40, -4.94777468276128e-40, 0.014259918592870235, 4.946723708913037e-40, 0.05674039199948311, 4.915909155682534e-40, -0.039289675652980804, 4.922453219510931e-40, 4.94289816410543e-40, 0.027156800031661987, -0.03815041109919548, 0.09034932404756546, 0.028640685603022575, -0.038438472896814346, 0.01695646159350872, 0.014971032738685608, 0.09822314232587814, -0.06096706539392471, -0.015073173679411411, -0.007534126751124859, -0.0002924312721006572, 0.013370773755013943, -0.0015035917749628425, -0.014932562597095966, 0.02813190594315529, -0.036256179213523865, 4.96041439490949e-40, 4.945812864911226e-40, -0.016481507569551468, -0.022577254101634026, 0.008388485759496689, -0.023468470200896263, -5.007427958387588e-40, 0.0480242483317852, 0.007444302551448345, 4.926320803272467e-40, -5.0560249891303725e-40, 4.913204649646387e-40, -4.960638602663782e-40, -4.971022224284429e-40, 0.0009323154808953404, 4.909603312593072e-40, -4.916707895807199e-40, -5.062639117881986e-40, -0.0031217127107083797, 4.9070109104340714e-40, 0.11385859549045563, 4.959209278230171e-40, -0.025851916521787643, 4.963665407346724e-40, 4.924849439884926e-40, 0.028334077447652817, -0.03448684886097908, 0.04469511657953262, 0.03225504234433174, 0.023244164884090424, 0.03456701338291168, -0.02618192881345749, 0.16171009838581085, -0.0881936326622963, -0.012630509212613106, 0.05039757862687111, -0.003429229138419032, 0.12973786890506744, 0.00516872201114893, 0.04102165251970291, 0.04368552565574646, 0.01769164763391018, 4.974343301644879e-40, 4.913919311863193e-40, -0.009142979979515076, 0.001832151785492897, 0.027620159089565277, -0.034133803099393845, -4.963665407346724e-40, 0.05339435115456581, 0.0031035239808261395, 4.982218599014384e-40, -5.00597060798469e-40, 3.175448182093302e-35, -4.9721712890251754e-40, -4.970952159361213e-40, 0.029658667743206024, -4.931589685498329e-40, -4.941987320103619e-40, 4.928296634107165e-40, -0.01468123309314251, -4.909855546316651e-40, 0.009761003777384758, -5.0286996690760385e-40, 0.06481819599866867, 4.98401226104872e-40, 4.967518978123617e-40, 0.001368759898468852, -0.044746335595846176, 0.01709849014878273, 0.05079717934131622, -0.09204026311635971, 0.004373184870928526, -0.005621341988444328, 0.1792551577091217, 0.0418502576649189, 0.0731688141822815, -0.029417801648378372, -0.00038753761327825487,