{"encoder_net_0_weight": [0.013385393656790257, 0.004145776852965355, 0.019116168841719627, 0.04268384352326393, 2.924824548244942e-05, -4.943234475736868e-40, 4.924134777668121e-40, 4.945602670141577e-40, -5.035145642011933e-40, -5.322902281661034e-40, 0.10672397911548615, -0.13798144459724426, 0.37077024579048157, 0.17644765973091125, 0.16255885362625122, -0.00042100288555957377, -0.04625851288437843, 0.09302856028079987, 0.10422619432210922, 0.03585773706436157, -0.002365011954680085, -0.010064452886581421, 0.02493351139128208, 0.022414466366171837, 0.010052836500108242, 0.015790820121765137, 0.015154101885855198, -0.01714692823588848, -0.013687821105122566, -0.0014275999274104834, -5.000225284280958e-40, -4.914718051987858e-40, -4.909715416470218e-40, -5.758776168989268e-40, -4.9507174095363625e-40, -4.968822185695439e-40, -4.974903821030609e-40, 4.952090682031401e-40, -5.655878822753897e-40, 4.977552275128183e-40, -0.006090173963457346, -0.04005086421966553, 0.10499837249517441, 0.0990552008152008, 0.03550039976835251, -4.922873609050228e-40, -5.0327073826840075e-40, -4.908916676345553e-40, -4.923041764865947e-40, -4.950198929104562e-40, -4.930468646726869e-40, -5.723309304857207e-40, -5.712393189820117e-40, 4.9463733842969555e-40, -4.970587821760488e-40, 4.987067091700948e-40, -5.071747557900097e-40, -5.057846677133995e-40, 4.924849439884926e-40, -4.91986081735193e-40, 0.1709984540939331, 0.12346220761537552, -0.09094636887311935, -0.0911349281668663, 0.013315689750015736, 0.014559709466993809, 0.016185365617275238, -0.019347835332155228, -0.015534142032265663, -0.0019632058683782816, 0.01654038578271866, -0.02142535336315632, 0.0878053605556488, 0.062472108751535416, 0.04307568073272705, 4.995600999348686e-40, -4.919244246027627e-40, -4.925774296871381e-40, -4.943794995122598e-40, -5.881557940433409e-40, 0.15181688964366913, 0.19397464394569397, -0.20886379480361938, -0.10830993950366974, -0.07900362461805344, 0.09897072613239288, 0.16783607006072998, -0.15299339592456818, -0.13066864013671875, -0.05371865630149841, -0.09998619556427002, -0.11889339238405228, 0.33315137028694153, 0.32099542021751404, 0.19468019902706146, 0.005436408799141645, -0.03997468575835228, 0.12916027009487152, 0.08347882330417633, 0.061194613575935364, 0.12889400124549866, 0.0917099118232727, -0.12239699810743332, -0.10697455704212189, -0.046526387333869934, 0.13926969468593597, 0.06483418494462967, -0.09353601187467575, -0.07862617075443268, -0.03468763083219528, 0.028744015842676163, 0.024806592613458633, 0.02242879569530487, 0.007130094338208437, 0.024336131289601326, 0.023239361122250557, 0.014735767617821693, -0.0017018396174535155, 0.0040924097411334515, 0.01199145708233118, 0.006951537914574146, 0.005865884013473988, -0.0065253740176558495, -0.005190717056393623, -0.00045742091606371105, -4.934602477196627e-40, -4.905399417200098e-40, -4.9299922052489984e-40, -4.930440620757582e-40, -5.061476040156596e-40, -4.9176327527936535e-40, -4.960246239093771e-40, 5.131302742633902e-40, 5.020488060075095e-40, -5.0409470176542374e-40, 0.057679083198308945, -0.06240696460008621, 0.18789555132389069, 0.2762886881828308, 0.0017546155722811818, 4.96697247172253e-40, 5.072153934454751e-40, -4.907333209080866e-40, -4.90782366354338e-40, -5.4771432036292665e-40, -0.009785259142518044, -0.10612040758132935, 0.18522241711616516, 0.2135387808084488, 0.10291557013988495, 0.013595221564173698, -0.13375025987625122, 0.23880280554294586, 0.19909535348415375, 0.13317076861858368, -4.984334559695515e-40, -4.936354100277033e-40, -4.952146733969974e-40, -4.961129057126296e-40, -5.040022160667783e-40], "encoder_net_0_bias": [0.07842021435499191, -4.982064456183309e-40, 0.22486382722854614, -0.002411891706287861, 0.00019900861661881208, 0.023981675505638123, 4.922873609050228e-40, -5.023654994604469e-40, -0.000880736275576055, 4.927553945921073e-40, -4.927035465489273e-40, -4.944551696293333e-40, 0.08729466795921326, 0.029010800644755363, 0.05744226649403572, -4.980887365473276e-40, 0.2965894043445587, 0.27183079719543457, 0.017046164721250534, 0.05829295516014099, 0.19753314554691315, 0.1268436312675476, 0.14732466638088226, 0.0730927512049675, 0.008590525016188622, -4.9395350477910504e-40, -5.43591700280883e-40, 0.13521075248718262, -4.929557802725058e-40, 0.0492103174328804, 0.01431635208427906, -4.933593542302313e-40], "encoder_net_2_weight": [0.005145450122654438, -5.202082328066948e-40, -0.04907545819878578, -0.015877703204751015, -0.0038760975003242493, 0.007698343135416508, 4.958368499151576e-40, -7.846570750986813e-41, -0.01637442409992218, -5.670886729306816e-40, 5.007764270019026e-40, 4.989771597737095e-40, 0.05925625562667847, 0.008680694736540318, 0.003892485983669758, -4.98621229963771e-40, 0.11660245060920715, 0.06130082532763481, -0.050004951655864716, -0.003783529857173562, 0.05049390345811844, 0.05341939255595207, 0.015695728361606598, 0.011355012655258179, 0.0029634220991283655, 4.990121922353176e-40, 4.9908085586006955e-40, -0.009756730869412422, -4.974637574322387e-40, -0.02758258953690529, -0.03177756071090698, -4.988019974656689e-40, 0.008700335398316383, 4.974399353583452e-40, 0.0755816102027893, 0.021009836345911026, 0.005172899458557367, -0.002743226708844304, -5.0330997462540185e-40, -5.019465112196138e-40, 0.021753491833806038, 4.914045428724982e-40, 5.0340666421944026e-40, 4.981125586212211e-40, -0.019027696922421455, -0.003060921560972929, 0.019116975367069244, 5.056515443592886e-40, -0.04012749344110489, -0.029272235929965973, 0.06864652037620544, 0.02614627592265606, -0.023101629689335823, -0.01728386990725994, 0.006660017650574446, 0.002112541114911437, -0.0010301410220563412, -4.9279603224757274e-40, 5.087848477255189e-40, 0.04333078861236572, 4.958354486166933e-40, 0.04244597256183624, 0.04524636268615723, -4.951712331446033e-40, 0.01904529705643654, -5.129803353277074e-40, -0.04005024954676628, -0.0240646880120039, -0.00570959597826004, 0.011481133289635181, -5.086250997005859e-40, 4.9126020913067274e-40, -0.024900667369365692, 5.0249722151609345e-40, 4.939408930929261e-40, 4.98289122227726e-40, 0.07820078730583191, 0.01223734114319086, 0.001104949857108295, 4.908916676345553e-40, 0.09061437100172043, 0.11286274343729019, -0.09173192083835602, -0.013288742862641811, 0.08376259356737137, 0.05453910306096077, 0.04997094348073006, 0.015186971053481102, 0.004426715429872274, 4.995671064271903e-40, -5.0425304849189245e-40, -0.012367551214993, -5.080827971948922e-40, -0.03986617550253868, -0.05904250591993332, -4.96153543368095e-40, 0.018258443102240562, -4.999482596094866e-40, -0.06510568410158157, -0.018929531797766685, -0.004573345184326172, 0.008527250960469246, -5.070738623005783e-40, 4.98845437718063e-40, -0.019511258229613304, -5.018904592810408e-40, -4.958536654967295e-40, -5.1847062271093204e-40, 0.032367680221796036, 0.0093923918902874, 0.002165463985875249, 5.039167368604545e-40, 0.11144136637449265, 0.09127460420131683, -0.06900406628847122, -0.013172769919037819, 0.07820016145706177, 0.023852301761507988, 0.012678910046815872, 0.02460359036922455, 0.0033743134699761868, -5.282628963796339e-40, 4.919762726459427e-40, 0.00044151724432595074, 3.1522349084833192e-40, -0.03213740512728691, -0.04218888282775879, -5.006306919616128e-40, 0.000692168076056987, 5.090202658675255e-40, 0.1846035122871399, 0.0647081509232521, 0.012564240023493767, -0.0050227465108036995, -5.071915713715816e-40, 4.929193465124333e-40, 0.048144612461328506, -4.911004611057397e-40, -5.0399380827599236e-40, -4.930538711650085e-40, -0.032296959310770035, -0.005602340679615736, 0.07294914871454239, 4.94457972226262e-40, -0.058535050600767136, -0.05085873603820801, 0.12423510104417801, 0.10382778197526932, -0.03858127444982529, -0.02943372167646885, 0.03558905050158501, 0.02523735724389553, -0.0019219511887058616, 4.953421915572509e-40, 4.935849632829876e-40, 0.1755775809288025, 4.9752261196774035e-40, 0.13365070521831512, 0.10082431137561798, 4.9128823509995924e-40, 0.00790159497410059, 5.037653966263074e-40, -0.02020926959812641, -0.01607895828783512, -0.0038703912869095802, 0.007165595423430204, 4.914437792294993e-40, -4.950311032981708e-40, -0.016556276008486748, 5.092262567417812e-40, 5.0003514011427475e-40, 4.984222455818369e-40, 0.04554188624024391, 0.007988989353179932, -0.0023123936261981726, 4.938245853203872e-40, 0.09244010597467422, 0.07936425507068634, -0.057227667421102524, -0.009616912342607975, 0.044702351093292236, 0.04134223237633705, 0.014628855511546135, 0.011243223212659359, 0.0027674282900989056, 5.006517114385777e-40, 4.948545396916659e-40, -0.01430924516171217, -4.939184723174969e-40, -0.028140872716903687, -0.03618122264742851, 4.941889229211116e-40, 0.03108375519514084, 2.833705754557645e-40, 0.08571381866931915, -0.013455578126013279, -0.0029277841094881296, 0.008487279526889324, -4.935177009567e-40, -4.908398195913753e-40, -0.012035639025270939, -5.007960451804031e-40, 4.90674466372585e-40, 5.1420787278245595e-40, 0.05681528151035309, 0.009335901588201523, 0.015796875581145287, 4.95609839563937e-40, 0.11106257140636444, 0.06811859458684921, -0.05578508973121643, -0.002499917522072792, 0.06037352234125137, 0.051490429788827896, 0.038757823407649994, 0.021588018164038658, 0.003291499335318804, 4.964758420148897e-40, 5.361592132261042e-40, -0.020494699478149414, 4.9502689940277785e-40, -0.02758757770061493, -0.016587356105446815, -4.955888200869721e-40, -5.995987973030173e-40, 4.947830734699853e-40, -4.920589492553379e-40, 4.946303319373739e-40, 4.954697097175045e-40, -5.029820707847498e-40, 5.092248554433169e-40, 5.154256011479542e-40, 4.9314075166979665e-40, 4.918963986334762e-40, 5.060733351970504e-40, 4.930720880450447e-40, -4.992882480327896e-40, -5.0813184264114354e-40, -5.559329358561917e-40, -5.041213264362459e-40, 4.9799064565482484e-40, -5.5875935485873486e-40, -4.91114474090383e-40, -5.539753219015299e-40, -4.972129250071246e-40, -4.9696909907433205e-40, 4.955033408806483e-40, -6.141470779596376e-40, -5.109134200928283e-40, -5.079636868254246e-40, -4.910135806009516e-40, -5.7898429559433494e-40, 5.0102305553162375e-40, -5.200961289295488e-40, -4.982218599014384e-40, 5.365711949746157e-40, -5.276925679046537e-40, -4.910275935855948e-40, -4.9086504296373315e-40, -5.520359248269044e-40, -5.2570412538377675e-40, -5.044141978152898e-40, 4.990836584569982e-40, -5.00152849185278e-40, -6.015297865868569e-40, -5.036743122261263e-40, 4.9346305031659136e-40, 4.955327681483991e-40, -5.037710018201647e-40, 4.961941810235604e-40, -5.264468135698689e-40, -4.930973114174026e-40, -4.9747777041688196e-40, -4.9195525316897785e-40, -4.940165632099997e-40, 4.9465975920512475e-40, -4.921962765048417e-40, -5.010314633224097e-40, -5.597851053346206e-40, -5.1337970539004e-40, 5.481010787390803e-40, -5.080379556440338e-40, -4.909365091854137e-40, -4.94345868349116e-40, 4.919062077227265e-40, -4.964394082548173e-40, -4.968121536463277e-40, 4.915390675250734e-40, -5.035664122443733e-40, 4.911130727919186e-40, -4.92917945213969e-40, -5.152041959905909e-40, 4.970952159361213e-40, -4.976024859802069e-40, 4.936213970430601e-40, -5.0036304395492676e-40, -4.909757455424148e-40, -4.944747878078339e-40, 4.909351078869494e-40, 4.933691633194816e-40, -4.947031994575188e-40, -4.923490180374531e-40, -4.993737272391134e-40, -5.005634296353252e-40, -4.9319119841451234e-40, -4.967687133939336e-40, -5.5678212272557254e-40, -4.961605498604166e-40, 4.912938402938165e-40, -4.995741129195119e-40, -5.126482275916624e-40, -4.906296248217266e-40, -4.950899578336725e-40, 4.928240582168592e-40, -4.99497041503974e-40, -5.391397750597231e-40, 5.4545542723843504e-40, -5.246111125816034e-40, -4.953912370035023e-40, 4.924667271084564e-40, 0.01070922426879406, -4.9996227259412986e-40, 0.10006047040224075, 0.03187711164355278, 0.00787108764052391, -0.005395218264311552, -4.922901635019515e-40, -5.124268224342991e-40, 0.032958414405584335, -5.37284455892957e-40, -4.9911448702321334e-40, 5.012164347197006e-40, -0.03464459627866745, -0.006002585403621197, 0.024288633838295937, -5.01748928136144e-40, -0.06460770219564438, -0.054894205182790756, 0.11467787623405457, 0.033220916986465454, -0.04153701663017273, -0.031462546437978745, 0.005788788665086031, 0.0005787714617326856, -0.0020620194263756275, -4.962824628268129e-40, 4.9543888115128935e-40, 0.04949124529957771, 5.051428730167387e-40, 0.06416931748390198, 0.06798315048217773, -5.008787217897983e-40, -2.467997473054595e-10, -4.984951131019818e-40, -4.367366024382591e-09, -7.036382032588051e-10, -1.6819029502457283e-10, 1.2443331087741427e-10, -4.969480795973672e-40, 4.9180811683022375e-40, -7.211934383022367e-10, -4.726313473459386e-40, -5.037836135063436e-40, -5.2058798469052684e-40, 4.654068519460708e-10, 1.3682344146559444e-10, -6.018157638898458e-10, 3.1317479249348904e-40, -7.187472839120801e-10, 3.502852868875195e-11, -2.5612336695957083e-09, -8.491360392604008e-10, 4.2934639177261147e-10, 4.819959986690492e-10, -3.718420293896685e-10, -4.771039119333409e-11, 4.844130652159606e-11, 4.964394082548173e-40, 5.0134535417841845e-40, -1.9542982787612573e-09, 4.9403898398542886e-40, -1.5635885919351722e-09, -1.7519929951248514e-09, -5.070626519128637e-40, 0.009506970643997192, 5.047407003574775e-40, 0.0880468413233757, 0.02558765932917595, 0.006325385067611933, -0.0038450059946626425, -5.030002876647861e-40, -4.923574258282391e-40, 0.026389166712760925, -4.964183887778524e-40, 4.929165439155047e-40, 4.929810036448636e-40, -0.023830266669392586, -0.004272480495274067, 0.020822925493121147, 4.981644066644011e-40, -0.043276526033878326, -0.0371549092233181, 0.0939379334449768, 0.02933894656598568, -0.028622103855013847, -0.021870022639632225, 0.007008697371929884, 0.0019301449647173285, -0.0014988057082518935, -4.923350050528099e-40, 4.909238974992348e-40, 0.058772873133420944, -5.061812351788034e-40, 0.05494733527302742, 0.06202825531363487, -5.000659686804899e-40, 0.003152580000460148, 4.906758676710493e-40, -0.02350226603448391, -0.011104634962975979, -0.0026782078202813864, 0.004445715341717005, -4.987445442286316e-40, 4.930524698665442e-40, -0.011411236599087715, 4.992363999896096e-40, 4.988482403149916e-40, -5.061770312834104e-40, 0.029060307890176773, 0.0049369498156011105, -0.003285890445113182, -1.841558415846388e-40, 0.039460159838199615, 0.038858670741319656, -0.03944438323378563, -0.007409531157463789, 0.03346801549196243, 0.024442033842206, 0.011270836926996708, 0.006538804154843092, 0.001723430585116148, 4.950086825227416e-40, 5.026877981072416e-40, -0.011037295684218407, 4.999090232524855e-40, -0.020135393366217613, -0.024999696761369705, -4.985890000990915e-40, -5.099745501217307e-40, -4.963525277500291e-40, 4.97085406846871e-40, -4.907641494743018e-40, 5.030199058432866e-40, 4.973950938074868e-40, -4.937923554557077e-40, -4.949554331810973e-40, -4.980340859072189e-40, -4.914914233772863e-40, -4.926446920134257e-40, -4.953632110342158e-40, -4.999832920710947e-40, -4.929515763771128e-40, -5.121101289813617e-40, 4.906716637756563e-40, -4.934378269442335e-40, 4.798746591080336e-40, -4.931533633559756e-40, -5.0027336085321e-40, 4.910093767055586e-40, 4.9855536893594774e-40, -5.335317786054952e-40, -5.052998184447431e-40, -4.9908646105392685e-40, -5.028601578183536e-40, 5.033982564286543e-40, 4.955888200869721e-40, 4.912504000414225e-40, -4.971989120224813e-40, 5.034374927856554e-40, 4.94833520214701e-40, -5.7554550916288184e-40, 4.919454440797276e-40, -4.91658177894541e-40, -5.696628582096463e-40, -5.08655928266801e-40, 4.959013096445165e-40, 5.101637254144145e-40, -4.934294191534476e-40, -4.966159718613222e-40, 4.973628639428073e-40, 4.9498205785191946e-40, 5.1578853745021434e-40, -5.049677107086981e-40, -5.016718567206061e-40, -5.237072750721139e-40, 4.948433293039513e-40, -4.9064503910483415e-40, -4.92538193330137e-40, -4.918319389041173e-40, -5.2381237245693825e-40, -5.121045237875044e-40, -4.9881601045031216e-40, -4.932150204884059e-40, -4.9622921348516855e-40, -5.3315763191552045e-40, -5.052900093554928e-40, 4.9337757111026754e-40, -6.095129839381154e-40, -4.930034244202928e-40, -4.976823599926734e-40, 4.960022031339479e-40, -5.0755030377844874e-40, -4.907193079234434e-40, -4.937320996217417e-40, -4.906240196278693e-40, -4.906884793572282e-40, -4.909687390500932e-40, -4.907963793389812e-40, 4.9082580660673205e-40, 5.123035081694385e-40, -5.8871351083214215e-40, -4.955874187885078e-40, -5.131989378881421e-40, -4.927862231583225e-40, 4.9307348934350906e-40, -4.974497444475955e-40, -4.905819806739395e-40, 4.907165053265147e-40, -4.930973114174026e-40, -4.9421975148732676e-40, -4.9061701313554765e-40, -4.908454247852326e-40, 4.913204649646387e-40, 4.947704617838064e-40, -4.904965014676157e-40, -5.118971316147843e-40, 5.001794738561002e-40, 5.0594721833526115e-40, -4.916301519252545e-40, -4.906926832526212e-40, -4.935499308213795e-40, -4.904628703044719e-40, -4.905917897631898e-40, 5.117485939775659e-40, 0.006981463171541691, -4.991747428571793e-40, -0.03239045664668083, -0.026559576392173767, -0.006298545282334089, 0.012826063670217991, 5.210378014975751e-40, 4.939128671236396e-40, -0.027518276125192642, -4.968121536463277e-40, 4.949568344795616e-40, -4.9604844598327064e-40, 0.06753413379192352, 0.01393800601363182, 0.00042599093285389245, -4.768128219634839e-40, 0.13584484159946442, 0.12537802755832672, -0.09520431607961655, -0.007773627992719412, 0.09277573227882385, 0.07654638588428497, 0.0378822386264801, 0.02401009388267994, 0.0049547660164535046, 4.914157532602128e-40, -5.020403982167236e-40, -0.031778041273355484, -5.056123080022875e-40, -0.04875962436199188, -0.058042529970407486, -4.9550053828371964e-40, 0.030462028458714485, 5.008815243867269e-40, 0.10685138404369354, 0.02876836434006691, 0.006213043816387653, -0.00199310970492661, 5.042040030456411e-40, -4.976249067556361e-40, 0.02612081542611122, -4.9558601749004345e-40, -5.002579465701024e-40, -4.9566589150251e-40, -0.014079472050070763, -0.002229914302006364, 0.030430033802986145, -5.070556454205421e-40, -0.02793842926621437, -0.021495532244443893, 0.06212698668241501, 0.004858913365751505, -0.016955165192484856, -0.012928266078233719, -0.007286491338163614, 0.008686198852956295, -0.0007326512131839991, 4.95325375975679e-40, -4.945028137771204e-40, 0.06141898036003113, -5.031880616590056e-40, 0.08325546979904175, 0.07128917425870895, -4.935989762676309e-40, 0.010936956852674484, -4.976122950694571e-40, -0.004630503710359335, -0.021791594102978706, -0.004921332001686096, 0.008821682073175907, -5.038480732357026e-40, -4.984250481787655e-40, -0.022530091926455498, 5.0537128466642365e-40, -4.407209787163339e-40, 4.967420887231114e-40, 0.05478205531835556, 0.009698944166302681, -0.004236919339746237, 4.999188323417358e-40, 0.10371050983667374, 0.08012610673904419, -0.07934054732322693, -0.012485234998166561, 0.062163155525922775, 0.04707442969083786, 0.012337583117187023, 0.013958713039755821, 0.0034147531259804964, -4.9926162336196745e-40, 4.944593735247263e-40, -0.003985891118645668, -4.989827649675668e-40, -0.03556876257061958, -0.049558840692043304, -4.904628703044719e-40, -5.014280307878136e-40, -4.919650622582281e-40, -4.914087467678912e-40, -4.960078083278052e-40, -4.919846804367287e-40, -4.9222570377259254e-40, -4.928436763953598e-40, -5.02076831976796e-40, 5.902619456352211e-40, 4.920715609415168e-40, -5.137538520800147e-40, 4.90722110520372e-40, -5.2364281534275494e-40, -4.990668428754263e-40, -4.979934482517535e-40, 4.9125460393681545e-40, -4.963511264515648e-40, -5.215436702431964e-40, -4.926867309673554e-40, 4.9277361147214355e-40, -4.915586857035739e-40, -5.0551842100517776e-40, -5.038985199804183e-40, -4.964057770916735e-40, -4.993695233437205e-40, 4.948110994392718e-40, -4.936522256092752e-40, -4.917492622947221e-40, 4.908103923236245e-40, -4.9725356266259e-40, -4.9602042001398415e-40, -4.913036493830668e-40, -0.0015099248848855495, -5.044996770216136e-40, 0.17114587128162384, 0.047639768570661545, 0.014481769874691963, -0.01004071719944477, -6.114229537449901e-40, -4.976515314264582e-40, 0.049500104039907455, 5.140088884005218e-40, -5.012963087321671e-40, -4.935275100459503e-40, -0.06995143741369247, -0.011271951720118523, 0.06040119752287865, -5.0928931517267584e-40, -0.11844117939472198, -0.09568888694047928, 0.19027234613895416, 0.0887216329574585, -0.071744404733181, -0.06244334951043129, -0.010295084677636623, 0.012469143606722355, -0.0038337456062436104, -4.975156054754187e-40, 4.979836391625032e-40, 0.06594206392765045, -5.065147442133127e-40, 0.14615213871002197, 0.16685134172439575, -4.934756620027703e-40, 0.0041968487203121185, 4.988762662842781e-40, -0.02792433649301529, -0.022952254861593246, -0.005419699475169182, 0.010986940003931522, 4.9883843122574136e-40, 5.04540314677079e-40, -0.023714711889624596, 5.169670294587115e-40, 4.9523569287396225e-40, 4.98625433859164e-40, 0.07196319103240967, 0.012786220759153366, -0.0017848317511379719, 4.967406874246471e-40, 0.06216428801417351, 0.0997813418507576, -0.08463533222675323, -0.006827395409345627, 0.08168274909257889, 0.05627458915114403, 0.05137179419398308, 0.0277473796159029, 0.004230851773172617, 4.938834398558888e-40, 5.044240069045401e-40, -0.021375693380832672, -5.176284423338728e-40, -0.041925959289073944, -0.05439748242497444, 4.984292520741585e-40, 0.00958343781530857, 4.9958392200876216e-40, -0.02755851484835148, -0.023398449644446373, -0.005567818880081177, 0.012618491426110268, 4.578420433534545e-40, 4.9811536121814975e-40, -0.02419065684080124, 5.206482405244928e-40, -5.001332310067775e-40, 5.0561370930075185e-40, 0.08167073875665665, 0.014475937001407146, -0.0020221832673996687, 4.985147312804823e-40, 0.14491049945354462, 0.1316521018743515, -0.07898435741662979, -0.007595588453114033, 0.10709130018949509, 0.07808537036180496, 0.055191654711961746, 0.020364202558994293, 0.004881265107542276, 4.9191601681197676e-40, 5.0285875651988926e-40, -0.012090549804270267, -3.4141235784809843e-41, -0.036586109548807144, -0.0544046014547348, 4.952679227386417e-40, 0.014026211574673653, 5.0458655752640175e-40, 0.19331245124340057, 0.06466490775346756, 0.015438918024301529, -0.009842035360634327, 3.771118375252375e-40, -4.943444670506517e-40, 0.06573960185050964, 5.0257709552856e-40, -4.931841919221907e-40, 4.93582160686059e-40, -0.06295916438102722, -0.010907668620347977, 0.03861800208687782, 5.000379427112034e-40, -0.12071570008993149, -0.09860758483409882, 0.15942606329917908, 0.09022219479084015, -0.07387340068817139, -0.05821169540286064, 0.030709100887179375, 0.0020812186412513256, -0.003742320230230689, 4.970671899668348e-40, 4.971078276223002e-40, 0.15295201539993286, 4.978084768544626e-40, 0.12304651737213135, 0.12514646351337433, -4.912069597890284e-40, -4.912560052352798e-40, 4.932752763223718e-40, -4.911242831796332e-40, -4.963567316454221e-40, -5.026976071964919e-40, 4.951516149661028e-40, 4.9413427228100294e-40, -4.943080332905792e-40, -5.018792488933262e-40, 4.9259844916410294e-40, 4.9543888115128935e-40, 4.912644130260657e-40, 4.9345744512273406e-40, -5.606805350533242e-40, -4.914774103926431e-40, -4.953534019449655e-40, -4.990682441738906e-40, 4.939002554374607e-40, -5.46775450391829e-40, -4.913540961277825e-40, -4.9676591079700495e-40, -5.023991306235907e-40, -4.9176888047322265e-40, -4.981181638150784e-40, -4.91377918201676e-40, -5.010594892916962e-40, 5.3781554801093614e-40, -5.461812998429553e-40, 4.9479568515616426e-40, -4.91882385648833e-40, -4.950465175812784e-40, 4.9504932017820705e-40, 0.03699507936835289, -4.96041439490949e-40, 0.15544341504573822, 0.059273965656757355, 0.01432530116289854, -0.01009270828217268, -5.2783830294494344e-40, -4.966958458737887e-40, 0.06032950431108475, 4.963511264515648e-40, 4.931729815344761e-40, 5.216137351664126e-40, -0.06634168326854706, -0.010398076847195625, 0.04211978241801262, -4.952048643077471e-40, -0.09585417807102203, -0.07244870066642761, 0.21110187470912933, 0.04583581164479256, -0.06166935712099075, -0.053880125284194946, 0.037722427397966385, 0.0005013273330405354, -0.003849226050078869, 4.918277350087243e-40, -5.139514351634845e-40, 0.11836948990821838, 4.920645544491952e-40, 0.12519994378089905, 0.1342887133359909, 4.908117936220888e-40, 0.040494244545698166, 5.0267238382413405e-40, 0.10994350910186768, 0.02134399302303791, 0.007107942830771208, -0.0008414001204073429, 5.034094668163689e-40, -5.005003712044306e-40, 0.030061619356274605, -5.0980359170908305e-40, -5.046496159572964e-40, 5.019030709672197e-40, -0.013646192848682404, -0.0010161051759496331, 0.05955083668231964, -4.93306104888587e-40, 0.01038514543324709, 0.006591965444386005, 0.07631221413612366, 0.050033651292324066, 0.004169821739196777, -0.00205323682166636, 0.06087576225399971, 0.027979044243693352, -0.0002923100837506354, 4.933187165747659e-40, 5.018596307148257e-40, 0.13384076952934265, 5.005269958752528e-40, 0.06775118410587311, 0.11533543467521667, -4.931729815344761e-40, 0.015324916690587997, -5.0884370226102055e-40, 0.1284690499305725, 0.03858141228556633, 0.009487565606832504, -0.005547997076064348, -5.063886273515235e-40, 4.991971636326085e-40, 0.03986292704939842, 5.160687971430793e-40, -4.93690060667812e-40, 5.2011995100344235e-40, -0.034076984971761703, -0.006164891645312309, 0.03246244043111801, 4.975646509216701e-40, -0.05774092301726341, -0.05267200991511345, 0.13591809570789337, 0.04517553374171257, -0.04060168191790581, -0.03118291310966015, 0.01400926522910595, 0.0039159939624369144, -0.002137416275218129, -4.969845133574396e-40, -5.215450715416607e-40, 0.08398884534835815, -4.9156569219589555e-40, 0.07847566157579422, 0.09576892852783203, -5.007147698694723e-40, -4.974623561337744e-40, 5.139262117911267e-40, -4.94945624091847e-40, -4.905357378246168e-40, -4.955678006100072e-40, 4.929123400201117e-40, 4.929557802725058e-40, 5.075460998830558e-40, -5.066562753582095e-40, 4.950339058950995e-40, 4.975702561155274e-40, 4.9088746373916234e-40, -4.910976585088111e-40, -4.940852268347516e-40, -5.191894888231307e-40, 5.065946182257792e-40, 4.9197206875054975e-40, -4.930636802542588e-40, -4.950633331628503e-40, -5.413818526026428e-40, -4.935275100459503e-40, 4.927890257552511e-40, -4.912237753706003e-40, -5.008352815374042e-40, -4.953520006465012e-40, 4.9135129353085386e-40, -4.947620539930205e-40, -4.908510299790899e-40, 5.0200536575511544e-40, -4.9525250845553415e-40, -4.945210306571566e-40, -5.087287957869459e-40, 0.011004016734659672, 5.092094411602093e-40, 0.018214261159300804, -0.014277824200689793, -0.0032230927608907223, 0.006861275061964989, 4.919426414827989e-40, 4.987907870779543e-40, -0.01455225795507431, 1.223431650248068e-40, 4.927834205613938e-40, -4.945434514325858e-40, 0.051166001707315445, 0.007471182383596897, -0.004563444294035435, -4.984208442833726e-40, 0.08806733787059784, 0.07215184718370438, -0.08678610622882843, -0.0012809843756258488, 0.055704858154058456, 0.04134600982069969, 0.005968037992715836, 0.010977381840348244, 0.0026240211445838213, -4.996820129012649e-40, 5.0585613393508e-40, 0.017681773751974106, -5.061490053141239e-40, -0.023044222965836525, -0.01107716653496027, -4.935919697753092e-40, -4.971246432038721e-40, -5.165424360240211e-40, -4.929529776755771e-40, -4.9317998802679774e-40, -4.9433185536447274e-40, -5.005508179491463e-40, 4.959209278230171e-40, -4.931505607590469e-40, -4.97089610742264e-40, 5.351684952118266e-40, -4.926432907149613e-40, -4.912335844598506e-40, -4.922523284434147e-40, -5.2342281148385595e-40, -5.611836012020168e-40, 4.939689190622126e-40, -4.9797943526711024e-40, -4.939156697205683e-40, -4.9357515419373734e-40, -4.9241768166220504e-40, -4.970167432221191e-40, -4.946625618020534e-40, -4.945784838941939e-40, -5.818205236861284e-40, -4.958354486166933e-40, 4.950955630275298e-40, 4.925494037178516e-40, 4.9405019437314346e-40, 4.923588271267034e-40, -4.908804572468407e-40, 4.96697247172253e-40, -5.088815373195573e-40], "encoder_net_2_bias": [0.12442830204963684, 0.04802490025758743, 0.1685858815908432, 0.1577739119529724, -0.04852450639009476, 0.11167092621326447, 0.1468636691570282, 4.940375826869645e-40, -4.960904849372004e-40, -4.908468260836969e-40, 0.02511860430240631, 1.0308450093532429e-08, 0.003872286295518279, 0.08801957219839096, -4.946387397281599e-40, -4.950240968058492e-40, 4.907291170126936e-40, 0.1832936555147171, 0.11448775976896286, 0.12238166481256485, -4.92641889416497e-40, 0.05219902843236923, 0.1547946035861969, 0.1412036120891571, 0.0266683641821146, -4.905357378246168e-40, 0.06071285530924797, 0.03524145111441612, 0.0010776411509141326, 4.914311675433204e-40, 0.059710584580898285, 4.9508295134135085e-40], "backbone_net_0_weight": [0.04884478822350502, 0.016838951036334038, 0.04112028330564499, -0.0938527062535286, 0.056954942643642426, 0.05044063553214073, -0.02009483240544796, -0.0020789853297173977, 0.01895817369222641, 0.001423720852471888, 0.018864938989281654, -0.01247413083910942, 0.0030377241782844067, 0.01751016639173031, -0.034209560602903366, 0.005187110975384712, 0.008941932581365108, 4.941314696840743e-40, 4.928352686045738e-40, -4.996988284828368e-40, -0.016603955999016762, 3.7808006725370547e-10, -0.016276957467198372, 0.006845021620392799, -5.111039966839765e-40, 5.075713232554136e-40, -4.917450583993291e-40, -0.0005633847904391587, -0.02047659084200859, 6.023455716785975e-05, 4.94009556717678e-40, -0.027827605605125427, 0.017723096534609795, 0.006084127817302942, -0.03251109644770622, -5.054735794543194e-40, -0.0344744548201561, -0.03082266077399254, -0.019551679491996765, -4.914199571556058e-40, 0.011635459028184414, 4.973432457643068e-40, -0.03172667324542999, 0.003955576568841934, -0.00193281308747828, 0.004843718837946653, 0.002197311958298087, 0.05650360882282257, -0.07250440865755081, -0.0033740082290023565, 0.042487673461437225, -0.0009818504331633449, 0.044927168637514114, -0.010517273098230362, 0.05700642615556717, 0.05091382563114166, -0.04147742688655853, 0.04145239666104317, 0.05430508032441139, -4.9205054146455194e-40, 5.015065035018158e-40, -4.92201881698699e-40, -0.02417197823524475, 1.5714679557632394e-09, -0.0215652696788311, 0.02531733736395836, -4.9979832067380386e-40, -4.9156569219589555e-40, -4.920953830154103e-40, 0.0647110641002655, -0.003741459921002388, 0.04324156790971756, 4.953239746772147e-40, -0.04942861199378967, 0.053640514612197876, 0.0666365697979927, -0.04740976542234421, -5.022505929863723e-40, -0.03339701518416405, 0.005055462475866079, -0.030553866177797318, -4.9096173255777156e-40, 0.03356385976076126, -5.2050390678266735e-40, -0.022585993632674217, 0.012630489654839039, -0.0131303109228611, 0.0003166526439599693, -0.09655481576919556, 0.024731460958719254, 0.06245359778404236, 0.004874706268310547, 0.07053056359291077, 0.001477827550843358, -0.03538509085774422, 0.05102838575839996, -0.046879108995199203, -0.04128656163811684, 0.1164918914437294, -0.03304338827729225, -0.005811288487166166, 5.0075821012186635e-40, 4.9805930927957676e-40, -4.997955180768752e-40, 0.07587426900863647, -1.3006521415448447e-09, 0.0638742595911026, -0.020862162113189697, -4.9938633892529236e-40, 4.945280371494782e-40, 4.907795637574093e-40, -0.0531996414065361, 0.07008052617311478, -0.03148745372891426, -4.997857089876249e-40, 0.13840189576148987, -0.04187522083520889, -0.0501580648124218, 0.13068236410617828, 4.911312896719549e-40, 0.12727046012878418, 0.10032572597265244, 0.08605464547872543, -4.909337065884851e-40, -0.026041196659207344, 3.0967434892960565e-40, -4.9736426524127165e-40, -4.9932888568825504e-40, 5.030577409018234e-40, -4.9485173709473725e-40, 4.938778346620315e-40, -4.969887172528326e-40, -4.966622147106449e-40, 5.058070884888287e-40, -4.935373191352006e-40, 4.988580494042419e-40, -4.921444284616617e-40, -5.032609291791505e-40, -5.04876626308517e-40, -5.0962842940104245e-40, -5.319342983561649e-40, -4.910976585088111e-40, -4.9511097731063734e-40, -5.0888293861802164e-40, 5.01641028154391e-40, -5.250973631487241e-40, -5.031894629574699e-40, -5.031782525697553e-40, 4.919874830336573e-40, -4.978337002268205e-40, 4.923574258282391e-40, -4.9373350092020605e-40, 4.934770633012346e-40, -4.9545569673286125e-40, -4.925494037178516e-40, -5.0020469722845805e-40, 4.931477581621183e-40, -5.24229959399307e-40, -5.045150913047212e-40, -4.983115430031552e-40, -4.986562624253791e-40, -4.983423715693704e-40, -4.9313514647593935e-40, -4.97641722337208e-40, -5.593605118999302e-40, -4.934168074672686e-40, -5.054469547834972e-40, -4.9808733524886325e-40, -0.02070435881614685, -0.00275102024897933, -0.008035858161747456, -0.09884350746870041, 0.08147819340229034, 0.015886180102825165, -0.03636203333735466, -0.0036075180396437645, 0.040658168494701385, -0.0013447185046970844, 0.01663818024098873, -0.01285093929618597, 0.010578921064734459, 0.042410075664520264, -0.0340813510119915, 0.03517653048038483, 0.05794522911310196, 5.014644645478861e-40, -5.025238461869156e-40, 5.0173491515150075e-40, -0.02115221880376339, 6.063416990720327e-10, -0.018059583380818367, 0.016085155308246613, -4.9596436807541116e-40, 4.9545009153900395e-40, 6.2412852692102325e-40, 0.025852257385849953, -0.021662497892975807, 0.033461254090070724, 4.944831955986198e-40, -0.04011986777186394, 0.03362209349870682, 0.00342647940851748, -0.03949417173862457, -5.037191537769847e-40, -0.03711365535855293, -0.014175795949995518, -0.025941727682948112, -4.912994454876738e-40, 0.028915153816342354, 5.001360336037061e-40, -0.0159867312759161, -0.021008217707276344, -0.01970365084707737, 0.19510163366794586, -0.03090740740299225, 0.007715539075434208, 0.03935883566737175, 0.003728648414835334, -0.034071002155542374, -0.002398456446826458, 0.030690951272845268, 0.02084505744278431, 0.04162183776497841, 0.012605983763933182, -0.013829798437654972, 0.014954916201531887, 0.07836788892745972, -4.989239104320652e-40, -5.002523413762451e-40, 4.961801680389172e-40, -0.039261553436517715, 8.4241880138336e-10, -0.041723284870386124, 0.013040414080023766, 5.215773014063402e-40, 5.026317461686686e-40, 4.9390305803438935e-40, 0.04836536571383476, -0.0012392221251502633, 0.0379280187189579, -4.9312393608822475e-40, 0.013121327385306358, 0.009998789057135582, 0.04285282641649246, 0.007699931506067514, 5.133558833161465e-40, 0.0944291353225708, 0.1106724813580513, 0.002726898528635502, -4.957471668134408e-40, 0.021766168996691704, 4.968457848094715e-40, -0.0043927151709795, 0.03647884726524353, 0.030627969652414322, 0.08297895640134811, 0.05138903483748436, 0.023980513215065002, -0.0736280158162117, 0.0012487717904150486, 0.0598076730966568, -0.0015261343214660883, 0.02264208346605301, -0.0039199781604111195, 0.027588345110416412, 0.018796242773532867, -0.01682116463780403, 0.018131714314222336, 0.04392925649881363, 4.906912819541569e-40, 5.426976718606438e-40, -4.971232419054078e-40, -0.006994698196649551, 7.642925181627902e-10, -0.009745078161358833, 0.012459206394851208, 3.89361988700365e-40, 5.0140701131084875e-40, 4.946401410266242e-40, 0.04280629754066467, 0.0036525109317153692, 0.0305913295596838, 4.918879908426903e-40, -0.030242662876844406, 0.029352514073252678, 0.03881288692355156, -0.025063326582312584, 4.9786172619610696e-40, -0.006422468926757574, -0.002425561659038067, -0.0198381170630455, -4.936031801630238e-40, 0.019609961658716202, 5.00053356994311e-40, -0.053266741335392, -0.05144819617271423, 0.0374707393348217, 0.12252061814069748, -0.03865107521414757, 0.03713603690266609, -0.023649100214242935, 0.003977286629378796, 0.009605363942682743, -0.003200268605723977, -0.004807349760085344, 0.03594948351383209, -0.010450324043631554, -0.006196943111717701, 0.07936196774244308, -0.006952580530196428, 0.04081612825393677, -4.977832534821048e-40, 5.016200086774261e-40, 4.963973693008875e-40, 0.004353873431682587, -3.238105616976128e-10, 0.05095551908016205, -0.0040157511830329895, 4.968065484524704e-40, -4.971022224284429e-40, -4.9107944162877484e-40, -0.00670609949156642, 0.008556656539440155, -0.00947386771440506, -4.9141855585714145e-40, 0.0788923054933548, -0.004738454706966877, -0.015560599975287914, 0.06067275628447533, 4.945000111801917e-40, 0.10163678228855133, 0.062447842210531235, 0.05553273484110832, -5.007484010326161e-40, -0.0037918463349342346, -4.936452191169536e-40, 0.04782760143280029, 0.005648518446832895, 0.008327971212565899, -0.10732515156269073, 0.08631282299757004, 0.019382433965802193, -0.030074141919612885, -0.0036040605045855045, -0.050834134221076965, -0.000817410065792501, 0.01979127712547779, -0.01472060289233923, 0.030369490385055542, 0.05812951177358627, -0.03760049492120743, 0.00909456517547369, -0.019101683050394058, 4.930244438972577e-40, 5.0407788618385185e-40, -4.965248874611411e-40, -0.023271596059203148, 5.524509738563665e-10, -0.020212510600686073, 0.010822377167642117, -5.517822898048616e-40, 5.021763241677631e-40, 4.9413427228100294e-40, 0.04148215055465698, -0.00013339286670088768, 0.03507407009601593, -4.933635581256243e-40, -0.04434192180633545, 0.053409233689308167, 0.004131926689296961, -0.043411605060100555, -5.045234990955071e-40, -0.033326759934425354, -0.04369569942355156, -0.028648484498262405, -4.9123218316138625e-40, 0.024453813210129738, -4.908496286806256e-40, 0.04276152700185776, 0.0346088707447052, 0.018582148477435112, 0.11703801900148392, 0.17165310680866241, 0.08913367986679077, 0.056625667959451675, 0.002527934266254306, -0.07453938573598862, -0.005603545345366001, -0.008265567012131214, 0.002072560368105769, -0.010955123230814934, -0.009701849892735481, 0.04620971158146858, -0.007898835465312004, -0.020798565819859505, -4.970671899668348e-40, -4.983003326154406e-40, -6.1452402724654095e-40, 0.04047928750514984, -2.2687876577442978e-10, 0.08715793490409851, -0.004499281290918589, 4.921234089846968e-40, 4.9270634914585596e-40, 4.936788502800974e-40, -0.016660496592521667, 0.04735676571726799, 0.0032417799811810255, 4.930650815527231e-40, 0.015129052102565765, -0.010760238394141197, -0.01574905775487423, 0.12055817246437073, -4.961325238911301e-40, -0.002873899880796671, 0.07888524979352951, 0.03171304240822792, -5.033183824161878e-40, -0.005298121366649866, 5.038396654449166e-40, 0.05457403510808945, 0.04027516767382622, 0.016057249158620834, 0.12981010973453522, 0.12441948801279068, -0.05933476611971855, 0.09361936151981354, 0.002592161763459444, -0.04872988536953926, -0.004660232923924923, -0.004835246596485376, 0.02228882536292076, -0.006762142758816481, -0.00543651869520545, -0.04445895180106163, -0.004220608621835709, 0.0022399756126105785, -4.97137254890051e-40, 2.722736929167763e-40, 4.953449941541796e-40, 0.04035050794482231, -1.9305551601789261e-10, 0.015689808875322342, -0.002464208286255598, -4.9219767780330605e-40, 4.907291170126936e-40, 4.9086504296373315e-40, -0.007834216579794884, -0.009749840945005417, 0.0013149665901437402, 4.943164410813652e-40, 0.05312614142894745, -0.0055892616510391235, -0.006542440969496965, 0.035199809819459915, -4.9251437125624346e-40, -0.011022227816283703, 0.0445210225880146, 0.09738928824663162, -6.148449245948713e-40, -0.0024090337101370096, -4.932514542484783e-40, -0.01747077889740467, -0.017476558685302734, 0.003995154984295368, -0.19574834406375885, 0.157662034034729, 0.025045601651072502, 0.1462346762418747, 0.0010526117403060198, -0.08705614507198334, 0.0015383880818262696, -0.022544290870428085, 0.018395137041807175, -0.030672134831547737, -0.02464044839143753, 0.07491518557071686, -0.021920351311564445, -0.03806905820965767, 4.907389261019439e-40, 4.953646123326801e-40, 4.954753149113618e-40, 0.03687170520424843, -5.232095867668818e-10, -6.455849506892264e-05, -0.013699213974177837, 4.973278314811992e-40, 4.907907741451239e-40, -4.907094988341931e-40, -0.025921089574694633, 0.037357792258262634, -0.02495400235056877, -4.9816020276900814e-40, 0.05731697008013725, -0.022781413048505783, -0.03726515173912048, 0.13940688967704773, 4.9429822420132895e-40, 0.09087254106998444, 0.07628758996725082, 0.07460609823465347, 4.9613392518959446e-40, -0.01337016373872757, -4.953155668864288e-40, -0.03321903944015503, -0.08266741782426834, 0.0752788707613945, -0.07286255806684494, -0.06749086827039719, 0.05909603461623192, -0.04530532658100128, -0.0004733676032628864, -0.06267540901899338, -0.0006577657186426222, 0.008432833477854729, 0.016561564058065414, 0.012108685448765755, 0.008782620541751385, -0.0204386617988348, 0.0066683171316981316, 0.02101849392056465, -4.98573585815984e-40, -4.937881515603147e-40, 4.963805537193156e-40, 0.00875370018184185, 4.250419738394129e-10, 0.008305591531097889, 0.004684623330831528, -4.9466536439898205e-40, -5.012332503012725e-40, 4.9309030492508096e-40, 0.00847688689827919, 0.010708974674344063, 0.01188049465417862, -5.8789515252897645e-40, -0.0361197292804718, 0.00828520581126213, 0.006357741076499224, -0.000623330648522824, -4.918165246210097e-40, 0.04847178980708122, -0.02194613218307495, 0.02690998651087284, 4.968373770186855e-40, 0.006834934465587139, -4.909911598255224e-40, -0.04114812612533569, 0.11288869380950928, -0.07261709868907928, 0.1424998939037323, -0.0683584064245224, 0.08859943598508835, -0.055131617933511734, -9.97826864477247e-05, 0.11744727939367294, -0.0008740347111597657, 0.019142957404255867, 0.003385608782991767, 0.01186832319945097, 0.0244621429592371, -0.06153007969260216, 0.02506704442203045, 0.05196036770939827, -4.981517949782222e-40, 5.809026731919956e-40, -4.974301262690949e-40, -0.02019621804356575, 9.174767612307733e-10, -0.02654179558157921, 0.012066125869750977, 5.01917083951863e-40, 5.067459584599263e-40, 4.925788309856024e-40, 0.044203020632267, -0.03342075273394585, 0.020639007911086082, 4.98185426141366e-40, -0.022347617894411087, 0.022752484306693077, 0.0045759472995996475, -0.045757222920656204, 4.9218646741559145e-40, -0.030693350359797478, -0.0008314031874760985, -0.0347527414560318, -4.917366506085432e-40, 0.009765936061739922, -4.9893371952131544e-40, 0.0676775798201561, 0.07951739430427551, -0.001296091009862721, -0.17733372747898102, 0.09134218841791153, -0.008115075528621674, -0.061691585928201675, -0.006908236537128687, 0.1104554757475853, 0.0002670873363967985, 0.02286398783326149, 0.02512528747320175, 0.02751254290342331, 0.023947710171341896, -0.04914698004722595, 0.01437318418174982, 0.032239168882369995, -4.913835233955333e-40, 4.96101695324915e-40, -4.93189797116048e-40, -0.028679857030510902, 5.58482815549155e-10, 0.013862691819667816, 0.01053188368678093, -5.091197580584925e-40, 5.011547775872703e-40, 4.942211527857911e-40, 0.04577811434864998, -6.192771252244711e-05, 0.006783737801015377, -4.93961912569891e-40, 0.03692389652132988, 0.025595810264348984, 0.031208520755171776, -0.07556523382663727, 4.908412208898396e-40, -0.014422302134335041, 0.009258364327251911, 0.014273782260715961, 4.992798402420037e-40, 0.016096536070108414, -4.931281399836177e-40, -0.034612011164426804, -0.04694527015089989, 0.02271892875432968, -0.19315294921398163, 0.0654376894235611, -0.038623157888650894, -0.05644578859210014, -0.0034037830773741007, 0.10636774450540543, 0.0006891663069836795, 0.000740171002689749, -0.0018051853403449059, 0.0029058586806058884, -0.002169572515413165, 0.059039484709501266, 0.0007790385861881077, 0.04744177311658859, 4.946751734882323e-40, 4.9940315450686426e-40, 4.933957879903038e-40, 0.05207320675253868, 1.8772688958890171e-10, 0.022457947954535484, 0.00026487652212381363, 4.92370037514418e-40, -4.912952415922809e-40, -4.9059459236011846e-40, -0.0003678417415358126, 0.051912084221839905, -0.0002823262184392661, 4.9428140861975705e-40, 0.08013186603784561, -0.0015912513481453061, 0.00926587451249361, -0.007283481303602457, -4.949862617473124e-40, 0.08733402192592621, 0.10665233433246613, -0.01104030478745699, 4.909112858130559e-40, 0.006289148237556219, 4.937489152033136e-40, -0.06031264364719391, -0.00965326651930809, 0.02847452461719513, 0.10883951187133789, 0.17419622838497162, -0.04280020296573639, 0.0876234769821167, 0.0014051157049834728, 0.12803992629051208, -0.007532771676778793, -0.006446116138249636, 0.03790659457445145, 0.0013254827354103327, 0.020009860396385193, 0.026881961151957512, 0.006419352255761623, 0.03826334327459335, -4.996245596642276e-40, -5.3182499707594755e-40, 4.928226569183949e-40, 0.02748270332813263, 1.8581379490623107e-10, -0.008715864270925522, 0.0025212839245796204, 4.9717228735165915e-40, -4.927876244567868e-40, -4.92693737459677e-40, 0.02829834073781967, -0.036677874624729156, 0.0022166678681969643, 4.95117983802959e-40, -0.02822287380695343, 0.006527853664010763, 0.027017563581466675, -0.01947052590548992, 4.955439785361137e-40, -0.007142489776015282, -0.045630913227796555, -0.016709724441170692, -4.982008404244736e-40, 0.005068534053862095, -4.928086439337517e-40, 0.011903518810868263, 0.005371669307351112, -0.011643114499747753, 0.08285997807979584, -0.13763242959976196, 0.024516358971595764, -0.0665789470076561, 0.0010155357886105776, 0.02625698782503605, 0.0006596571765840054, 0.012122801505029202, 0.007610989734530449, 0.016689639538526535, 0.014094997197389603, 0.0076932585798203945, 0.011182555928826332, 0.01275436207652092, 4.997338609444449e-40, 4.935541347167725e-40, -4.923083803819877e-40, -0.0043671769089996815, 4.557219601686313e-10, 0.005658082198351622, 0.00691409083083272, 5.001752699607072e-40, -4.933425386486594e-40, 6.214198169894834e-40, 0.018389860168099403, 0.00875034835189581, 0.014221178367733955, 4.9980953106151845e-40, 0.03198928013443947, 0.014347896911203861, 0.01785556599497795, 0.0015731758903712034, 5.0389151348809665e-40, 0.04062074422836304, 0.049635082483291626, -0.003208433510735631, -4.912111636844214e-40, 0.009472649544477463, -5.012850983444525e-40, 0.0810360461473465, -0.02490924298763275, -0.03137420490384102, 0.13052892684936523, -0.04163278639316559, 0.06259210407733917, -0.05132496356964111, 0.001308067818172276, 0.06053676828742027, -0.0017809354467317462, 0.00517105171456933, -0.01607673615217209, 0.015897143632173538, 0.012720858678221703, -0.024949191138148308, 0.007403009105473757, 0.019042382016777992, 4.957485681119051e-40, 4.945448527310501e-40, 4.978701339868929e-40, -0.021074648946523666, 4.117192697883354e-10, -0.01222623884677887, 0.006007401738315821, 4.9319119841451234e-40, 4.9874174163170294e-40, -4.925802322840667e-40, 0.009598486125469208, 0.018468456342816353, 0.012747297994792461, 4.918893921411546e-40, 0.0008926567970775068, 0.010257309302687645, 0.0053923483937978745, -0.009224985726177692, -4.927876244567868e-40, 0.03637585788965225, 0.04602077230811119, -0.022506671026349068, -5.022197644201571e-40, 0.0069766901433467865, 4.941875216226473e-40, -0.011233233846724033, -0.00672139273956418, -0.016538042575120926, 0.045050736516714096, -0.02930486388504505, 0.04965546727180481, -0.04680534452199936, -0.003649224992841482, 0.0653575137257576, 0.0007363442564383149, 0.034707922488451004, -0.012215004302561283, 0.04483036324381828, 0.03998979181051254, -0.0365702323615551, 0.03215287998318672, 0.03946121782064438, -5.9746041584645766e-40, 5.077675050404191e-40, -4.993737272391134e-40, -0.022429628297686577, 1.2862443332650741e-09, -0.022580664604902267, 0.02043352648615837, -5.02072628081403e-40, -5.229757972737363e-40, -4.987655637055965e-40, 0.05026433244347572, -0.016321826726198196, 0.03625403717160225, 4.989617454906019e-40, -0.05701032280921936, 0.04034331068396568, 0.051173534244298935, -0.039608631283044815, -5.029274201446412e-40, -0.030868185684084892, -0.015382728539407253, -0.02969968691468239, 4.9757305871245605e-40, 0.027012741193175316, 5.2315236088024126e-40, 0.00564645417034626, -0.0028025328647345304, -0.002855581697076559, 0.05741644278168678, -0.01597818359732628, 0.07252867519855499, -0.03811187297105789, -0.0024071235675364733, 0.09195933490991592, 3.253806062275544e-05, 0.03646766394376755, -0.014201495796442032, 0.05019499734044075, 0.03550464287400246, -0.03949231281876564, 0.023901566863059998, 0.04292214289307594, -4.97417514582916e-40, 5.042880809535006e-40, -4.936536269077395e-40, -0.024508623406291008, 1.1184971837607804e-09, -0.020653007552027702, 0.017072120681405067, 4.965991562797503e-40, -5.123819808834407e-40, 4.931547646544399e-40, 0.05600660666823387, -0.00944520439952612, 0.026417117565870285, -4.998179388523044e-40, -0.04628157615661621, 0.03606841340661049, 0.04692700505256653, -0.04617657512426376, -4.99945457012558e-40, -0.04215299338102341, -0.02328055538237095, -0.030102413147687912, 4.922341115633785e-40, 0.02778562530875206, -4.91658177894541e-40, -0.011784004047513008, 0.010042245499789715, 0.01707269623875618, -0.153646782040596, 0.1829029768705368, 0.05919722467660904, -0.0013886363012716174, -0.0017198807327076793, 0.04551950842142105, -0.00029966284637339413, 0.006472679320722818, 0.0181142408400774, 0.004752122797071934, 0.0066014425829052925, 0.05544893071055412, 0.004564756527543068, 0.05036105215549469, -4.961549446665593e-40, -4.933915840949108e-40, 4.94173508638004e-40, 0.01799381710588932, 3.0411245743877657e-10, 0.011135471984744072, 0.0032456740736961365, 5.070276194512556e-40, 4.9940315450686426e-40, 4.90618414434012e-40, 0.0048569003120064735, 0.06763555854558945, 0.01924721710383892, -5.019983592627938e-40, 0.09688738733530045, 0.006433691829442978, 0.005813303403556347, 0.09125909954309464, 4.948755591686308e-40, 0.05916892737150192, -0.003998038824647665, 0.004687411244958639, 4.952651201417131e-40, 0.0041680708527565, -4.958872966598733e-40, 0.09664077311754227, -0.03364996984601021, 0.0036251151468604803, 0.13043266534805298, 0.13004808127880096, -0.010711649432778358, -0.05532878264784813, 0.00019826025527436286, 0.11474943906068802, -0.0027770837768912315, 0.006785386707633734, 0.01975710503757, 0.038391247391700745, 0.02003558911383152, 0.009468034841120243, 0.01696699671447277, 0.0600535050034523, 4.922873609050228e-40, 4.973152197950203e-40, -4.9582143563205e-40, 0.012869860045611858, 5.83560033629027e-10, 0.021518923342227936, 0.007550541777163744, 5.459220596270552e-40, 4.988566481057776e-40, 4.9154887661432366e-40, 0.03337608650326729, -0.009884665720164776, 0.05840874835848808, 4.9154887661432366e-40, 0.0017709683161228895, -0.005832661874592304, 0.008532869629561901, -0.05506571754813194, 4.938399996034947e-40, -0.021843496710062027, 0.09377050399780273, 0.024965370073914528, -4.94065608656251e-40, 0.02950982004404068, -5.022015475401209e-40, -0.011151732876896858, -0.00949840433895588, -0.04283639416098595, 0.020493580028414726, -0.1534045934677124, 0.04700853303074837, 0.03910887986421585, -0.00018750473100226372, 0.06819408386945724, 0.0013803639449179173, 0.01146717183291912, 0.012936915270984173, 0.0153048662468791, 0.013166210614144802, -0.0028879335150122643, 0.01053602620959282, 0.017772741615772247, 5.0294283442774874e-40, 4.9798504046096754e-40, -4.9619558232202475e-40, 0.004857186693698168, 4.3977341213086163e-10, -0.00792310107499361, 0.006637959275394678, -4.97585670398635e-40, -5.0295965000932064e-40, 4.926250738349251e-40, 0.01711433380842209, 0.04513854533433914, 0.01219117920845747, 4.906814728649066e-40, 0.005009934771806002, 0.013503882102668285, 0.016882775351405144, -0.022302171215415, -4.980144677287184e-40, 0.0385747030377388, 0.0066410512663424015, 0.017894135788083076, -4.9386382167738825e-40, 0.009142812341451645, 5.094967073453959e-40, -0.013194997794926167, -0.009058665484189987, 0.048225969076156616, 0.061425112187862396, -0.07727008312940598, 0.010250741615891457, 0.027241529896855354, 0.0028106807731091976, 0.028484417125582695, -0.0008511379128322005, -0.015168482437729836, 0.0071534956805408, -0.020576119422912598, -0.017596736550331116, 0.014026671648025513, -0.013892537914216518, -0.010489401407539845, 5.000155219357742e-40, 4.945826877895869e-40, -4.920028973167649e-40, 0.018271269276738167, -5.808483694025313e-10, 0.01638626866042614, -0.00863912794739008, -5.060901507786223e-40, 4.999006154616996e-40, 4.930566737619372e-40, -0.022949732840061188, 0.02779945731163025, -0.0158217903226614, 4.930482659711512e-40, 0.04107764735817909, -0.018002159893512726, -0.022559260949492455, 0.04528186470270157, -4.955075447760413e-40, 0.07958342134952545, 0.026474604383111, 0.01961546391248703, 4.991803480510366e-40, -0.011621247045695782, 4.930062270172215e-40, -0.006554685067385435, -0.0036672698333859444, 0.007479515857994556, 0.02628704532980919, -0.07677853852510452, -0.0053256782703101635, -0.011434812098741531, 0.0006282487302087247, 0.005755455698817968, 0.0009377816459164023, 0.009515495970845222, -0.005345918703824282, 0.013655809685587883, 0.011279906146228313, -0.015090961940586567, 0.008810368366539478, 0.00980317685753107, 4.956518785178667e-40, -4.978715352853572e-40, 4.9260405435796024e-40, -0.009066304191946983, 4.449321744370849e-10, -0.007700867019593716, 0.005549755413085222, 5.00765216614188e-40, -5.202600808498748e-40, 4.966734250983595e-40, 0.015106743201613426, -0.006604437250643969, 0.009001296013593674, -4.9641558618092375e-40, -0.017460692673921585, 0.011695737019181252, 0.015068421140313148, -0.017524119466543198, 4.9123218316138625e-40, -0.0168515183031559, -0.004635073710232973, -0.011322678066790104, -4.978659300914999e-40, 0.007483040448278189, 5.039069277712042e-40, 0.06619053333997726, -0.07772071659564972, 0.08224602788686752, 0.09785201400518417, 0.14644645154476166, 0.11571686714887619, 0.00024750709417276084, 0.0021340057719498873, -0.05629519373178482, -0.006392023526132107, -0.0030459954869002104, 0.00048410482122562826, -0.0037571825087070465, -0.002734758658334613, 0.10154413431882858, -0.0022679558023810387, 0.056475307792425156, 6.094975696550078e-40, -4.99000981847603e-40, -4.980565066826481e-40, -0.026933591812849045, -1.2878731414645017e-10, 0.0015162386698648334, -0.0012507785577327013, 5.016914748991067e-40, 4.9446217612165495e-40, -4.483118124975814e-40, -0.003920838236808777, 0.08515492081642151, -0.002751188585534692, -4.912363870567792e-40, 0.031480152159929276, -0.0026280053425580263, -0.007226691115647554, 0.053586140275001526, 4.951376019814595e-40, 0.08712580800056458, -0.04011578485369682, 0.02071680687367916, -4.937923554557077e-40, -0.0018189613474532962, -4.906324274186552e-40, -4.944523670324047e-40, 4.939605112714267e-40, -4.905371391230811e-40, 4.923350050528099e-40, -4.937601255910282e-40, -4.962208056943826e-40, 4.911523091489197e-40, -4.945252345525496e-40, -4.937096788463125e-40, 4.944467618385474e-40, -5.014672671448147e-40, 4.946107137588734e-40, -4.99721249258266e-40, -4.93793756754172e-40, -4.9159371816518205e-40, -4.991270987093923e-40, -4.439159392149945e-40, 4.947550475006988e-40, 5.022141592262998e-40, -5.066002234196365e-40, -4.9163855971604045e-40, 4.964422108517459e-40, -4.986716767084867e-40, -4.68952938877086e-40, 4.913414844416036e-40, -5.157535049886062e-40, 4.949442227933827e-40, -4.911382961642765e-40, -4.9712744580080075e-40, -4.946905877713399e-40, -5.023024410295523e-40, -4.93690060667812e-40, -4.992980571220399e-40, -4.94833520214701e-40, -4.934490373319481e-40, 5.2039600680091434e-40, -4.937306983232774e-40, -4.9406140476085805e-40, -4.936199957445957e-40, 5.083658594846858e-40, -5.013523606707401e-40, -5.074984557352687e-40, 0.005911702290177345, 0.1288744956254959, 0.07135514914989471, 0.019016459584236145, -0.04978163167834282, 0.008171545341610909, 0.03312553092837334, 0.0006820198032073677, -0.0612502321600914, 0.0046410709619522095, -0.00012267778220120817, 0.006703158374875784, -0.000633319781627506, -0.00046501337783411145, 0.03617989644408226, -0.00010430836846353486, -0.0023480455856770277, -4.962194043959183e-40, 5.064460805885608e-40, -4.95061931864386e-40, 0.01708359085023403, -3.401912432310361e-11, 0.020490730181336403, 8.419730147579685e-05, 4.608324142763237e-40, -5.06628249388923e-40, 4.908272079051964e-40, -0.0010376663412898779, -0.003536876756697893, -0.0008619381696917117, 4.982050443198665e-40, 0.03388471528887749, -0.0004876658204011619, -0.0009284214465878904, 0.02619759924709797, -4.994059571037929e-40, 0.06568992137908936, 0.0029430354479700327, 0.0014790191780775785, 4.958270408259073e-40, 1.1883962542924564e-05, 4.930398581803653e-40, -0.012633773498237133, 1.4675634702143725e-05, -0.007836783304810524, 0.16363026201725006, 0.01806655339896679, 0.09319301694631577, -0.047584015876054764, -0.0022646377328783274, 0.029172521084547043, 0.0016043767100200057, -0.005524341017007828, -0.020996445789933205, 0.04997890070080757, 0.07422085106372833, -0.04990263655781746, 0.03001793473958969, 0.06259766221046448, -4.939226762128899e-40, -5.497167758684468e-40, 4.947130085467691e-40, -0.03115854412317276, 1.621329959178297e-09, -0.026823531836271286, 0.018031658604741096, 5.1493654798390485e-40, 4.914115493648198e-40, -4.948503357962729e-40, 0.05843944102525711, -0.02788977138698101, 0.05794923007488251, -4.942099423980765e-40, -0.05819327011704445, 0.07485613226890564, 0.04566904529929161, -0.05739784613251686, 4.93353749036374e-40, -0.062396079301834106, -0.04026561602950096, -0.038316719233989716, 4.947788695745924e-40, 0.033668387681245804, -4.908230040098034e-40, -0.024737201631069183, 0.0964069664478302, -0.024605922400951385, -0.15725694596767426, -0.1461222767829895, 0.09501847624778748, -0.050288137048482895, -0.0038623742293566465, -0.029296208173036575, 0.0016373669495806098, 0.024016432464122772, 0.06426266580820084, 0.0330718532204628, 0.019515836611390114, 0.02187749370932579, 0.015066897496581078, 0.0712219625711441, -4.90558158600046e-40, 4.987739714963824e-40, 4.969676977758677e-40, 9.788537136046216e-05, 5.677309733442826e-10, -0.02511557750403881, 0.009289884008467197, -4.9545009153900395e-40, -5.0255887864852374e-40, -4.921290141785541e-40, 0.03795284405350685, -0.017285391688346863, 0.05152610316872597, -4.910135806009516e-40, 0.10671248286962509, 0.022904567420482635, 0.019260192289948463, 0.033739954233169556, 4.930384568819009e-40, 0.015150731429457664, -0.025336667895317078, -0.016474705189466476, 4.997044336766941e-40, 0.022336075082421303, 5.065553818687781e-40, -0.0002090141351800412, -0.012009449303150177, 0.00017127532919403166, 0.11489419639110565, 0.015507390722632408, -0.05862116813659668, 0.021902291104197502, 0.00279427831992507, 0.01489314530044794, -0.002759832190349698, 0.014958224259316921, 0.0291275717318058, 0.017311766743659973, 0.015348798595368862, 0.03338399529457092, 0.004620377440005541, 0.022743510082364082, 4.9588449406294464e-40, -4.985469611451618e-40, 4.927708088752149e-40, 0.019579242914915085, 1.731514376324128e-10, 0.013790102675557137, 0.002896721474826336, 5.172388813607905e-40, 4.944607748231906e-40, -4.9269794135507e-40, 0.021941646933555603, 0.004568654578179121, -0.010624026879668236, -4.9317438283294044e-40, -0.03559225797653198, 0.016415130347013474, 0.02723323553800583, 0.007268050219863653, 4.973684691366646e-40, -0.016294270753860474, 0.015945203602313995, -0.016666056588292122, 4.9397032036067694e-40, -0.0022097828332334757, 4.907417286988726e-40, 0.027684509754180908, 0.02355150692164898, 0.009696430526673794, 0.05561155825853348, 0.057470258325338364, 0.01043987087905407, -0.025700515136122704, 0.0007554483017884195, 0.010488690808415413, -0.0010489547858014703, -0.0036839055828750134, 0.022615231573581696, -0.00382334366440773, -0.002702825702726841, 0.03164733946323395, -0.002864991780370474, 0.00914565846323967, 5.009053464606205e-40, -5.042558510888211e-40, 4.978687326884286e-40, 0.021266862750053406, -1.1058040594313923e-10, 0.009784368798136711, -0.0019580870866775513, 4.948559409901302e-40, 4.904684754983292e-40, 4.92318189471238e-40, -0.002513368148356676, -0.009349312633275986, 0.00041693035745993257, -4.912966428907452e-40, 0.04897519573569298, -0.004112069960683584, -0.0021549691446125507, 0.03370536491274834, -4.9163295452218315e-40, 0.06957802921533585, 0.013099142350256443, 0.014819776639342308, -4.957205421426186e-40, -0.0030515885446220636, 3.825698950437826e-40, -8.284716750495136e-05, 0.01344334613531828, -0.014034334570169449, -0.004707702435553074, 0.07733938097953796, -0.0002580965228844434, 0.014393700286746025, 0.0022502439096570015, 0.06301051378250122, -0.0013105844845995307, -0.018661607056856155, 0.024057017639279366, -0.024821076542139053, -0.021630968898534775, 0.0621807761490345, -0.017173441126942635, -0.003960839472711086, -4.929459711832555e-40, -4.91490022078822e-40, -4.945630696110863e-40, 0.03470280021429062, -6.168469068867921e-10, 0.028232619166374207, -0.010628307238221169, 5.091085476707779e-40, 4.981910313352233e-40, -4.91326070158496e-40, -0.028575146570801735, 0.01981830596923828, -0.017579346895217896, -4.961927797250961e-40, 0.07750177383422852, -0.022067897021770477, -0.02770867571234703, 0.06883687525987625, 4.919734700490141e-40, 0.04698997735977173, 0.013504785485565662, 0.04150581732392311, 4.985847962036986e-40, -0.01407623291015625, 5.000589621881683e-40, -4.926530998042116e-40, -4.9316317244522585e-40, -4.928632945738603e-40, -4.924905491823499e-40, 4.962600420513837e-40, -4.917030194453994e-40, -3.7932448780040636e-40, 2.2775023680978387e-40, -5.611990154851244e-40, -2.1075248643752384e-40, -4.962810615283486e-40, -4.971120315176932e-40, -4.987123143639521e-40, -4.230772297520201e-40, -4.910486130625597e-40, -5.001192180221342e-40, -4.938119736342082e-40, -4.909813507362721e-40, 5.029554461139277e-40, -5.0269480459956325e-40, -4.9183614279951024e-40, -4.985833949052342e-40, -4.9605965637098524e-40, -4.929193465124333e-40, 4.949470253903113e-40, 4.954711110159688e-40, 4.928590906784674e-40, -4.957962122596922e-40, -4.916763947745772e-40, -4.989995805491387e-40, -4.928997283339328e-40, -5.210307950052535e-40, -4.939605112714267e-40, -4.9654030174424866e-40, -5.235727504195387e-40, -5.261175084307526e-40, -4.962670485437053e-40, -4.976164989648501e-40, -5.825071599336475e-40, -4.938778346620315e-40, -4.910261922871305e-40, 4.9269513875814136e-40, -0.07096011936664581, -0.004904476460069418, 0.015491937287151814, 0.03662324324250221, 0.15187980234622955, 0.013803504407405853, -0.019240016117691994, -0.0007197251543402672, -0.028042824938893318, -0.00706191873177886, -0.002402160782366991, 0.022635191679000854, -0.0019446952501311898, -0.0023077083751559258, 0.017692510038614273, -0.001964840106666088, -0.009590493515133858, 5.011603827811276e-40, -5.057594443410416e-40, 4.991607298725361e-40, 0.003279338823631406, -4.4490459927271075e-11, 0.020293524488806725, -0.0013380617601796985, 4.993583129560059e-40, -4.9390866322824665e-40, -4.923013738896661e-40, -0.004467335995286703, -0.02037806622684002, -0.005737048573791981, -4.9695788868661745e-40, 0.014975091442465782, -0.002737484173849225, 0.0004547606222331524, 0.07179441303014755, 4.925409959270656e-40, 0.04964675009250641, -0.03822716325521469, 0.012779326178133488, -4.9545569673286125e-40, -0.0018845013109967113, 5.008885308790486e-40, -4.94449564435476e-40, -4.9163295452218315e-40, -4.955145512683629e-40, -4.913933324847836e-40, 2.334605280519075e-40, -5.2744313677800385e-40, -4.9174085450393616e-40, 5.0238371634048314e-40, -4.920743635384455e-40, -4.920743635384455e-40, -4.906716637756563e-40, 4.958634745859798e-40, -3.957757317715797e-40, -5.064236598131316e-40, -4.948307176177724e-40, -4.930524698665442e-40, -4.22218233793389e-40, 4.957429629180478e-40, -4.9139613508171225e-40, -4.916315532237188e-40, -5.4564740512804754e-40, -5.037555875370571e-40, -5.212017534179011e-40, -5.013369463876325e-40, 6.14023763694777e-40, -4.9912009221707064e-40, 4.966902406799314e-40, -3.550638074875508e-40, -1.9114271572776235e-40, -4.906982884464785e-40, -5.150976973073022e-40, -4.910990598072754e-40, -5.06744557161462e-40, -3.659785212261768e-40, -4.953155668864288e-40, 4.965641238181422e-40, 4.909056806191986e-40, -2.3522476281849244e-40, -4.962838641252772e-40, -4.920323245845157e-40, -4.9574996941036946e-40, 4.934280178549832e-40, 0.009872613474726677, -0.013764367438852787, 0.02270657755434513, 0.006311115343123674, 0.11517070978879929, -0.025757666677236557, -0.0013856873847544193, -0.0023661113809794188, 0.06505315005779266, -0.0010784306796267629, 0.013796357437968254, -0.00852390006184578, 0.019606029614806175, 0.0169670432806015, -0.030271222814917564, 0.01229371502995491, 0.02853129431605339, -4.906422365079055e-40, -4.90558158600046e-40, 4.9351349706130705e-40, -0.011418936774134636, 5.003315539653386e-10, -0.004006705712527037, 0.00776512548327446, 4.9586767848137274e-40, 4.935050892705211e-40, -4.946947916667329e-40, 0.02808496728539467, 0.015289101749658585, 0.010769160464406013, -4.9088746373916234e-40, -0.01261370349675417, 0.01942264288663864, 0.011291515082120895, -0.03844039887189865, -4.991285000078566e-40, 0.0221765898168087, 0.008829195983707905, -0.013235102407634258, 4.909337065884851e-40, 0.00994100607931614, 4.946527527128031e-40, 0.060280222445726395, -0.05011642724275589, 0.019385680556297302, 0.146311417222023, 0.057445887476205826, 0.06859240680932999, 0.05311622843146324, 0.005939249414950609, -0.08022381365299225, -0.005981894675642252, -0.018531659618020058, 0.06624142080545425, -0.02442348748445511, -0.02083098329603672, 0.04093269631266594, -0.016606491059064865, -0.012721410021185875, -4.9653749914732e-40, -4.978449106145351e-40, 4.936227983415244e-40, 0.08364732563495636, -7.735512785878029e-10, 0.07428506761789322, -0.010024345479905605, -5.1034028902091945e-40, 4.947690604853421e-40, 4.920477388676233e-40, -0.03021540865302086, 0.06533268094062805, -0.01567419059574604, -4.945826877895869e-40, -0.000986830797046423, -0.02166394330561161, -0.027134250849485397, 0.0793817788362503, 4.980621118765054e-40, 0.06652908772230148, 0.002710936591029167, -0.014614811167120934, -5.028237240582811e-40, -0.011981259100139141, 4.950507214766714e-40, 0.06529076397418976, -0.010619964450597763, 0.026073826476931572, 0.12870605289936066, 0.16892105340957642, 0.009705094620585442, 0.055795248597860336, 0.0006843846058472991, 0.008224155753850937, -0.004161185119301081, 0.015903426334261894, 0.03192884474992752, 0.022196965292096138, 0.0078198267146945, -0.0006215415196493268, 0.022929279133677483, -0.001386401243507862, -4.948531383932016e-40, 5.023192566111242e-40, 4.9298801013718524e-40, 0.015197314321994781, 5.238660616413426e-10, -0.031667035073041916, 0.004885854199528694, 4.977243989466031e-40, -4.95933539509196e-40, 4.922873609050228e-40, 0.025116363540291786, 0.011378888040781021, 0.025594716891646385, -4.929081361247187e-40, -0.0028726093005388975, 0.012657662853598595, 0.013792237266898155, 0.04714059829711914, 4.9654590693810595e-40, -0.054858576506376266, 0.07329320162534714, 0.03624621406197548, -4.943010267982576e-40, 0.027131717652082443, 4.914535883187496e-40, -4.9117613122281326e-40, -4.913204649646387e-40, -4.906828741633709e-40, -4.912111636844214e-40, 4.913050506815311e-40, -4.908636416652688e-40, -4.907207092219077e-40, 4.97749622318961e-40, -4.909168910069132e-40, -4.905161196461163e-40, -4.91662381789934e-40, 4.910191857948089e-40, -4.917170324300426e-40, -4.910878494195608e-40, -4.915040350634653e-40, -4.9085383257601855e-40, -4.906380326125125e-40, 4.917394532054718e-40, 5.121605757260774e-40, 4.933873801995178e-40, -4.906912819541569e-40, -4.9484613190087995e-40, 4.911032637026684e-40, -4.913148597707814e-40, 4.93470056808913e-40, 4.962950745129918e-40, 4.922873609050228e-40, -4.905637637939033e-40, -2.3839169734786653e-40, -4.9065064429869145e-40, 4.911354935673478e-40, -4.909267000961634e-40, -4.914479831248923e-40, -4.9140734546942685e-40, -4.905917897631898e-40, -5.0821732184746736e-40, -2.4507729232116023e-40, 4.909238974992348e-40, -4.9145779221414254e-40, -5.029680578001066e-40, 4.91106066299597e-40, -4.9242889204991964e-40, 0.005124283954501152, 0.017478197813034058, -0.00545392744243145, -0.027907494455575943, 0.13950011134147644, 0.04086160659790039, 0.03961629420518875, 0.0011556989047676325, 0.05222277715802193, -0.0010999952210113406, -0.010504034347832203, 0.02504107356071472, -0.014012294821441174, -0.01210856530815363, 0.04967183619737625, -0.009530279785394669, 5.9295434766681865e-05, 4.994115622976502e-40, -4.950367084920281e-40, -4.907711559666234e-40, 0.028071193024516106, -2.6144472697886556e-10, 0.03067925199866295, -0.005694061983376741, 4.969326653142596e-40, 4.9626284464831234e-40, 4.940964372224662e-40, -0.01611715741455555, 0.03649109974503517, -0.00835159420967102, -5.270045303586702e-40, 0.04277753829956055, -0.012533134780824184, -0.014701266773045063, 0.058276690542697906, 4.992756363466107e-40, 0.0505264587700367, 0.02294771373271942, 0.03750693425536156, 4.979387976116448e-40, -0.007544332649558783, -4.952567123509271e-40, -0.021405262872576714, -0.01406396646052599, 0.0047522601671516895, -0.14430159330368042, 0.11339074373245239, 0.05393806844949722, 0.00902391318231821, -0.0032101257238537073, -0.04963222146034241, -0.0022519801277667284, 0.07660148292779922, -0.014630644582211971, 0.0708165317773819, 0.08342394977807999, -0.04272051155567169, 0.026054207235574722, -0.004605811554938555, 4.971316496961937e-40, 5.8384680126554206e-40, -4.931841919221907e-40, -0.02488602139055729, 8.504761339622746e-10, -0.021454527974128723, 0.0243671964854002, -5.87478966885072e-40, 5.044856640369704e-40, -4.955313668499348e-40, 0.02782314643263817, 0.014654996804893017, 0.019004950299859047, 5.370658533325224e-40, -0.03941263258457184, 0.07505214959383011, 0.012297703884541988, -0.04220331832766533, -4.998165375538401e-40, -0.03576499596238136, -0.006913458928465843, -0.03196527808904648, -4.91330274053889e-40, 0.05740108713507652, 5.0038546473035595e-40, 0.07035986334085464, -0.03637376427650452, -0.02164650335907936, 0.12525297701358795, 0.06374236941337585, 0.0551445335149765, 0.059094417840242386, 0.00176816841121763, -0.015547704882919788, -0.0013138183858245611, 0.03124188259243965, 0.021300535649061203, 0.04164304584264755, 0.0014533685753121972, -0.03753438591957092, 0.012395309284329414, 0.009227745234966278, 4.986114208745207e-40, -4.986394468438072e-40, -4.9565327981633105e-40, -0.017973335459828377, 7.280768765660639e-10, -0.02497822977602482, 0.007935735397040844, 5.150346388764076e-40, 5.006713296170782e-40, 4.9336075552869565e-40, 0.02387518435716629, 0.010622220113873482, 0.024812903255224228, 5.638712916565918e-40, -0.045853305608034134, 0.01345239207148552, 0.05464068427681923, -0.012070678174495697, -4.943024280967219e-40, -0.033831365406513214, 0.04382257163524628, -0.0017168008489534259, 4.9079778063744556e-40, 0.009127221070230007, -4.982148534091168e-40, 0.06515993922948837, -0.021148372441530228, -0.01555024553090334, 0.07867582887411118, -0.11039475351572037, 0.03633928671479225, 0.07463683933019638, 0.0038162015844136477, 0.006885876879096031, -0.00020233284158166498, -0.0013385163620114326, 0.02203219383955002, -0.0023701831232756376, -0.0016910514095798135, 0.0013359764125198126, -0.0010812381515279412, -0.01318952813744545, 4.934924775843422e-40, 5.0254206306695185e-40, 4.938119736342082e-40, 0.00904829427599907, -7.2484587776422416e-12, 0.018617350608110428, -0.0004564066184684634, 4.9385261128967366e-40, -4.989561402967446e-40, -4.95273527932499e-40, -0.002969620283693075, 0.047350089997053146, -0.0012692022137343884, -4.978701339868929e-40, -0.0037288698367774487, -0.0017942074919119477, -0.0027149496600031853, -0.007659861817955971, -4.933789724087319e-40, -0.029752228409051895, -0.021771050989627838, 0.036457695066928864, 4.977552275128183e-40, -0.0008721431950107217, 4.9939754931300696e-40, -4.963020810053134e-40, 4.951376019814595e-40, 5.177055137494107e-40, -4.986646702161651e-40, 1.427040317114464e-40, -5.472897269282362e-40, -6.151826375247736e-40, -5.0884370226102055e-40, -4.944481631370117e-40, 5.1073545518785905e-40, -2.6616963680617738e-40, 4.9853294816051855e-40, -5.078824115144937e-40, -5.023360721926961e-40, -4.958578693921225e-40, -2.7539438459682765e-40, -4.931043179097242e-40, -5.015499437542099e-40, -4.998109323599828e-40, -5.042964887442865e-40, -4.920365284799087e-40, 4.9472141633755504e-40, -4.969606912835461e-40, -3.1593675176667326e-40, -5.169095762216742e-40, -4.95661687607117e-40, 5.0953874629932566e-40, -5.02896591578426e-40, -3.960868200306598e-40, -4.9486855267630915e-40, 4.909210949023061e-40, -4.905959936585828e-40, -4.934812671966276e-40, -5.078473790528856e-40, -4.93690060667812e-40, 5.100614306265188e-40, 4.940908320286089e-40, -3.843411363026892e-40, -4.907949780405169e-40, -5.159791140413625e-40, -3.0173038793534826e-40, 4.95337987661858e-40, -4.948489344978086e-40, 4.9387503206510285e-40, -4.917030194453994e-40, -4.926082582533532e-40, -4.914928246757507e-40, -5.815248497101558e-41, -4.958578693921225e-40, -2.338388786372752e-40, 7.91131074003862e-41, 4.942043372042192e-40, -5.749933975679379e-40, -5.034837356349781e-40, -5.000337388158104e-40, 4.925325881362797e-40, -5.231271375078834e-40, -4.97033558803691e-40, -4.961002940264507e-40, -4.989911727583528e-40, 4.914283649463917e-40, 4.976683470080301e-40, -5.047210821789769e-40, -5.010356672178027e-40, -5.040232355437432e-40, -4.912083610874927e-40, -4.988538455088489e-40, 4.915236532419658e-40, -5.191292329891647e-40, -4.936872580708833e-40, -5.089179710796298e-40, -4.940880294316802e-40, 4.921430271631974e-40, -5.027088175842065e-40, -4.987697676009894e-40, -4.916890064607561e-40, 2.5228977551704007e-41, 4.911088688965257e-40, -4.938442034988877e-40, -4.92650297207283e-40, -5.035229719919792e-40, -4.9407822034242995e-40, -4.972241353948392e-40, -4.9365502820620386e-40, -0.04192730411887169, -0.012864410877227783, -0.007758882828056812, 0.15450042486190796, 0.040138691663742065, -0.04876643419265747, -0.03428530693054199, -0.003025293815881014, -0.006409942172467709, -0.0020212694071233273, 0.02714775688946247, -0.01841341331601143, 0.04334757849574089, -0.004596517886966467, -0.0449468269944191, 0.04328911751508713, 0.05370291322469711, -5.018666372071473e-40, 4.93910064526711e-40, 4.983423715693704e-40, -0.02772233635187149, 9.558284164157271e-10, -0.023964479565620422, 0.018453072756528854, 4.931309425805464e-40, -4.928324660076452e-40, -4.977832534821048e-40, 0.014944302849471569, -0.03420345485210419, 0.044983793050050735, -4.953477967511082e-40, -0.052496615797281265, 0.061763111501932144, 0.058690182864665985, -0.05156494304537773, -4.926334816257111e-40, -0.04944717884063721, -0.007223382592201233, -0.03428179398179054, -4.92637685521104e-40, 0.03257337957620621, -5.1789468904209454e-40, 0.014663944952189922, -0.008008591830730438, 0.0021179215982556343, 0.09047344326972961, -0.08853765577077866, 0.049847621470689774, -0.033915936946868896, 0.0008497037924826145, 0.05338067188858986, -0.0008509234176017344, 0.017125867307186127, -0.0034703980199992657, 0.02232789807021618, 0.02020827680826187, -0.007374519016593695, 0.01591341197490692, 0.026593072339892387, 5.008787217897983e-40, 4.996539869319784e-40, 4.978519171068567e-40, -0.008648663759231567, 6.167792387934412e-10, -0.007628643419593573, 0.009964663535356522, -4.9966799991662165e-40, -5.0729106356254865e-40, -4.936059827599525e-40, 0.02600785531103611, 0.006543191149830818, 0.018033990636467934, 4.987921883764186e-40, -0.012294631451368332, 0.020373106002807617, 0.024231789633631706, -0.01664506457746029, 4.9691865232961636e-40, 0.0075867073610424995, 0.0012302849208936095, -0.010687756352126598, -4.992307947957523e-40, 0.01333895605057478, -5.084121023340085e-40, 0.012784002348780632, -0.051060549914836884, 0.057632770389318466, 0.006440923549234867, -0.16442346572875977, 0.06709667295217514, -0.052564483135938644, -0.0021038551349192858, 0.06410247832536697, 0.0021724612452089787, 0.027326295152306557, 0.018388256430625916, 0.03887852281332016, 0.034502264112234116, -0.007047124207019806, 0.025720849633216858, 0.04941688850522041, 4.971036237269072e-40, 4.97745418423568e-40, 4.905231261384379e-40, 0.0003188068512827158, 9.732336048173806e-10, 0.006274496205151081, 0.016238443553447723, -4.904628703044719e-40, 4.978505158083924e-40, 4.92693737459677e-40, 0.04488150402903557, 0.04855332896113396, 0.024978265166282654, 4.987403403332386e-40, -0.018062345683574677, 0.03341292962431908, 0.044121939688920975, 0.023701732978224754, 4.947746656791994e-40, -0.02597169578075409, 0.03891996294260025, -0.006388935726135969, 4.9564206942861645e-40, 0.023831207305192947, 4.933523477379097e-40, 0.024786632508039474, -0.016267750412225723, 0.027509989216923714, 0.08938026428222656, -0.1365755945444107, -0.007978501729667187, -0.0007133724284358323, 0.0020938601810485125, -0.01420310977846384, 0.0029018335044384003, 0.045179907232522964, -0.009886866435408592, 0.03088284283876419, 0.027439435943961143, -0.03321695327758789, 0.039600614458322525, 0.06342867761850357, -5.016606463328915e-40, -4.916862038638275e-40, 5.014154191016347e-40, -0.019619809463620186, 1.1527115928444687e-09, -0.017190570011734962, 0.017068853601813316, 5.095079177331105e-40, -4.917366506085432e-40, 4.9433185536447274e-40, 0.04313025623559952, -0.009146274998784065, 0.05449959263205528, 4.97469362626096e-40, -0.03981485217809677, 0.025788702070713043, 0.05248424783349037, -0.03504684567451477, -4.941314696840743e-40, -0.03942485526204109, 0.016888847574591637, -0.02442099340260029, 4.9564206942861645e-40, 0.029695039615035057, -4.9675470040929035e-40, -0.023885957896709442, -0.06102437153458595, 0.0005026338621973991, 0.03362857177853584, 0.01728086546063423, -0.0007936435285955667, -0.006486467085778713, 0.00020207400666549802, -0.007650596089661121, 0.001961509929969907, 0.00529094971716404, -0.004495289642363787, 0.0038609171751886606, 0.0037956582382321358, -0.011040306650102139, 0.0034600193612277508, -0.0038467179983854294, -4.9545009153900395e-40, -4.720301903047433e-40, -4.931477581621183e-40, -0.0066117290407419205, 1.2095047186022612e-10, -0.005695774219930172, 0.0023749247193336487, 4.9314635686365395e-40, 4.990738493677479e-40, -4.909575286623786e-40, 0.007996753789484501, -0.00490134721621871, 0.0030979227740317583, 5.047939496991218e-40, -0.014432886615395546, 0.004009539261460304, 0.00535286869853735, -0.013348444364964962, 5.006769348109355e-40, -0.006764523219317198, -0.009180907160043716, -0.008291355334222317, -4.911158753888473e-40, 0.003888292470946908, -4.9330470359012265e-40, -0.0567772313952446, -0.010127659887075424, -0.03547556325793266, 0.16241520643234253, -0.08428435027599335, 0.05323611572384834, 0.10109516978263855, 0.002837409032508731, 0.0058236862532794476, -0.002440707990899682, 0.02246464230120182, -0.013259581290185452, 0.025448977947235107, 0.02001146413385868, 0.07875854521989822, 0.018835434690117836, 0.04082805663347244, -3.69948399775609e-40, -4.946247267435166e-40, 4.9698591465590395e-40, 0.012500780634582043, 6.318034984076348e-10, -0.03050226718187332, 0.011137676425278187, 5.102968487685254e-40, 5.016017917973899e-40, 4.920028973167649e-40, 0.036094266921281815, 0.06535013020038605, 0.01939188688993454, 4.955383733422564e-40, -0.036235928535461426, 0.01945875771343708, 0.0293277595192194, 0.043118271976709366, 4.952398967693552e-40, -0.010559957474470139, 0.06584549695253372, 0.04640386626124382, -5.038060342817728e-40, 0.018883032724261284, 5.022085540324425e-40, -0.05416889488697052, -0.009192711673676968, -0.014608296565711498, -0.13112668693065643, 0.020616667345166206, -0.051282864063978195, -0.02212786115705967, -0.002167636528611183, 0.13075688481330872, -0.0026092042680829763, 0.05287044495344162, -0.013142107985913754, 0.024122197180986404, 0.02558179572224617, -0.03644225001335144, 0.026643337681889534, 0.07914576679468155, 4.939352878990688e-40, 4.373830857743122e-40, 4.933453412455881e-40, -0.022677602246403694, 1.0813683282151487e-09, -0.019509389996528625, 0.01182409655302763, -4.99773097301446e-40, 5.1223204194775796e-40, 4.980298820118259e-40, 0.03293571248650551, -0.023888401687145233, 0.0301278755068779, -5.590830548039939e-40, -0.04300501570105553, 0.034820232540369034, 0.09086993336677551, -0.04204672947525978, 4.957191408441543e-40, -0.04458315670490265, 0.005439652130007744, -0.02781696990132332, 4.904628703044719e-40, 0.015647560358047485, -4.971246432038721e-40, 0.06039026752114296, -0.04501890763640404, -0.00017207504424732178, -0.16649474203586578, 0.1186952143907547, 0.07738839089870453, 0.06224338337779045, -0.0006164075457490981, 0.10369323194026947, 0.0008420780650340021, -0.021663082763552666, -0.0008977529359981418, -0.028258582577109337, -0.025303559377789497, 0.10514866560697556, -0.020241770893335342, -0.019830919802188873, 4.918977999319405e-40, 4.989743571767809e-40, -4.993555103590772e-40, 0.06222281605005264, -6.571743149663689e-10, 0.031293850392103195, -0.01274905912578106, 5.020866410660463e-40, -4.987459455270959e-40, -4.916637830883983e-40, -0.03217107802629471, -0.010901235975325108, -0.015728401020169258, 4.920561466584092e-40, 0.09207289665937424, -0.025577211752533913, -0.032703153789043427, 0.055885180830955505, -4.918557609780108e-40, 0.034269753843545914, -0.03601791709661484, 0.07374238222837448, 4.951319967876022e-40, -0.014241333119571209, 4.957275486349403e-40, 0.06531371921300888, 0.012342425994575024, 0.006376147735863924, 0.14400088787078857, -0.0934315025806427, -0.03321338817477226, -0.05080534890294075, -0.0021296278573572636, 0.09394253045320511, 0.0032030665315687656, 0.016536306589841843, -0.020676011219620705, 0.0724794939160347, 0.011879028752446175, -0.05251140892505646, 0.03370216488838196, 0.04322144389152527, -5.022547968817653e-40, 5.0043591147507165e-40, -4.970223484159764e-40, -0.03228587284684181, 1.5582514167888917e-09, -0.027454961091279984, 0.013258278369903564, 4.9211920508930386e-40, 4.929627867648274e-40, -4.904796858860438e-40, 0.008820843882858753, -0.005105792544782162, 0.05484447628259659, -4.957373577241905e-40, -0.061788540333509445, 0.04440345615148544, 0.06310533732175827, -0.06109040230512619, 4.944327488539041e-40, -0.0490301139652729, -0.04262041673064232, -0.03988877311348915, 6.158804841600074e-40, 0.018905386328697205, -4.929627867648274e-40, -0.03312409669160843, -0.013612966984510422, 0.0035196919925510883, -0.09502080082893372, -0.1393541395664215, 0.045716386288404465, 0.02462000586092472, -0.0017707704100757837, 0.0414605587720871, -0.0014671405078843236, 0.00598165625706315, -0.0038012536242604256, 0.002461471827700734, 0.013520400039851665, 0.022516582161188126, 0.015152341686189175, 0.04167522117495537, -4.935499308213795e-40, 5.864027696644705e-40, 4.937951580526363e-40, -0.022105807438492775, 3.978740670262937e-10, -0.02853032760322094, 0.005372403655201197, -4.93357952931767e-40, -4.91274222115316e-40, 4.930496672696155e-40, 0.009097172878682613, 0.07711117714643478, 0.020394451916217804, -4.9599799923855495e-40, -0.030358867719769478, 0.005102936178445816, 0.012649845331907272, -0.007628171239048243, -4.962152005005253e-40, 0.07323545217514038, 0.016180574893951416, -0.024644406512379646, 4.959139213306955e-40, -0.0026703232433646917, -6.261688174850802e-40, 0.021181458607316017, -0.004876547958701849, 0.020492933690547943, 0.1835036426782608, 0.06143415719270706, -0.006830752827227116, 0.07336712628602982, 0.0025964374653995037, -0.020533645525574684, -0.0066515072248876095, 0.01188398152589798, -0.04519474878907204, -0.00454278290271759, 0.005769664887338877, -0.0034686881117522717, 0.0008689798414707184, -0.014576795510947704, 4.947662578884134e-40, -4.947788695745924e-40, -4.9511097731063734e-40, -0.047876566648483276, 3.147079541410136e-10, -0.047654613852500916, 0.005586583632975817, 4.975352236539193e-40, 4.950787474459579e-40, -4.383934219670904e-40, 0.022187069058418274, 0.10449352115392685, 0.03443313017487526, 4.908958715299483e-40, -0.027895096689462662, 0.014127438887953758, -0.008457313291728497, 0.058549664914608, -4.956448720255451e-40, 0.040824346244335175, 0.08343047648668289, 0.06977639347314835, -4.933803737071962e-40, 0.010784733109176159, -4.950689383567076e-40, 0.028376007452607155, 0.021886533126235008, -0.01458813063800335, 0.1257685124874115, -0.07992340624332428, -0.0050801001489162445, -0.015506773255765438, -0.0026671697851270437, -0.03743191063404083, 0.0023853990714997053, 0.04473423585295677, -0.012663517147302628, 0.04746442660689354, 0.04828793182969093, -0.03632828965783119, 0.033607933670282364, 0.06827292591333389, -4.930875023281523e-40, -4.945266358510139e-40, -4.9252558164395805e-40, -0.02237212471663952, 1.264860105543164e-09, -0.019312463700771332, 0.014550183899700642, 4.9238965569291855e-40, -4.984208442833726e-40, 5.043581458767168e-40, 0.041242267936468124, -0.00943373516201973, -0.0009361304109916091, -4.9798504046096754e-40, -0.04232164844870567, 0.047968942672014236, 0.07532151788473129, -0.04180244728922844, 4.957233447395473e-40, -0.037077173590660095, -0.029632585123181343, -0.027698861435055733, -4.949119929287032e-40, 0.008234390988945961, -4.9158811297132475e-40, 0.05263207480311394, -0.03609815612435341, -0.04206010699272156, 0.12768197059631348, 0.19390909373760223, -0.05393589287996292, -0.06424415111541748, 0.0010830560931935906, -0.030182551592588425, -0.0036903973668813705, 0.018458019942045212, 0.04020381718873978, 0.013053887523710728, 0.008147315122187138, 0.06313139200210571, 0.013196292333304882, 0.07407855987548828, -4.912952415922809e-40, 4.960022031339479e-40, -4.908496286806256e-40, 0.05568438768386841, 4.803485942339591e-10, -0.006433962378650904, 0.006269495468586683, 5.068804831125015e-40, 4.925634167024948e-40, 4.93685856772419e-40, -0.004093943163752556, 0.05996331572532654, -0.007262168452143669, 4.90610006643226e-40, -0.01953415758907795, 0.019674884155392647, -0.00678878603503108, -0.013997106812894344, -4.95325375975679e-40, 0.08096790313720703, 0.10362668335437775, -0.018636027351021767, -4.911200792842403e-40, 0.00016233534552156925, 4.912560052352798e-40, -0.050739388912916183, 0.09354741126298904, 0.05855681002140045, 0.13193438947200775, -0.15088322758674622, -0.032557301223278046, -0.07051916420459747, 0.0006005062023177743, 0.0924302414059639, -0.002288209041580558, 0.00491939065977931, 0.03742275387048721, 0.007839675061404705, 0.006222569849342108, 0.04805350303649902, 0.004869318101555109, -0.008893596939742565, -4.947704617838064e-40, -5.038200472664161e-40, 4.921388232678044e-40, 0.00930420495569706, 1.338604505018992e-10, -0.01068850513547659, 0.0028132153674960136, -4.923490180374531e-40, -4.932318360699778e-40, -4.919580557659065e-40, 0.009859542362391949, 0.017206137999892235, 0.0031997407786548138, 4.938175788280655e-40, -0.027501210570335388, 0.006918403320014477, 0.0076743741519749165, 0.06804288923740387, 4.9046427160293625e-40, -0.002151120686903596, 0.0836348608136177, -0.004598210100084543, -4.990906649493198e-40, 0.005590988323092461, -4.943654865276165e-40, -0.0310833677649498, 0.00014135229866951704, 0.02642645873129368, 0.08634596318006516, -0.1246274933218956, 0.0029956321232020855, 0.05632747337222099, 0.0030350717715919018, 0.011607502587139606, 0.0004564651462715119, -0.01778748445212841, 0.03437988832592964, -0.024154651910066605, -0.021341927349567413, 0.042700424790382385, -0.016758674755692482, 0.00426916778087616, -5.012416580920584e-40, -4.971078276223002e-40, 4.951418058768525e-40, 0.024201640859246254, -6.732189805624955e-10, 0.021909920498728752, -0.010524441488087177, -4.964660329256394e-40, -4.974119093890587e-40, -4.916147376421469e-40, -0.028239918872714043, 0.015249399468302727, -0.01895442232489586, -4.922747492188439e-40, 0.06933777779340744, -0.021593624725937843, -0.0249674953520298, 0.03118826448917389, 4.966902406799314e-40, 0.07932711392641068, -0.013041708618402481, 0.006296836771070957, 4.916848025653632e-40, -0.013297363184392452, -5.169852463387477e-40, -0.06991156935691833, -0.016587844118475914, -0.012510157190263271, -0.14082777500152588, 0.07773515582084656, 0.06607890129089355, -0.044917285442352295, -0.004764119163155556, -0.07784049957990646, -0.004756486974656582, 0.00569421611726284, -0.018917901441454887, 0.05308867245912552, 0.052845314145088196, -0.045101992785930634, 0.0431596115231514, 0.06476965546607971, 4.9691865232961636e-40, -4.990388169061398e-40, -6.1896754467691495e-40, -0.027861125767230988, 1.5295454902641836e-09, -0.024403255432844162, 0.017131570726633072, -5.809264952658891e-40, 4.958957044506592e-40, -4.9178009086093725e-40, 0.07800017297267914, -0.013578156940639019, 0.007500431500375271, 4.9454064883565714e-40, -0.054450880736112595, 0.058157552033662796, 0.0641203373670578, -0.05069160833954811, -4.953421915572509e-40, -0.035136763006448746, -0.017648985609412193, -0.03424670174717903, -4.940515956716078e-40, 0.029198676347732544, 4.920533440614806e-40, -0.04722278565168381, 0.1006091982126236, -0.015878543257713318, 0.08145464211702347, 0.0686904639005661, 0.02826695702970028, -0.03843901306390762, 0.0009193696896545589, 0.12980161607265472, -0.003680267371237278, 0.015560013242065907, -0.003434963058680296, 0.00804379303008318, 0.011300572194159031, -0.0123691251501441, 0.005907778162509203, 0.048747140914201736, 4.9187818175344e-40, -4.9832415468933415e-40, 4.980396911010762e-40, 0.010788011364638805, 5.294777394304617e-10, 0.0168928150087595, 0.00657863961532712, 5.090496931352763e-40, 4.9426459303818515e-40, -4.932038101006913e-40, 0.009162531234323978, 0.02888931892812252, 0.017636900767683983, -4.9330470359012265e-40, -0.03946387395262718, 0.010226480662822723, 0.02767338789999485, 0.04138047993183136, 4.970966172345856e-40, 0.04757532477378845, 0.0086929090321064, -0.027373865246772766, -4.913358792477463e-40, 0.011886593885719776, -4.976613405157085e-40, 0.051820315420627594, 0.015316853299736977, 0.01057849545031786, -0.1950843185186386, 0.10517722368240356, 0.04681301862001419, -0.041464656591415405, -0.004001879133284092, 0.04240782558917999, -0.0004055456374771893, 0.05198511853814125, -0.022521773353219032, 0.08604665845632553, 0.01919935829937458, -0.0653952807188034, 0.031269002705812454, -0.019393417984247208, 4.9467096959283935e-40, -5.102604150084529e-40, 5.017713489115732e-40, -0.03961347043514252, 3.7438714350912505e-09, -0.034858301281929016, 0.03595755994319916, 5.073176882333708e-40, 4.963511264515648e-40, -4.934882736889492e-40, 0.12166837602853775, -0.009978796355426311, 0.027583859860897064, 4.951193851014233e-40, -0.07787014544010162, -0.0014390257420018315, 0.07032669335603714, -0.07402022927999496, -4.952679227386417e-40, -0.06240072101354599, -0.05041796341538429, -0.04907451570034027, 4.9175206489165076e-40, 0.051314957439899445, -4.960736693556285e-40, -0.019656192511320114, -0.015284008346498013, 0.0035247092600911856, -0.05974433198571205, 0.07249919325113297, 0.030749214813113213, -0.019618859514594078, -0.0026390491984784603, 0.07328005880117416, -0.0016978454077616334, 0.016928939148783684, -0.013064032420516014, 0.029412996023893356, 0.021813802421092987, -0.03465546667575836, 0.019412416964769363, -0.005453878082334995, 4.9108504682263214e-40, 4.942828099182214e-40, -4.951362006829952e-40, -0.021157175302505493, 7.289314707392691e-10, -0.018150540068745613, 0.012859691865742207, -4.959461511953749e-40, 5.0438897444293196e-40, 4.920925804184817e-40, 0.0503578819334507, -0.020382890477776527, 0.02410781942307949, -4.913330766508176e-40, -0.04181862249970436, 0.017703136429190636, 0.042592838406562805, -0.03998750075697899, -5.041591614947827e-40, -0.03799890726804733, -0.011940514668822289, -0.026093430817127228, 4.948867695563454e-40, 0.019941378384828568, -5.001290271113845e-40, -0.05786546692252159, -0.010034603998064995, -0.015643451362848282, -0.07344664633274078, 0.06221229210495949, -0.025332611054182053, -0.0421120747923851, -0.003962153568863869, 0.02989874966442585, -0.0029601044952869415, 0.01921864226460457, -0.010183370672166348, 0.041487034410238266, 0.018750134855508804, -0.027980824932456017, 0.02768481895327568, 0.032187964767217636, 5.0191568265339865e-40, -5.021160683337971e-40, 4.905413430184741e-40, -0.017282867804169655, 6.000159258334747e-10, -0.014978855848312378, 0.009196574799716473, -4.954472889420753e-40, -4.973992977028798e-40, -4.981013482335065e-40, 0.05704325810074806, -0.018418224528431892, 0.011329665780067444, -4.9638756021163725e-40, -0.03645192086696625, 0.009234823286533356, -0.0009998251916840672, -0.03194284066557884, -4.9163855971604045e-40, -0.024487018585205078, -0.004474342800676823, -0.021496741101145744, -4.909883572285937e-40, 0.017289496958255768, 5.0545536257428314e-40, 0.07327307760715485, -0.11942344158887863, 0.12177762389183044, -0.015683405101299286, -0.0682479590177536, 0.08411219716072083, -0.07103456556797028, -0.012476899661123753, -0.03149800002574921, 0.008068511262536049, 0.027068963274359703, 0.009756368584930897, 0.030763134360313416, 0.027424277737736702, -0.04235203191637993, 0.022642627358436584, 0.01779755763709545, 4.9213041547701846e-40, 5.068762792171085e-40, 4.923378076497385e-40, -0.0022266751620918512, 1.0114169501918013e-09, -0.02581285499036312, 0.014839389361441135, -4.99613349276513e-40, -4.924555167207418e-40, -4.944888007924771e-40, 0.03986005857586861, -0.03172200918197632, 0.03423994407057762, 4.959279343153387e-40, 0.0016205175779759884, 0.030450448393821716, 0.03632182627916336, 0.0033746794797480106, 4.9795140929782375e-40, -0.0239803958684206, 0.05505847930908203, -0.04037274047732353, 4.914115493648198e-40, 0.019893677905201912, -4.996189544703703e-40, 0.05941236391663551, -0.008752971887588501, 0.03211284801363945, -0.10972725600004196, -0.2039676308631897, -0.03377218544483185, -0.018877079710364342, -0.001392252161167562, 0.015348013490438461, -9.571358532411978e-05, 0.006826662924140692, 0.05497736111283302, 0.013016767799854279, 0.014311429113149643, -0.060211431235075, 0.010071893222630024, 0.02715582400560379, -4.98625433859164e-40, 6.1184754717968055e-40, -4.922453219510931e-40, 0.04114219546318054, 5.337126296467432e-10, -0.028064295649528503, 0.0050758556462824345, -4.9231118297891636e-40, -5.033113759238662e-40, -4.9433746055833004e-40, 0.0012007718905806541, -0.01483670249581337, 0.01057641115039587, 4.913092545769241e-40, -0.04561232402920723, 0.007094184402376413, 0.026160994544625282, 0.09052379429340363, 4.918879908426903e-40, 0.022340858355164528, 0.09140170365571976, 0.06319832801818848, 5.0504898601962894e-40, 0.017993900924921036, -4.919090103196551e-40, -0.07334187626838684, -0.014761220663785934, -0.018799610435962677, 0.12895271182060242, -0.0009409729391336441, 0.09024107456207275, -0.020118551328778267, -0.00015851121861487627, 0.013270026072859764, 3.771434785448946e-05, 0.035880137234926224, -0.012927815318107605, 0.02907903864979744, 0.0326685905456543, -0.03760639578104019, 0.047494541853666306, 0.032320935279130936, -5.043469354890022e-40, -5.022379813001934e-40, 5.0187644629639756e-40, -0.02309270389378071, 9.890736007989176e-10, -0.020021475851535797, 0.02244667336344719, 4.979766326701816e-40, -5.050279665426641e-40, 4.958158304381927e-40, 0.08447948843240738, -0.025697115808725357, 0.03319261595606804, 5.234760608255003e-40, -0.043699394911527634, 0.044212810695171356, -0.012311849743127823, -0.04289800301194191, -4.967911341693628e-40, -0.04425467923283577, 0.01056890469044447, -0.028666874393820763, 4.944551696293333e-40, -0.002336022211238742, -4.9712184060694345e-40, -0.025001447647809982, -0.008741423487663269, -0.009891166351735592, -0.003925336990505457, 0.057031288743019104, 0.004979911260306835, 2.9083459594403394e-05, 0.001311307423748076, 0.0386839434504509, -0.0006869208300486207, -0.008503137156367302, 0.011287500150501728, -0.01134759932756424, -0.009824609383940697, 0.02030353806912899, -0.007821665145456791, -0.0035492917522788048, -4.97805674257534e-40, -5.047449042528705e-40, 4.919062077227265e-40, 0.014270217157900333, -2.859081305039979e-10, 0.013208634220063686, -0.004922522231936455, -4.976403210387436e-40, -5.1825622404589035e-40, 4.966061627720719e-40, -0.012884545139968395, 0.015060203149914742, -0.00858741533011198, 4.9787293658382156e-40, 0.036507152020931244, -0.010115275159478188, -0.012197264470160007, 0.025382930412888527, 4.94509820269442e-40, 0.016710160300135612, 0.018927279859781265, 0.018458247184753418, 5.0095579320533615e-40, -0.006531206890940666, 4.974245210752376e-40, 0.05815242975950241, -0.016499938443303108, 0.02080339752137661, 0.11272558569908142, -0.06412285566329956, 0.08326968550682068, -0.021835139021277428, -0.0016373323742300272, -0.05461781099438667, 0.0007190520991571248, 0.04127931967377663, -0.0077360342256724834, 0.08088482171297073, 0.020553648471832275, -0.027439402416348457, 0.04046326130628586, -0.01981240324676037, -4.9855536893594774e-40, -4.914115493648198e-40, 4.971582743670159e-40, -0.016724033281207085, 8.761801839618499e-10, -0.014331715181469917, 0.020187655463814735, 4.931785867283334e-40, 4.985637767267337e-40, -4.908454247852326e-40, 0.007234574761241674, 0.016749925911426544, 0.04138384759426117, 4.917114272361853e-40, -0.03439038619399071, 0.04979666322469711, 0.08079929649829865, -0.03152409568428993, -4.932276321745848e-40, -0.012714001350104809, 0.0023615541867911816, -0.02078201062977314, 4.9124339354910085e-40, 0.03988323733210564, -5.9671492506343685e-40, 0.023139869794249535, -0.006228721234947443, -0.005825755652040243, -0.20193149149417877, 0.07608568668365479, -0.0605388768017292, -0.05971481651067734, -0.005170706193894148, -0.08604796975851059, -0.001468868344090879, 0.03043573722243309, -0.018191605806350708, 0.10111818462610245, 0.10023016482591629, -0.05763693526387215, 0.005437111482024193, 0.05667852237820625, 4.995376791594394e-40, 4.995334752640465e-40, -4.905049092584017e-40, -0.03604269400238991, 4.462506808522448e-09, -0.030742866918444633, 0.04160253703594208, -4.922929660988801e-40, 4.922130920864136e-40, -4.9145218702028524e-40, 0.05470442399382591, -0.05562231317162514, 0.0715579092502594, -4.922243024741282e-40, -0.06767658144235611, 0.07482097297906876, 0.025815028697252274, -0.06679703295230865, 5.005760413215041e-40, -0.06495581567287445, 0.030270744115114212, -0.044062066823244095, 4.94734028023734e-40, 0.07355465739965439, -4.955888200869721e-40, 0.0057902769185602665, 0.010133151896297932, -0.001201698905788362, -0.1973884403705597, -0.006681201513856649, -0.04494594782590866, 0.02245972864329815, -0.002264768583700061, 0.11096137017011642, 0.004708367399871349, -0.006394737865775824, -0.01672041043639183, -0.009178653359413147, -0.00861683115363121, 0.02935122139751911, -0.007402652408927679, -0.06148533523082733, 4.94289816410543e-40, 4.990682441738906e-40, 4.92482141391564e-40, 0.027877626940608025, -8.474681373327186e-11, -0.015519371256232262, -0.003916267771273851, -4.9178569605479455e-40, -4.9588449406294464e-40, 4.406803410608685e-40, -0.007954100146889687, -0.016549263149499893, 0.004896173253655434, -4.930440620757582e-40, 0.11639204621315002, -0.006447306368499994, -0.017384974285960197, 0.0077316490933299065, 4.9082020141287475e-40, 0.025812510401010513, 0.11717429757118225, 0.05680524557828903, 5.021048579460825e-40, -0.007942872121930122, 5.023711046543042e-40, 0.026194270700216293, 0.003732732031494379, 0.009508932940661907, -0.1298729032278061, -0.0529945008456707, 0.03680604323744774, 0.08766821771860123, -0.00014165249012876302, -0.09661375731229782, 0.00539231114089489, -0.009512937627732754, -0.01559540070593357, -0.01302359253168106, -0.011451320722699165, 0.10778841376304626, -0.00891273096203804, 0.042172402143478394, 4.918655700672611e-40, 4.915236532419658e-40, -4.980312833102903e-40, -0.00782901979982853, -1.4651409252497416e-10, 0.05083274096250534, -0.005475427955389023, 4.917716830701513e-40, -4.981475910828292e-40, -4.9231678817277366e-40, -0.014752686955034733, 0.023072144016623497, -0.007929298095405102, 4.908328130990537e-40, -0.05519335716962814, -0.011722488328814507, -0.012674487195909023, 0.03849212825298309, 4.934924775843422e-40, 0.09917345643043518, 0.10785700380802155, 0.053224604576826096, 4.950801487444222e-40, -0.006272217724472284, 5.002453348839235e-40, -0.01466669887304306, -0.011683314107358456, -0.01860121637582779, 0.1307586431503296, 0.1565210372209549, 0.10339801758527756, -0.0064313979819417, 0.0014055186184123158, 