{"encoder_net_0_weight": [0.26270002126693726, 0.4124221205711365, -0.1300784796476364, -0.024968981742858887, -0.2854224145412445, -0.2658674418926239, 0.20952986180782318, -0.14540420472621918, -0.10460776835680008, 0.0029739041347056627, -0.25344395637512207, -0.0819077417254448, 0.3384813070297241, -0.229842409491539, -0.3692016303539276, -0.30464231967926025, 0.11564138531684875, 0.19339914619922638, -0.332973837852478, -0.12838634848594666, -0.19073757529258728, -0.19793672859668732, 0.39469635486602783, -0.11855968832969666, 0.26706409454345703, -0.2116953432559967, 0.15318845212459564, -0.008998108096420765, -0.3770100772380829, 0.31692883372306824, 0.4183327853679657, -0.3109564483165741, -0.0419197604060173, -0.1143830269575119, -0.1226719468832016, -0.37909117341041565, -0.2790375351905823, -0.22594191133975983, 0.008317687548696995, 0.1682019680738449, -0.2905145585536957, -0.4078916013240814, -0.06472925841808319, 0.3740297257900238, -0.3295624554157257, 0.04185060039162636, 0.181532084941864, 0.219239741563797, -0.23906007409095764, 0.3097454905509949, -0.15633074939250946, -0.03893645852804184, 0.2338956743478775, 0.08702047169208527, -0.18640141189098358, 0.24848487973213196, -0.27513983845710754, 0.021855056285858154, -0.03528805822134018, -0.3735240399837494, 0.0005225643399171531, -0.2115478366613388, -0.03266181796789169, -0.35713788866996765, -0.18532609939575195, -0.3644152879714966, -0.4441557824611664, 0.2374609410762787, -0.2193380445241928, 0.13740339875221252, -0.1494697481393814, 0.2002694010734558, -0.009650520980358124, -0.40336015820503235, 0.4065305292606354, -0.3221181631088257, 0.3446183502674103, -0.23175986111164093, 0.19172519445419312, 0.30834004282951355, -0.43471506237983704, -0.048218995332717896, 0.377238005399704, 0.09990257024765015, -0.12167899310588837, 0.19325175881385803, -0.3908591568470001, -0.012559340335428715, -0.20264531672000885, 0.2813285291194916, 0.1376609206199646, 0.3506644368171692, 0.37534579634666443, -0.4681267738342285, 0.2917844355106354, -0.07540269196033478, -0.18175534904003143, 0.05068489536643028, -0.008226653560996056, -0.1852657049894333, 0.21181418001651764, -0.43350180983543396, -0.2608533203601837, 0.08331063389778137, 0.11913925409317017, -0.43881529569625854, -0.2895016074180603, 0.0159862469881773, -0.29687759280204773, -0.3572339415550232, -0.230243980884552, -0.2946279048919678, 0.15410418808460236, -0.16003571450710297, -0.4071388840675354, -0.32841598987579346, -0.0643632784485817, 0.006804958917200565, -0.18042582273483276, -0.01288631372153759, -0.38824155926704407, -0.427467942237854, -0.11388208717107773, 0.15452194213867188, 0.27272817492485046, -0.37682852149009705, 0.1652306169271469, -0.13092514872550964, -0.19000709056854248, 0.28457364439964294, -0.21622975170612335, -0.3494582772254944, -0.14924389123916626, 0.10289032012224197, -0.20253986120224, -0.3681979775428772, 0.1979263871908188, 0.3663247227668762, 0.26973211765289307, 0.11376580595970154, -0.1438409388065338, 0.1062411442399025, -0.35527580976486206, -0.12136469036340714, -0.027905266731977463, 0.2699810266494751, -0.4265686571598053, 0.07106750458478928, 0.21489082276821136, -0.0510178804397583, -0.15668155252933502, -0.393692284822464, -0.22623342275619507, 0.06473299115896225, -0.09465686976909637, -0.35361552238464355, -0.15267080068588257, 0.22034145891666412, -0.24513445794582367, -0.01992128975689411], "encoder_net_0_bias": [0.31594669818878174, -0.28749874234199524, 0.16924354434013367, 0.3914017677307129, -0.23550884425640106, -0.24903135001659393, 0.39138802886009216, -0.17667730152606964, 0.0021600963082164526, 0.3643401861190796, 0.33254474401474, 0.307690292596817, 0.04754461348056793, -0.13013648986816406, 0.34537920355796814, -0.12621326744556427, 0.02021120861172676, 0.21508942544460297, 0.3573412001132965, 0.2906480133533478, 0.10871490091085434, 0.4456757605075836, 0.33891308307647705, -0.39077258110046387, -0.10210637003183365, 0.33313316106796265, -0.38894015550613403, -0.36649468541145325, -0.3537050187587738, -0.0026926787104457617, -0.22386658191680908, 0.29113462567329407], "encoder_net_2_weight": [-0.1289018988609314, 0.0010574011830613017, 0.0008206184720620513, -0.12286069244146347, 0.03844645991921425, 0.15586410462856293, 0.16532939672470093, -0.15365749597549438, -0.1225942000746727, 0.06568991392850876, 0.12350285798311234, 0.0024806163273751736, -0.08458355814218521, 0.012129398994147778, -0.15568916499614716, 0.027164971455931664, 0.02370319329202175, 0.033810775727033615, 0.0006869783974252641, -0.09163744002580643, -0.08093997091054916, 0.14215746521949768, -0.17020709812641144, -0.10139159858226776, -0.05058879777789116, -0.14543670415878296, 0.12048277258872986, 0.01446270290762186, -0.0329577811062336, -0.14150510728359222, -0.08952323347330093, -0.16105636954307556, 0.020630670711398125, 0.040501710027456284, -0.1586630791425705, -0.12706872820854187, 0.09908561408519745, 0.11685312539339066, -0.14584288001060486, -0.05411200225353241, -0.17247767746448517, -0.11930973827838898, -0.07308946549892426, -0.14428043365478516, -0.0054982672445476055, 0.09150432795286179, -0.09519013017416, -0.11708731204271317, 0.048644058406353, -0.034641146659851074, 0.04034947603940964, -0.08871100097894669, -0.09537159651517868, -0.11765347421169281, -0.10253474861383438, 0.13017311692237854, 0.07199069112539291, 0.03498361259698868, -0.022338420152664185, 0.008651546202600002, 0.10410528630018234, 0.010531865060329437, -0.0465020090341568, -0.1653483808040619, 0.14042113721370697, -0.04054364562034607, -0.06163972243666649, -0.04880819842219353, 0.17186294496059418, -0.11469042301177979, 0.09968449920415878, 0.031234312802553177, 0.01711990125477314, 0.0035008436534553766, -0.153033047914505, 0.1629389375448227, 0.08762272447347641, 0.06520920246839523, 0.04544477537274361, -0.154559925198555, -0.12148548662662506, -0.15024223923683167, -0.14282222092151642, 0.018380282446742058, 0.17503073811531067, -0.06554338335990906, -0.11121033877134323, 0.02580588310956955, 0.04329726845026016, 0.04569091275334358, 0.06555099040269852, -0.009633252397179604, -0.09965803474187851, 0.048529546707868576, -0.15914419293403625, -0.10945296287536621, 0.04405253753066063, -0.142442986369133, -0.11197606474161148, 0.07647886872291565, -0.03128518536686897, -0.06950542330741882, 0.07251955568790436, -0.1708819568157196, 0.11272654682397842, 0.07863040268421173, -0.054815325886011124, 0.01541670598089695, -0.021151648834347725, 0.10256212204694748, -0.06646810472011566, -0.03886169195175171, 0.03390678018331528, 0.0885525718331337, -0.16052128374576569, -0.025428857654333115, -0.034478988498449326, 0.13664893805980682, 0.037911638617515564, -0.06850902736186981, 0.04332755133509636, 0.053650934249162674, 0.06624078750610352, -0.09899051487445831, 0.1398957520723343, -0.15719862282276154, -0.12204494327306747, -0.17500150203704834, -0.0776272639632225, -0.10272208601236343, -0.06861818581819534, 0.10103804618120193, -0.12892775237560272, 0.1383093297481537, 0.05381355807185173, -0.10510395467281342, 0.04602985829114914, -0.0825243890285492, 0.03854990750551224, -0.06200014054775238, -0.15938833355903625, 0.10143052041530609, 0.03711434453725815, -0.14517009258270264, -0.11296440660953522, -0.12674960494041443, 0.17536470293998718, -0.04940855875611305, 0.0541955791413784, -0.1505584418773651, 0.13515935838222504, -0.10849238932132721, -0.05246749520301819, -0.11001728475093842, 0.028595183044672012, 0.0317806601524353, -0.03581348434090614, 0.08082360029220581, 0.07965676486492157, -0.174235537648201, 0.03521396592259407, -0.16542436182498932, -0.13668017089366913, 0.09772119671106339, 0.05861567333340645, 0.02673831768333912, 0.06780507415533066, -0.0006030160002410412, 0.1745915412902832, -0.10200808197259903, -0.04651229828596115, -0.10387971252202988, -0.04043916240334511, 0.02955290675163269, 0.015806691721081734, -0.033782973885536194, -0.02754911594092846, -0.10334213823080063, 0.08238222450017929, 0.05985013023018837, -0.02516549825668335, -0.14079737663269043, 0.14723974466323853, 0.05897298455238342, 0.06773405522108078, 0.1118624359369278, -0.1332499384880066, 0.1676337569952011, -0.026940980926156044, 0.1720169484615326, 0.17087680101394653, 0.03867063298821449, 0.08234091848134995, 0.12853524088859558, 0.021000128239393234, 0.12545831501483917, 0.1150701567530632, -0.11354426294565201, -0.07346221059560776, 0.020116817206144333, -0.02119244635105133, 0.09465848654508591, 0.11577530950307846, -0.14053671061992645, -0.07010181993246078, -0.05126793310046196, -0.14677046239376068, -0.13565297424793243, -0.13673174381256104, 0.13617855310440063, -0.06963405758142471, -0.013756487518548965, 0.04197278618812561, 0.10561645776033401, 0.04683069884777069, -0.048000581562519073, -0.12241189181804657, -0.08998385071754456, -0.04185774177312851, 0.13169541954994202, -0.1615450382232666, 0.0027245746459811926, -0.11399395018815994, -0.14281770586967468, -0.04472660645842552, -0.06325649470090866, 0.13527812063694, 0.12496515363454819, -0.20711837708950043, -0.14235521852970123, -0.052322275936603546, -0.17074477672576904, 0.09490932524204254, 0.13102829456329346, 0.039836954325437546, -0.0972350612282753, 0.10354942828416824, -0.11188569664955139, -0.19743549823760986, -0.06375781446695328, -0.1136796697974205, 0.12697896361351013, 0.12074002623558044, -0.06913459300994873, -0.07601479440927505, -0.005991701036691666, 0.10892762988805771, -0.05740636587142944, -0.027418125420808792, -0.12850438058376312, 0.16277579963207245, -0.0459858775138855, -0.08672478795051575, 0.015167116187512875, 0.10344652831554413, 0.01047083642333746, 0.0268545001745224, -0.10121209174394608, -0.1256445348262787, -0.06486396491527557, 0.03752074018120766, -0.05355711653828621, 0.029881073161959648, -0.022612037137150764, 0.06963841617107391, 0.10879430174827576, -0.15663748979568481, -0.1638869047164917, -0.1585405468940735, -0.14394539594650269, -0.008324301801621914, 0.11504898965358734, 0.07722973078489304, -0.20107269287109375, 0.06766974180936813, -0.19767983257770538, 0.05494515597820282, -0.05621917545795441, -0.12367388606071472, -0.13379284739494324, 0.17226757109165192, -0.14998266100883484, -0.10639752447605133, -0.16423051059246063, 0.16898788511753082, -0.019957592710852623, -0.12253068387508392, -0.1260019838809967, 0.015760434791445732, 0.05650682747364044, -0.1282733678817749, -0.0912298858165741, -0.06509941071271896, -0.01680670864880085, -0.14523310959339142, 0.16873063147068024, -0.059859249740839005, -0.03474067896604538, 0.08696585148572922, 0.11673039197921753, 0.01561070792376995, -0.09030402451753616, -0.12427373230457306, 0.144653782248497, -0.0490797720849514, -0.09519921243190765, 0.024482324719429016, -0.10983995348215103, -0.06677740067243576, -0.0892380028963089, -0.17144420742988586, 0.16357459127902985, 0.0026621634606271982, -0.06431689113378525, -0.14664746820926666, 0.06826955080032349, -0.14791396260261536, -0.08438445627689362, 0.08450727164745331, 0.10830839723348618, 0.04237711802124977, -0.11509844660758972, -0.041817765682935715, -0.00979260727763176, -0.127434641122818, 0.09611664712429047, 0.0962587520480156, 0.14591267704963684, 0.07527283579111099, 0.1385047882795334, -0.14376504719257355, -0.02031930722296238, -0.13187605142593384, -0.14888255298137665, -0.03214290738105774, -0.15878744423389435, 0.0915977880358696, 0.014189348556101322, 0.11464054882526398, 0.0522550493478775, 0.10713726282119751, 0.03047627955675125, 0.11422719806432724, -0.1217164695262909, 0.14918974041938782, -0.13701783120632172, 0.1493789404630661, 0.1249583438038826, 0.1596304476261139, -0.00830556359142065, 0.1384899616241455, -0.1390647292137146, 0.027351990342140198, 0.0865626111626625, 0.021311216056346893, -0.001446875394321978, 0.10552223771810532, 0.1641319990158081, 0.003767054993659258, 0.15793375670909882, 0.164987713098526, 0.0644829198718071, -0.17235291004180908, 0.1287745088338852, -0.07049863040447235, 0.011951876804232597, -0.027711672708392143, -0.05776912346482277, 0.02857542224228382, -0.1196214109659195, 0.12887342274188995, 0.023730944842100143, 0.010109484195709229, -0.0020213418174535036, 0.037430573254823685, -0.053150758147239685, -0.09788928180932999, -0.11464181542396545, -0.15806204080581665, 0.07976202666759491, 0.1592826545238495, -0.1552560031414032, 0.10958882421255112, 0.07563266158103943, -0.06110319495201111, -0.021199190989136696, 0.13952486217021942, -0.05657834932208061, -0.14721600711345673, 0.16628289222717285, -0.06593100726604462, 0.05478108301758766, 0.07635628432035446, 0.0064691826701164246, -0.129652738571167, -0.04401245713233948, -0.08339215070009232, -0.09539732336997986, 0.12617069482803345, 0.004881173837929964, -0.04459555819630623, 0.1600075513124466, 0.003555992851033807, -0.07326601445674896, 0.057795971632003784, 0.09578431397676468, 0.13074204325675964, -0.07817317545413971, 0.07869891077280045, -0.016831744462251663, 0.07178301364183426, -0.04885226488113403, 0.05942254513502121, -0.09927260130643845, 0.0049484190531075, 0.05601246654987335, 0.11585093289613724, -0.01385486964136362, 0.02831406332552433, 0.07677896320819855, 0.165873721241951, 0.04794623330235481, 0.10684482753276825, -0.17617931962013245, -0.01888716220855713, 0.14288948476314545, -0.08563711494207382, 0.08637683093547821, 0.008533619344234467, -0.1093917191028595, 0.036166928708553314, 0.008042272180318832, 0.04053160920739174, 0.06952574849128723, -0.01488207746297121, 0.15045446157455444, -0.016505852341651917, 0.1293240636587143, -0.15621864795684814, -0.09003597497940063, 0.14244186878204346, 0.17167557775974274, 0.001370657584629953, -0.07252225279808044, -0.1666940450668335, 0.1383143663406372, 0.015085115097463131, 0.12415532022714615, -0.06110316514968872, 0.04904380068182945, 0.018627705052495003, -0.09008638560771942, 0.13068383932113647, 0.08692073076963425, -0.032387617975473404, -0.10158998519182205, -0.11895627528429031, 0.08222058415412903, -0.013105282559990883, -0.1516217440366745, 0.12305290251970291, -0.044274356216192245, -0.08505664020776749, 0.09087231010198593, -0.10268891602754593, 0.1151726171374321, -0.12526066601276398, -0.19473230838775635, 0.1115197092294693, -0.06252364814281464, 0.026809008792042732, 0.04556988924741745, 0.11748193949460983, 0.022767946124076843, 0.037247128784656525, -0.0689786747097969, -0.030231786891818047, 0.02316264621913433, -0.0028463031630963087, 0.12459951639175415, 0.006632775999605656, -0.13671162724494934, -0.08594073355197906, -0.10343658179044724, -0.005827897693961859, -0.1690453141927719, -0.0378979817032814, 0.13776537775993347, 0.15808042883872986, -0.16783757507801056, 0.052855540066957474, 0.0410970114171505, 0.1159055158495903, 0.147334024310112, 0.0036905044689774513, -0.16028542816638947, -0.1034117192029953, 0.0164414644241333, -0.12997950613498688, -0.1530817598104477, -0.0638352781534195, -0.09245593845844269, -0.13219834864139557, 0.10927048325538635, -0.15666817128658295, -0.04141918197274208, 0.002816631691530347, -0.03327343985438347, 0.1765487641096115, 0.12936358153820038, -0.09047849476337433, -0.12837034463882446, 0.14892882108688354, 0.06817121803760529, -0.15672224760055542, -0.07796374708414078, -0.09394576400518417, 0.15989956259727478, 0.16923995316028595, -0.13566073775291443, 0.08826728165149689, -0.16137579083442688, 0.10725940763950348, -0.05727516487240791, 0.07531106472015381, 0.0484260730445385, -0.14832128584384918, -0.04388578608632088, 0.1035226434469223, -0.021416857838630676, 0.11661139130592346, -0.12957881391048431, -0.0006197272450663149, 0.01670032925903797, 0.06792548298835754, 0.01031626295298338, 0.15512128174304962, -0.15602661669254303, 0.16720344126224518, -0.1724543273448944, -0.11173856258392334, -0.10180853307247162, -0.11707650125026703, 0.1590033620595932, -0.03420356288552284, -0.05306313559412956, 0.07472976297140121, 0.029643740504980087, 0.1138223335146904, 0.12229578197002411, -0.1831810474395752, -0.15180881321430206, 0.0697539821267128, 0.005454276222735643, -0.09120513498783112, 0.1610889583826065, 0.06359335780143738, 0.13874392211437225, -0.09551803767681122, 0.09417742490768433, 0.0663488581776619, -0.16819337010383606, -0.02149737812578678, 0.040805697441101074, -0.0033461141865700483, -0.09840711206197739, -0.07964770495891571, -0.14229178428649902, -0.01707172766327858, 0.08231767266988754, -0.1558132916688919, 0.11821721494197845, 0.09202998131513596, 0.13702832162380219, 0.1618104875087738, -0.06515313684940338, -0.051854223012924194, 0.0994054451584816, 0.008049211464822292, -0.05058376118540764, -0.0610959567129612, -0.07995869964361191, -0.026365671306848526, 0.16480526328086853, 0.06379289925098419, 0.06676089763641357, -0.06942501664161682, 0.13761764764785767, 0.12640134990215302, 0.09907052665948868, 0.025879502296447754, -0.1686508059501648, 0.02310691587626934, 0.04992927238345146, 0.01096857339143753, -0.18227027356624603, -0.1819397211074829, -0.08130234479904175, -0.040296316146850586, 0.08276738971471786, 0.16346345841884613, 0.0723755955696106, -0.1483612209558487, 0.0736539214849472, -0.053337953984737396, 0.09233062714338303, 0.1114136129617691, 0.10215934365987778, 0.14178897440433502, 0.12933194637298584, -0.05532421916723251, 0.11992121487855911, 0.054617129266262054, 0.11312645673751831, -0.07915801554918289, -0.09254524856805801, -0.13147401809692383, -0.051190342754125595, -0.06996553391218185, 0.018233494833111763, 0.13205549120903015, -0.10502026975154877, -0.0037275429349392653, -0.03325938433408737, 0.13049499690532684, 0.05368528142571449, -0.09556268900632858, -0.1021958515048027, 0.07292981445789337, -0.0517365001142025, -0.004050664138048887, -0.17113721370697021, 0.003533570561558008, 0.003967879340052605, -0.09855975210666656, 0.0035401368513703346, 0.04977511242032051, -0.025690821930766106, -0.023022251203656197, -0.13844174146652222, -0.1630183607339859, -0.1434745341539383, -0.08532702177762985, 0.12968195974826813, -0.17032161355018616, 0.14402879774570465, -0.06860532611608505, 0.17311489582061768, 0.02827318012714386, 0.0460079200565815, -0.10851988941431046, 0.08336594700813293, -0.013209454715251923, 0.01761152409017086, -0.05093571916222572, -0.041383907198905945, -0.008511426858603954, 0.06900174170732498, 0.12729226052761078, -0.18650460243225098, 0.08373316377401352, -0.17630615830421448, -0.09411434829235077, 0.0037559163756668568, 0.15279962122440338, 0.1465659737586975, -0.0940350741147995, -0.0740690529346466, 0.09446560591459274, -0.18903693556785583, 0.003778191050514579, 0.14881621301174164, 0.09178198128938675, -0.1654677391052246, -0.10618377476930618, -0.0757519006729126, 0.01540616899728775, 0.08823610842227936, 0.05155903473496437, -0.16838711500167847, -0.0874696895480156, 0.0012092252727597952, 0.04144106060266495, -0.037731777876615524, 0.1621597856283188, 0.08186251670122147, 0.1748426854610443, 0.10038858652114868, 0.09451974183320999, -0.1464499682188034, 0.1293037086725235, 0.0785893052816391, 0.05380556359887123, 0.13686563074588776, -0.15112698078155518, -0.034065019339323044, -0.08743814378976822, 0.15711860358715057, 0.07252656668424606, -0.07554078847169876, -0.12804582715034485, -0.041026946157217026, 0.0871056467294693, 0.05248704552650452, -0.08177820593118668, 0.10536018759012222, 0.01519140973687172, -0.15964417159557343, 0.00028592420858331025, 0.02710065431892872, 0.03462578356266022, 0.04445721209049225, -0.045964740216732025, -0.045894209295511246, 0.002319193445146084, 0.07849464565515518, -0.12261076271533966, -0.02836371213197708, -0.073089100420475, -0.12137613445520401, -0.05040781944990158, -0.05016222968697548, 0.009317045100033283, -0.06765812635421753, 0.05300383269786835, 0.10018299520015717, -0.15808998048305511, -0.09820082783699036, 0.17168058454990387, 0.16437110304832458, -0.11232785880565643, 0.08629615604877472, -0.15797418355941772, 0.09618917852640152, 0.04941030964255333, -0.15413789451122284, -0.15855763852596283, -0.1270175576210022, -0.049248114228248596, 0.13932721316814423, 0.15000669658184052, -0.00862830225378275, 0.027274278923869133, 9.457752457819879e-05, -0.11200112104415894, -0.031942836940288544, -0.15052497386932373, 0.10914788395166397, 0.11811135709285736, -0.0025878376327455044, 0.022385695949196815, 0.1160520389676094, 0.12192241847515106, 0.09756428003311157, -0.023619569838047028, -0.13209562003612518, -0.04076999053359032, -0.01417706161737442, 0.0016463545616716146, -0.1606455296278, -0.036699242889881134, -0.05538543313741684, 0.15242961049079895, -0.007448560558259487, 0.07269220799207687, -0.02704181894659996, -0.1644461452960968, -0.09296640008687973, -0.032513100653886795, -0.1542624831199646, -0.13755172491073608, 0.1333983838558197, 0.013011924922466278, 0.056960009038448334, 0.057399071753025055, -0.09162379056215286, 0.032428987324237823, -0.1658305823802948, 0.09476766735315323, 0.10959043353796005, -0.09916141629219055, 0.0703854039311409, -0.15444372594356537, -0.13369135558605194, 0.034983277320861816, 0.10924336314201355, 0.15340378880500793, 0.14510133862495422, 0.023324262350797653, -0.04885481297969818, 0.12779076397418976, -0.16367053985595703, -0.13923105597496033, -0.1712215393781662, -0.1302603930234909, -0.09808866679668427, -0.05683032423257828, -0.10800556093454361, -0.009336095303297043, 0.13452480733394623, -0.11204592138528824, -0.14132030308246613, 0.17434382438659668, 0.1670561581850052, -0.0391775406897068, 0.00269069685600698, 0.12246046960353851, 0.00460074981674552, -0.051331762224435806, 0.12188666313886642, -0.04716525226831436, 0.05969422310590744, 0.11053524911403656, -0.07088474184274673, -0.025339359417557716, 0.07207346707582474, 0.10807619243860245, -0.015595050528645515, 0.019691787660121918, -0.11166855692863464, -0.004995602648705244, -0.13952597975730896, -0.017999548465013504, 0.08431767672300339, -0.14506877958774567, 0.13874883949756622, 0.06393343955278397, -0.1722336858510971, -0.1357576698064804, -0.13588489592075348, 0.04951266199350357, -0.16489754617214203, -0.13475486636161804, 0.11167795956134796, 0.0950140729546547, -0.031418006867170334, 0.12938936054706573, 0.0650196224451065, 0.0026626279577612877, 0.02862464264035225, -0.007590141613036394, -0.09924802929162979, -0.007879474200308323, -0.144662544131279, -0.034490916877985, 0.12307393550872803, -0.024984214454889297, -0.16300514340400696, 0.05895019695162773, 0.1714375764131546, 0.03738344460725784, 0.08056867122650146, -0.09187807887792587, -0.08816637843847275, 0.06635256111621857, -0.061463866382837296, 0.09663110971450806, 0.12692417204380035, -0.03186915069818497, 0.055180296301841736, 0.15184777975082397, 0.17902660369873047, -0.13765546679496765, -0.06352491676807404, -0.00754576874896884, -0.11511414498090744, 0.09323766827583313, -0.04740447923541069, -0.12900502979755402, 0.1604868322610855, 0.09646832942962646, -0.055759016424417496, 0.062156401574611664, -0.024094756692647934, 0.052464284002780914, -0.12796173989772797, -0.07387282699346542, 0.09518111497163773, -0.16516625881195068, -0.0319184809923172, 0.03666258975863457, -0.12218397110700607, 0.08229829370975494, 0.15151531994342804, -0.09770816564559937, -0.027854325249791145, 0.08975832909345627, -0.08489201217889786, 0.06394471228122711, -0.12427695840597153, 0.021190106868743896, -0.030973197892308235, -0.05330674350261688, -0.1667218655347824, -0.020590167492628098, -0.16388924419879913, 0.05999904125928879, 0.06526289880275726, 0.10211344063282013, -0.15045695006847382, -0.15836629271507263, -0.002950511174276471, -0.05386453494429588, -0.12951254844665527, -0.08044768869876862, 0.06652392446994781, -0.18134038150310516, -0.05996834859251976, 0.12770117819309235, -0.06519544124603271, 0.10770399868488312, -0.1317874789237976, -0.03200387582182884, -0.16975747048854828, 0.008614210411906242, -0.029962852597236633, -0.1122526004910469, -0.10110463947057724, -0.10477637499570847, -0.06422895193099976, 0.06209718436002731, -0.03300291672348976, -0.018278054893016815, 0.13052798807621002, -0.07684257626533508, -0.08649331331253052, 0.026170790195465088, 0.008240045048296452, 0.12026755511760712, -0.15900786221027374, -0.001162483124062419, -0.0694502517580986, 0.06947014480829239, -0.010134884156286716, -0.1049647182226181, 0.13448883593082428, 0.13307107985019684, 0.10885173827409744, 0.1514819711446762, 0.06968027353286743, -0.07857013493776321, 0.16105787456035614, 0.01257394440472126, 0.051559459418058395, -0.0779881402850151, -0.002646014327183366, -0.07420586794614792, 0.07682894915342331, -0.10832767933607101, -0.06781931221485138, 0.057738132774829865, -0.07256817072629929, -8.180703298421577e-05, -0.1139572411775589, 0.02460988238453865, -0.08306229114532471, -0.06605003029108047, 0.09599973261356354, -0.14090871810913086, -0.1378832310438156, -0.056817006319761276, 0.08939529955387115, -0.03192318230867386, 0.039850834757089615, 0.03369958698749542, -0.04112512245774269, 0.13969072699546814, 0.16222473978996277, 0.15221551060676575, -0.04062332212924957, -0.09005600959062576, 0.1179448738694191, -0.05010269582271576, -0.14451031386852264, -0.11825988441705704, -0.0485675185918808, 0.049234576523303986, -0.024403952062129974, -0.049049362540245056, -0.13733306527137756, -0.0782773420214653, -0.1551804095506668, -0.018853338435292244, 0.011909307911992073, 0.16398118436336517, 0.06992927193641663, -0.16170978546142578, 0.13900044560432434, 0.014328242279589176, -0.08975771814584732, -0.06543968617916107, 0.06064149737358093, -0.028976956382393837, 0.16568154096603394, 0.06827753037214279, 0.02797773852944374, -0.04952172562479973, -0.02392556518316269, -0.06129148229956627, 0.017751725390553474, -0.09017863869667053, 0.15945027768611908, 0.014218834228813648, -0.08904550224542618, 0.03846237063407898, 0.1643601953983307, -0.027243027463555336, -0.03323207423090935, -0.14650073647499084, 0.14632292091846466, 0.05889340490102768, 0.12141862511634827, -0.03554108366370201, 0.04297705739736557, -0.006666822824627161, 0.07621711492538452, 0.17625805735588074, 0.016137516126036644, -0.07197986543178558, 0.006886445451527834, -0.15281763672828674, 0.10525529831647873, -0.15332399308681488, 0.007003647740930319], "encoder_net_2_bias": [-0.02129657380282879, 0.1310662031173706, -0.054674386978149414, 0.05210774764418602, -0.1643231362104416, -0.010996629483997822, 0.014731049537658691, 0.03855011984705925, 0.0439591147005558, -0.09452884644269943, -0.004420704208314419, 0.027123624458909035, -0.1111009269952774, 0.14421771466732025, 0.11968342959880829, -0.05424562841653824, -0.12198134511709213, 0.056330084800720215, -0.016606654971837997, 0.07789051532745361, 0.15339693427085876, -0.09182190895080566, -0.03170663118362427, -0.02320067398250103, 0.15872745215892792, -0.09822095185518265, 0.1293685883283615, 0.007315116003155708, 0.1123751550912857, -0.005185917019844055, -0.1505054235458374, 0.05576736852526665], "backbone_net_0_weight": [-0.01700844056904316, -0.10568295419216156, 0.18895073235034943, -0.13189922273159027, -0.041860390454530716, -0.08094874024391174, -0.00580693269148469, -0.004469514824450016, 0.05710115283727646, -0.15729308128356934, 0.003778249491006136, -0.033351004123687744, -0.07199838012456894, -0.006676337216049433, 0.13896580040454865, -0.09975530207157135, 0.008358802646398544, 0.10350805521011353, 0.11794021725654602, -0.0974816232919693, 0.12192405015230179, 0.04129333049058914, 0.0597919337451458, -0.033087968826293945, 0.1340111792087555, 0.03609353303909302, -0.13872215151786804, 0.017531078308820724, -0.038844045251607895, -0.020097967237234116, 0.17358790338039398, -0.06975773721933365, 0.15038128197193146, 0.06766096502542496, -0.00019642827101051807, 0.11668768525123596, -0.0954618752002716, -0.12806688249111176, -0.012925155460834503, 0.09507859498262405, -0.054730936884880066, -0.0037637101486325264, 0.0475434884428978, -0.10644946992397308, 0.1472303867340088, 0.08543695509433746, -0.09547832608222961, 0.11359412968158722, -0.16951864957809448, -0.10153691470623016, -0.12322087585926056, 0.12325184047222137, -0.04809921979904175, -0.12686112523078918, -0.04707031324505806, 0.05175398662686348, -0.012610460631549358, 0.04611188918352127, 0.020259562879800797, 0.1089816465973854, 0.059541963040828705, -0.13328200578689575, 0.14396581053733826, -0.004697651136666536, -0.003116709180176258, 0.13020499050617218, 0.14022749662399292, -0.11547722667455673, -0.055941417813301086, -0.09117685258388519, 0.12635940313339233, 0.10734828561544418, -0.09193532913923264, 0.10573004931211472, -0.020747551694512367, -0.031986139714717865, -0.07046359777450562, 0.13513033092021942, -0.012256081216037273, -0.11379064619541168, -0.027867034077644348, 0.12120668590068817, -0.09796910732984543, 0.08795959502458572, -0.16970743238925934, 0.16123715043067932, 0.10819859802722931, 0.0621955469250679, -0.028283746913075447, -0.011444738134741783, 0.01241052895784378, -0.1975000500679016, 0.06428466737270355, 0.04926862195134163, 0.05120387673377991, 0.01286971103399992, -0.12380167841911316, 0.10893003642559052, 0.14415644109249115, -0.12304114550352097, 0.11623465269804001, -0.1507723033428192, 0.12565846741199493, -0.1435554325580597, 0.01152875553816557, 0.13864457607269287, -0.1418171525001526, -0.034704871475696564, -0.009686487726867199, 0.05202951654791832, -0.05928032845258713, 0.0402909591794014, 0.049292631447315216, 0.05684267356991768, -0.12723906338214874, -0.020452231168746948, -0.044808633625507355, 0.03982324153184891, 0.044356685131788254, 0.10745730996131897, -0.0503096878528595, -0.08267274498939514, 0.017725596204400063, -0.03636356070637703, 0.002404883038252592, -0.00852272566407919, 0.14154642820358276, 0.12136056274175644, 0.037054579704999924, -0.13306954503059387, 0.008632526732981205, -0.019498758018016815, -0.12437476962804794, -0.13959930837154388, 0.1055961474776268, -0.026203688234090805, -0.1000804752111435, 0.1390085518360138, -0.11250732094049454, 0.1132935881614685, -0.057220783084630966, 0.024584917351603508, 0.14777611196041107, 0.08279842138290405, 0.10160937160253525, 0.1194041520357132, 0.1154073178768158, 0.1516413390636444, -0.022272760048508644, 0.009598861448466778, 0.059809330850839615, -0.011004464700818062, 0.12549249827861786, 0.09730079770088196, -0.12833237648010254, -0.026500795036554337, -0.09054333716630936, -0.1579335778951645, -0.10465006530284882, -0.026966655626893044, 0.12843281030654907, 0.07801810652017593, -0.05876071751117706, -0.09732312709093094, 0.08790858834981918, -0.09551466256380081, -0.14880290627479553, -0.15052363276481628, 0.00831865705549717, 0.05312274768948555, -0.16542606055736542, 0.03296475484967232, 0.17788808047771454, 0.11974987387657166, 0.06940324604511261, 0.25873371958732605, 0.020283831283450127, -0.5101727843284607, -0.14145727455615997, -0.11572860181331635, -0.14995840191841125, -0.13314831256866455, -0.050281938165426254, -0.16576939821243286, -0.14176318049430847, 0.12480499595403671, 0.05925330892205238, -0.1489545851945877, -0.08520101755857468, -0.15924102067947388, -0.03103571943938732, -0.05506541579961777, -0.0735497772693634, 0.09411033242940903, 0.1328248232603073, 0.0983753651380539, -0.16248953342437744, -0.08801396936178207, -0.05303920805454254, -0.09715818613767624, 0.10670056194067001, -0.13718409836292267, -0.1213328167796135, 0.11684253066778183, -0.006180876865983009, -6.050378942745738e-05, 0.0012660628417506814, -0.04927905648946762, 0.06795882433652878, -0.08300154656171799, 0.08239860087633133, -0.015244567766785622, 0.02002246305346489, -0.1980198472738266, -0.021296188235282898, 0.11584678292274475, -0.15417198836803436, 0.0962991788983345, 0.10157754272222519, -0.13998004794120789, 0.1431262344121933, 0.13209760189056396, -0.15423539280891418, 0.028818000108003616, -0.03716164082288742, 0.13850057125091553, -0.02760079689323902, -0.06287179887294769, 0.10477691888809204, 0.007090781349688768, 0.005504188593477011, -0.006891077850013971, 0.07541534304618835, 0.10648945719003677, -0.052615340799093246, 0.10366127640008926, -0.019097520038485527, 0.15243534743785858, 0.0860782191157341, 0.01023608073592186, 0.06933842599391937, -0.07440949976444244, -0.0765586644411087, 0.0736822560429573, -0.0048623112961649895, -0.08801987767219543, 0.05138568580150604, -0.05204285308718681, 0.06126286834478378, 0.07874660193920135, -0.14325812458992004, 0.1175350621342659, 0.035100337117910385, 0.08156197518110275, 0.017127560451626778, 0.12270767241716385, -0.17806656658649445, -0.012061646208167076, 0.024432403966784477, -0.032947417348623276, -0.09148123860359192, 0.01964719220995903, -0.037956804037094116, 0.15299466252326965, -0.05757007375359535, 0.054916150867938995, -0.06448265165090561, 0.003645565826445818, 0.04189366102218628, -0.07169067859649658, 0.08316777646541595, -0.14319103956222534, 0.10741216689348221, 0.039217300713062286, -0.13814537227153778, 0.16359472274780273, -0.023063311353325844, -0.0188517514616251, -0.05020926147699356, 0.06568385660648346, 0.14812079071998596, 0.07586566358804703, -0.10434088110923767, 0.06539490818977356, -0.03414886072278023, 0.1140696108341217, 0.02603321522474289, -0.15392641723155975, 0.15382786095142365, 0.124210424721241, 0.09140443056821823, 0.13548478484153748, -0.04486986622214317, 0.13853950798511505, 0.03411335125565529, -0.13314130902290344, -0.01248090248554945, 0.07153142243623734, -0.08051413297653198, 0.029218584299087524, 0.24762064218521118, 0.0924450159072876, -0.11238504201173782, 0.6159598231315613, -0.10743437707424164, 0.10240725427865982, -0.043290819972753525, -0.11026890575885773, -0.08115340024232864, 0.12887795269489288, 0.022746719419956207, 0.096002496778965, 0.04192400723695755, 0.1500648409128189, -0.03423157334327698, 0.155447319149971, -0.00768777122721076, -0.047192495316267014, -0.0037491254042834044, -0.12404082715511322, 0.07785315066576004, 0.0647566020488739, 0.10458167642354965, 0.09018532186746597, -0.10763121396303177, 0.05844489112496376, -0.14795760810375214, 0.06312262266874313, -0.010057377628982067, -0.10233888030052185, -0.035116907209157944, 0.16482268273830414, 0.03779243305325508, -0.09902317821979523, 0.006781736854463816, -0.113529734313488, -0.0245492123067379, 0.07695412635803223, -0.07621438801288605, 0.17610658705234528, -0.11315447092056274, 0.17887550592422485, 0.13743731379508972, 0.10465507209300995, -0.04005325585603714, 0.3825046718120575, -0.07331562042236328, 0.04217208921909332, -0.14708255231380463, -0.1483181118965149, 0.08287733793258667, -0.08461634814739227, -0.11500081419944763, -0.010737617500126362, 0.03407866135239601, 0.007220958359539509, -0.08751032501459122, 0.16004569828510284, -0.11010545492172241, 0.15379013121128082, 0.1823696345090866, -0.037726789712905884, -0.1239437386393547, -0.02678811550140381, -0.09297727793455124, 0.09156565368175507, 0.12717416882514954, 0.020813172683119774, 0.0804029032588005, 0.09658356010913849, -0.07615434378385544, 0.04709891974925995, 0.12979793548583984, 0.11509520560503006, -0.07587703317403793, -0.03116040863096714, 0.07305171340703964, -0.029640093445777893, 0.01667216420173645, 0.028529280796647072, 0.010490801185369492, -0.02562585473060608, 0.06281711161136627, 0.09270571917295456, -0.04881049692630768, 0.05183453485369682, -0.09671416878700256, -0.015529153868556023, 0.11275932192802429, -0.07672757655382156, -0.01265394501388073, -0.0020435068290680647, -0.09979467839002609, -0.04115254431962967, 0.02708815410733223, -0.04951579496264458, 0.10134703665971756, -0.07365602999925613, 0.018967563286423683, -0.0974859818816185, 0.03640550374984741, -0.05857276916503906, 0.09574870765209198, -0.0448310561478138, -0.04856833443045616, 0.0009644548408687115, -0.008444608189165592, 0.13490623235702515, 0.11887608468532562, -0.011698797345161438, -0.14238138496875763, -0.037530891597270966, 0.14121156930923462, -0.14489595592021942, -0.08418262004852295, -0.12428229302167892, -0.08362527191638947, -0.0858158990740776, 0.06435996294021606, 0.011105835437774658, -0.0659855455160141, -0.03376912698149681, 0.028490155935287476, -0.027265751734375954, -0.09570286422967911, -0.12387321889400482, 0.03290286287665367, 0.10284531861543655, -0.022284146398305893, 0.07912997901439667, 0.13514326512813568, -0.12113471329212189, -0.044182855635881424, -0.11509247124195099, -0.02446349523961544, 0.037819553166627884, 0.12622326612472534, -0.15053927898406982, 0.07947119325399399, -0.0021397278178483248, -0.09218046814203262, -0.13474610447883606, 0.13061396777629852, -0.1183800995349884, -0.044009119272232056, -0.041599418967962265, 0.1060435101389885, 0.13538120687007904, 0.08104352653026581, 0.059905003756284714, -0.14112085103988647, 0.14659985899925232, -0.1434362828731537, 0.07014551013708115, -0.08456557244062424, 0.0854194238781929, 0.09291773289442062, 0.10050716996192932, -0.12896376848220825, -0.06721228361129761, -0.03781784325838089, 0.15279355645179749, 0.16666077077388763, -0.07740955799818039, -0.06449038535356522, -0.1464627981185913, 0.12789705395698547, 0.010027477517724037, -0.04514363780617714, -0.24810613691806793, 0.06284531950950623, 0.16560111939907074, -0.10017526149749756, 0.05692755803465843, -0.039007868617773056, -0.13051003217697144, 0.07070964574813843, -0.14880473911762238, 0.050975557416677475, 0.09627126157283783, -0.04801439866423607, 0.11326588690280914, 0.055748436599969864, -0.03803498297929764, -0.012118649668991566, 0.10460349172353745, 0.08287180960178375, -0.00793754868209362, -0.0799054279923439, 0.13402558863162994, -0.026589611545205116, -0.0684562474489212, 0.10729550570249557, 0.13557642698287964, 0.14682500064373016, -0.03775600716471672, 0.06368035078048706, -0.0011025415733456612, -0.1298346370458603, -0.05312952771782875, -0.013257811777293682, 0.08560022711753845, -0.11290337145328522, -0.005474718287587166, -0.09298685938119888, -0.07350248843431473, -0.01889788545668125, -0.059022367000579834, 0.10714616626501083, -0.07579336315393448, -0.12508025765419006, -0.14324547350406647, -0.14457035064697266, 0.0734894871711731, 0.020504415035247803, 0.11710713058710098, 0.04382622614502907, -0.08527707308530807, 0.06734724342823029, 0.09737569093704224, -0.04415033385157585, -0.06251424551010132, -0.01885947771370411, -0.0793449878692627, 0.1285744607448578, -0.0383988656103611, -0.12461649626493454, -0.09814859926700592, -0.0028705003205686808, -0.06808852404356003, 0.07362326234579086, -0.023780787363648415, -0.047297704964876175, 0.14631827175617218, -0.03212602809071541, 0.13828228414058685, 0.10076382756233215, -0.07701462507247925, 0.08140385895967484, 0.06168646365404129, -0.04126818850636482, 0.07986987382173538, 0.13793890178203583, -0.0370631217956543, 0.05987827479839325, -0.03351561352610588, 0.17262950539588928, -0.08554675430059433, -0.04911772161722183, -0.12280599772930145, -0.11699789017438889, 0.13807043433189392, 0.04476477950811386, -0.1292308121919632, -0.09180740267038345, -0.14815397560596466, 0.0506584569811821, 0.046202708035707474, -0.06869059056043625, 0.08532081544399261, -0.07030238211154938, -0.05198121815919876, 0.002217294415459037, 0.12373287975788116, -0.07174153625965118, 0.08685433119535446, 0.05716656520962715, -0.08063214272260666, -0.004516448825597763, 0.15613557398319244, 0.03047395870089531, -0.1173514872789383, 0.1526176780462265, -0.12755337357521057, 0.1744476705789566, 0.1464502066373825, 0.0607406310737133, -0.05442757159471512, -0.04800848290324211, -0.1246635690331459, 0.014471801929175854, -0.059979941695928574, -0.01284744217991829, -0.10950983315706253, 0.017410356551408768, 0.08700951188802719, 0.1525062471628189, 0.1595636010169983, 0.08916158229112625, -0.10793548077344894, -0.1698814034461975, 0.11964733153581619, -0.06845276057720184, -0.14067092537879944, -0.13798122107982635, -0.0799984410405159, 0.08259988576173782, -0.6551862359046936, -0.0820099487900734, -0.10417365282773972, -0.020480317994952202, 0.11619403958320618, -0.1526741087436676, 0.10716737061738968, 0.09654189646244049, 0.027043746784329414, -0.11545194685459137, 0.09744267910718918, 0.060904983431100845, -0.06734918057918549, 0.07850611209869385, -0.13654807209968567, 0.12333916872739792, 0.13524362444877625, -0.13435675203800201, -0.1404624581336975, -0.15789009630680084, 0.125464528799057, 0.04121386632323265, -0.14261603355407715, -0.10148520022630692, -0.053071148693561554, -0.10855474323034286, -0.0011237318394705653, -0.14936472475528717, 0.14992579817771912, 0.0433867983520031, 0.10007047653198242, 0.14817467331886292, -0.16012756526470184, -0.12945213913917542, -0.05388542264699936, 0.020081961527466774, 0.07690966874361038, -0.04485495761036873, -0.023783082142472267, 0.0356171615421772, 0.07494519650936127, -0.04864257946610451, 0.02880103699862957, -0.06256527453660965, 0.06177181378006935, -0.09584169089794159, -0.07765667885541916, -0.1144445613026619, -0.07233729213476181, 0.1279228925704956, 0.10409397631883621, -0.005203173495829105, 0.03723308444023132, -0.16593822836875916, -0.12260495871305466, 0.07076983898878098, -0.17062124609947205, 0.09557866305112839, 0.0378594696521759, -0.1540127992630005, -0.11954429000616074, -0.09931381046772003, 0.0954664945602417, -0.10814300924539566, 0.09030541032552719, 0.1222512349486351, 0.05613551288843155, 0.12054546177387238, -0.06203647330403328, -0.08832047134637833, 0.06467918306589127, -0.1485004723072052, -0.1455392688512802, -0.07658100873231888, -0.1644127070903778, -0.14130516350269318, 0.007955532521009445, -0.02750490978360176, -0.06345105171203613, 0.043325748294591904, 0.028527211397886276, 0.02639859728515148, 0.0771736353635788, -0.009513802826404572, 0.0994763970375061, -0.07492869347333908, 0.019972503185272217, 0.14746542274951935, 0.03775373846292496, -0.03520802780985832, 0.06917466223239899, 0.01518604438751936, -0.11957831680774689, 0.11657791584730148, 0.05046248063445091, 0.060112763196229935, -0.06855455785989761, -0.15145352482795715, -0.11119784414768219, 0.038865312933921814, -0.052386753261089325, -0.08254456520080566, 0.07603362947702408, 0.0771925076842308, -0.07918022572994232, 0.09032882750034332, -0.029700085520744324, 0.0871700718998909, 0.10113053768873215, 0.05902230367064476, 0.09979195892810822, 0.011713270097970963, 0.16633307933807373, -0.009535007178783417, 0.04166511446237564, 0.14515478909015656, 0.019170131534337997, 0.11911679059267044, 0.0388663150370121, 0.09411299228668213, 0.17274245619773865, -0.1042596772313118, -0.08505410701036453, -0.21348045766353607, 0.16206789016723633, -0.0769382044672966, -0.25098517537117004, 0.0965193659067154, -0.044526610523462296, -0.09065213054418564, -0.04656980186700821, -0.050466086715459824, 0.1546790599822998, -0.00644259387627244, -0.05141548812389374, 0.15745289623737335, -0.14483894407749176, -0.103025421500206, -0.03897569328546524, -0.00926135666668415, 0.11712560057640076, -0.048816435039043427, 0.07305644452571869, -0.06225473806262016, 0.02988945133984089, 0.06773388385772705, 0.08032578974962234, 0.07983743399381638, -0.06931852549314499, 0.1342894732952118, 0.06199637055397034, 0.1335902214050293, -0.1190362274646759, 0.1477954387664795, -0.0983678326010704, 0.09349555522203445, -0.034849654883146286, -0.129727303981781, 0.18063874542713165, -0.11825917661190033, -0.07118906080722809, -0.04109882563352585, 0.08910339325666428, -0.0330142118036747, 0.17346028983592987, -0.11668172478675842, -0.05713430047035217, 0.11210944503545761, 0.14646828174591064, -0.08225225657224655, 0.1469939947128296, 0.12717385590076447, 0.13731680810451508, -0.10466992855072021, 0.06059863790869713, -0.13618457317352295, 0.1226131021976471, -0.0943688228726387, -0.02538818120956421, 0.10732720792293549, -0.1317933201789856, -0.0017081585247069597, -0.1064479649066925, -0.10678622871637344, -0.0840173289179802, 0.05539673939347267, 0.05197063460946083, 0.03556186705827713, 0.05411633476614952, -0.10229764133691788, -0.019947867840528488, -0.075284942984581, 0.13180814683437347, 0.1474769413471222, 0.1424994170665741, 0.09684700518846512, 0.11592373996973038, 0.13878291845321655, 0.10349544882774353, 0.057584330439567566, -0.06741606444120407, -0.13918019831180573, -0.028233371675014496, 0.05176672711968422, 0.024927902966737747, 0.030215641483664513, -0.01675129123032093, -0.008332077413797379, 0.11792812496423721, -0.11813793331384659, -0.0177052803337574, 0.06613325327634811, -0.00744086317718029, 0.07814586162567139, -0.03458799049258232, 0.11085331439971924, -0.15763765573501587, 0.009718992747366428, -0.05077545717358589, 0.09734951704740524, 0.005139356944710016, -0.11692427098751068, -0.160601407289505, 0.15130150318145752, 0.028516661375761032, 0.03904876112937927, 0.047486286610364914, -0.011886402033269405, -0.05299229919910431, 0.10739123821258545, 0.08946753293275833, -0.16167287528514862, -0.04600880295038223, -0.04419742524623871, -0.00861313845962286, 0.12121085077524185, -0.09427756071090698, 0.03820780664682388, 0.023217936977744102, 0.13727110624313354, -0.07107308506965637, -0.13000452518463135, -0.11155999451875687, -0.15477895736694336, -0.06302417814731598, -0.008019344881176949, -0.16262619197368622, -0.1019243523478508, 0.08454455435276031, -0.10363144427537918, -0.275860071182251, 0.06802241504192352, -0.03155206888914108, -0.14475847780704498, 0.05295206978917122, 0.0829617902636528, 0.12276788055896759, -0.04337155073881149, -0.05604609474539757, 0.006333258934319019, -0.021803507581353188, -0.02818950079381466, -0.033218950033187866, -0.012595826759934425, -0.017149174585938454, 0.11207139492034912, 0.11949864774942398, 0.12767723202705383, -0.14176411926746368, 0.005859037395566702, 0.02765854075551033, 0.05240139365196228, 0.1270759403705597, 0.10213902592658997, -0.10174250602722168, -0.05835661664605141, 0.14314989745616913, 0.11613790690898895, 0.007957175374031067, 0.02018660120666027, -0.04618664085865021, -0.14163188636302948, 0.06565670669078827, 0.027363978326320648, -0.104673832654953, 0.10395406186580658, 0.01685011200606823, -0.02389642968773842, -0.152711421251297, 0.0012435325188562274, 0.1430569291114807, -0.06010092422366142, -0.08666852116584778, 0.02329837530851364, -0.12250185757875443, 0.08935333788394928, -0.023702353239059448, -0.009020371362566948, 0.10362163186073303, 0.021585416048765182, 0.13906392455101013, 0.0795268788933754, -0.11084922403097153, -0.0372084304690361, 0.1389036923646927, -0.11040935665369034, 0.058255355805158615, 0.07272646576166153, 0.024685926735401154, -0.1067933589220047, 0.02448657900094986, -0.023691849783062935, -0.13005684316158295, -0.053236350417137146, -0.14865078032016754, 0.06930986046791077, 0.13845013082027435, -0.007413473911583424, 0.0930318757891655, 0.07146003097295761, -0.027750186622142792, 0.13386081159114838, 0.04755667224526405, -0.05382201820611954, 0.15235164761543274, -0.03335565701127052, -0.017185579985380173, -0.03263809159398079, 0.01796710304915905, 0.0057386779226362705, -0.12176917493343353, 0.14102551341056824, 0.06972239166498184, -0.2545776665210724, 0.03095056302845478, -0.07725360989570618, 0.2922235131263733, 0.10389461368322372, -0.09790507704019547, 0.134367436170578, 0.02610282227396965, 0.14901620149612427, 0.13679109513759613, 0.0813676044344902, 0.14285984635353088, 0.11319824308156967, -0.08600418269634247, -0.10956558585166931, -0.05158752575516701, -0.10951107740402222, 0.09263263642787933, -0.13026759028434753, 0.08247429877519608, -0.10351980477571487, -0.050613872706890106, -0.0738210529088974, -0.12613758444786072, -0.06746984273195267, 0.0948786586523056, 0.013816083781421185, 0.04313208907842636, -0.030604511499404907, 0.08867937326431274, 0.15727122128009796, 0.138795405626297, -0.04709240794181824, 0.09019879996776581, 0.12879042327404022, 0.13836856186389923, -0.0768415704369545, -0.1327282041311264, 0.04464254900813103, -0.1626826673746109, -0.09868969768285751, 0.11405054479837418, 0.0884043499827385, 0.02065705507993698, 0.015346040017902851, -0.2836022675037384, -0.13964486122131348, -0.12713472545146942, 0.07434072345495224, 0.14656488597393036, 0.1457613855600357, 0.03128387778997421, 0.1408926397562027, 0.10006751120090485, -0.032750166952610016, -0.09535155445337296, -0.027026917785406113, 0.0863136574625969, -0.08990811556577682, -0.14250262081623077, -0.13269537687301636, -0.014218148775398731, -0.09012997150421143, 0.051858436316251755, -0.1286730021238327, -0.054769765585660934, -0.02344135381281376, -0.07827696204185486, -0.01873338408768177, -0.12311776727437973, 0.026374099776148796, -0.15281277894973755, 0.038561075925827026, 0.011768227443099022, 0.025161467492580414, 0.15131758153438568, -0.04201897606253624, 0.09989576041698456, -0.0683845654129982, -0.006894724443554878, 0.08234938979148865, -0.1454697698354721, -0.12017183005809784, -0.14441995322704315, 0.21383239328861237, 0.07868479937314987, 0.10740441828966141, 0.1687663048505783, -0.05202231556177139, 0.08359475433826447, 0.044663868844509125, -0.03987661749124527, 0.11338581889867783, 0.06341437995433807, -0.13153478503227234, -0.001029179198667407, 0.11503977328538895, -0.1486022174358368, 0.031347110867500305, 0.05982865020632744, 0.019652441143989563, 0.0016245754668489099, 0.015961967408657074, 0.020108235999941826, 0.12495182454586029, -0.04432773217558861, -0.06365630775690079, -0.040860261768102646, -0.11339093744754791, -0.0176465455442667, 0.0338815338909626, -0.14255602657794952, 0.04256143793463707, -0.12483465671539307, -0.037015046924352646, 0.060434963554143906, 0.018331190571188927, -0.09190572053194046, 0.12574723362922668, -0.17428046464920044, 0.04121853783726692, -0.11217552423477173, 0.1851990669965744, -0.1532229334115982, -0.07442871481180191, -0.16184678673744202, -0.11189256608486176, -0.17470529675483704, 0.07341208308935165, 0.0012872220249846578, -0.13507580757141113, -0.11312437802553177, 0.0350615531206131, -0.01819325052201748, 0.054101020097732544, -0.1545204073190689, -0.13099755346775055, -0.14103059470653534, 0.11800334602594376, 0.12010760605335236, -0.09274447709321976, 0.04396233335137367, -0.04735732451081276, 0.13167926669120789, -0.03997204825282097, 0.0765039399266243, 0.045996155589818954, -0.011358547955751419, 0.00984526239335537, -0.0752745121717453, 0.0686221793293953, -0.10526743531227112, 0.013079664669930935, 0.03624643385410309, 0.12791237235069275, 0.06659594178199768, 0.09597529470920563, -0.14340707659721375, 0.11376567929983139, 0.03201214596629143, -0.07001494616270065, 0.006369811948388815, -0.01540538389235735, -0.007935421541333199, 0.054143406450748444, -0.012033346109092236, -0.03439093381166458, -0.006875787395983934, 0.17485174536705017, -0.08423474431037903, 0.010028659366071224, 0.15355010330677032, 0.035335395485162735, 0.1534004509449005, 0.03415743261575699, -0.08842124044895172, -0.062399815768003464, 0.02111731469631195, -0.017226681113243103, -0.04264900088310242, -0.08225187659263611, -0.009770789183676243, -0.12057629227638245, -0.06743568181991577, 0.01242679264396429, -0.12376929074525833, -0.13791386783123016, -0.041263241320848465, -0.0979655385017395, -0.09565331041812897, -0.14870481193065643, -0.020153025165200233, 0.12693989276885986, 0.06115206331014633, -0.15186409652233124, 0.005536999553442001, 0.1024869903922081, 0.020006440579891205, -0.003956926055252552, -0.12638138234615326, 0.11901814490556717, 0.043038737028837204, 0.1289125680923462, -0.04020806774497032, -0.03751783445477486, -0.07646326720714569, 0.0568382553756237, -0.09592074155807495, -0.1466890126466751, 0.02204902470111847, -0.14902079105377197, 0.05645052343606949, -0.03589612990617752, -0.053431298583745956, 0.08600219339132309, 0.09399176388978958, -0.1483837217092514, -0.12290791422128677, 0.1373697966337204, 0.06637580692768097, 0.10345494747161865, 0.13172055780887604, -0.1559983491897583, 0.024557417258620262, -0.11944732815027237, 0.10692533850669861, -0.10954729467630386, 0.021523214876651764, -0.0382520891726017, -0.007287950720638037, -0.09028216451406479, -0.048889681696891785, -0.10015231370925903, -0.15286968648433685, -0.049575723707675934, -0.06706086546182632, 0.07421985268592834, -0.11954208463430405, 0.1227962002158165, -0.033366620540618896, -0.06026766076683998, -0.11390618234872818, 0.12686191499233246, -0.14108891785144806, -0.06489229202270508, 0.11927986145019531, 0.11939200758934021, -0.07237285375595093, -0.08748817443847656, 0.1397012323141098, 0.021339114755392075, -0.009516253136098385, -0.13701677322387695, 0.08959582448005676, 0.003948208875954151, 0.02237756736576557, -0.0834699347615242, 0.13443246483802795, -0.12124239653348923, -0.005454011261463165, -0.04316047579050064, -0.00869370624423027, 0.1306384801864624, 0.07094371318817139, 0.09769967943429947, 0.0029145549051463604, 0.1679357886314392, 0.181942418217659, 0.13899751007556915, 0.09750755876302719, -0.0025952968280762434, 0.11476878076791763, -0.12561698257923126, -0.08061614632606506, -0.0961957722902298, -0.00795909482985735, 0.05290543660521507, -0.07431136071681976, 0.13669197261333466, -0.06418614089488983, 0.06692200899124146, 0.012826355174183846, 0.0006106036598794162, 0.017912963405251503, 0.12125468999147415, 0.17621852457523346, -0.05100395530462265, 0.19654019176959991, 0.02080986462533474, 0.055569011718034744, 0.07760646194219589, -0.07141955196857452, 0.1483435481786728, -0.12586282193660736, 0.07880153506994247, 0.10737966746091843, 0.014043004252016544, -0.116077721118927, -0.06150485575199127, -0.05672154203057289, -0.03139893710613251, -0.11650751531124115, -0.04580273851752281, -0.13338646292686462, -0.08947998285293579, -0.063605397939682, -0.07000964879989624, -0.02609870210289955, 0.057704221457242966, -0.0006292116013355553, 0.11350172013044357, 0.07564574480056763, 0.10682015120983124, -0.019176505506038666, 0.014430603943765163, -0.0357498973608017, -0.1281222254037857, 0.09674765169620514, -0.13652876019477844, -0.05608002468943596, -0.1023867055773735, 0.12341858446598053, -0.0037712587509304285, 0.15181033313274384, 0.11057150363922119, 0.1665225476026535, 0.10120262205600739, -0.04135994613170624, 0.049558911472558975, -0.11288592964410782, -0.009245739318430424, -0.029828643426299095, -0.03367358446121216, -0.013318258337676525, 0.09723235666751862, -0.14497044682502747, 0.1529897153377533, 0.09572318941354752, -0.096341572701931, 0.06945101171731949, -0.1069645956158638, 0.03613103926181793, 0.1166723445057869, 0.08539097011089325, 0.0738845244050026, 0.04460033401846886, 0.006684467662125826, -0.07280410826206207, -0.04689163342118263, -0.10701249539852142, -0.07554417103528976, 0.07385619729757309, -0.07489842176437378, -0.09914688766002655, -0.14084860682487488, -0.0559387132525444, 0.0378551110625267, -0.08260984718799591, 0.09387919306755066, -0.05297372117638588, -0.026280639693140984, 0.06472503393888474, 0.016628293320536613, -0.10425988584756851, 0.11074554175138474, -0.1260213851928711, 0.06437084823846817, 0.07156149297952652, 0.14831699430942535, 0.07148855924606323, 0.08311337232589722, -0.09149176627397537, 0.17058256268501282, -0.026363717392086983, 0.12175402045249939, 0.14617349207401276, -0.13141284883022308, -0.05028783529996872, 0.12382277101278305, -0.17185993492603302, 0.01792304590344429, 0.1963929682970047, 0.001818471704609692, 0.10049567371606827, 0.13892938196659088, 0.02176075242459774, 0.015041702426970005, -0.0005504887085407972, 0.04396471381187439, -0.13703325390815735, 0.1518738865852356, -0.07027870416641235, 0.09613356739282608, 0.13731040060520172, 0.1317073553800583, -0.15058119595050812, -0.05137137696146965, 0.07165879756212234, 0.150266632437706, -0.09558580070734024, -0.10076113045215607, -0.09795437753200531, 0.14324980974197388, 0.13184766471385956, -0.020745381712913513, -0.04846372827887535, 0.04964815080165863, 0.14926692843437195, -0.012261664494872093, -0.12286779284477234, -0.07462751120328903, 0.007733170874416828, -0.04860848933458328, -0.11528659611940384, 0.17456744611263275, -0.0782603994011879, 0.1110936850309372, -0.04169672727584839, 0.14904724061489105, -0.06960853934288025, 0.05576348304748535, 0.09955006837844849, 0.042367804795503616, -0.31330132484436035, -0.04907646402716637, 0.031809866428375244, -0.011176084168255329, -0.09356459230184555, -0.06500127911567688, -0.1039607897400856, -0.0315813384950161, 0.007207000162452459, 0.009837763383984566, 0.11005106568336487, -0.026079032570123672, -0.02047096937894821, 0.038534048944711685, -0.169714093208313, 0.08014918863773346, -0.02490764670073986, -0.1299585998058319, -0.07124056667089462, 0.04244164749979973, -0.1469058096408844, -0.020923592150211334, 0.0712471753358841, -0.02257203683257103, -0.08289092034101486, -0.1748349815607071, -0.07337312400341034, 0.10801710933446884, -0.11672715097665787, -0.062202922999858856, 0.02439195290207863, -0.013454708270728588, 0.038347214460372925, -0.10343838483095169, -0.018724268302321434, -0.003290365682914853, -0.04345811903476715, 0.08032398670911789, -0.08505712449550629, 0.12071077525615692, -0.1322530061006546, -0.011945904232561588, 0.08201109617948532, 0.12365242838859558, -0.14811071753501892, -0.12779344618320465, 0.12294678390026093, 0.10176967084407806, -0.13717085123062134, -0.1039477065205574, -0.037444330751895905, 0.04071781039237976, 0.1534012407064438, -0.10177446156740189, -0.005176150240004063, 0.12086181342601776, -0.16537359356880188, 0.0850696936249733, -0.06467082351446152, -0.07157061994075775, 0.037721216678619385, 0.07657568156719208, -0.11085432767868042, -0.047796398401260376, -0.07797271758317947, 0.04839879646897316, -0.016861330717802048, 0.10626188665628433, 0.01906222105026245, 0.022036489099264145, 0.14589568972587585, -0.12047919631004333, 0.07530505955219269, 0.14453722536563873, -0.09945597499608994, 0.03427121043205261, 0.06281235814094543, 0.06064640358090401, -0.17361770570278168, -0.02174457162618637, -0.05374051630496979, 0.07249898463487625, 0.061351798474788666, -0.059885378926992416, -0.06116040050983429, -0.013904161751270294, -0.021967504173517227, 0.12973758578300476, 0.13597124814987183, -0.11754123866558075, -0.09939830005168915, 0.010916493833065033, 0.16721795499324799, 0.007606748025864363, 0.015022628009319305, -0.06721815466880798, 0.08660780638456345, -0.15128456056118011, 0.10651329159736633, 0.0969761535525322, 0.058915071189403534, 0.11533176153898239, -0.03865397348999977, -0.06396991014480591, -0.07779186218976974, -0.031087905168533325, -0.11033053696155548, -0.1389184296131134, 0.12740501761436462, 0.06296851485967636, 0.06061379611492157, 0.10024168342351913, 0.06589945405721664, 0.11237014085054398, 0.07707834243774414, -0.11956359446048737, -0.07174466550350189, 0.09389549493789673, 0.018352467566728592, -0.035606205463409424, 0.026762941852211952, -0.11364619433879852, 0.06715099513530731, -0.12156844884157181, 0.14084221422672272, -0.007594571448862553, -0.2083352953195572, 0.11949905753135681, -0.0016072469297796488, -0.004156691487878561, -0.05843089520931244, 0.021043462678790092, -0.11999461054801941, 0.020202087238430977, 0.03794834390282631, -0.0866607129573822, -0.028770560398697853, -0.08841843158006668, 0.13328756392002106, -0.10105863213539124, -0.023352211341261864, -0.030283212661743164, -0.12940894067287445, -0.11058460921049118, -0.12368235737085342, -0.1104399561882019, 0.035065602511167526, 0.06101140379905701, -0.12623004615306854, -0.04617132619023323, 0.04839303717017174, -0.1228356882929802, 0.1416078358888626, -0.1282750815153122, -0.022458380088210106, -0.11728356033563614, -0.0857505053281784, -0.10346599668264389, 0.0006115976721048355, -0.12037479132413864, -0.03393436223268509, -0.06083426997065544, -0.00500053446739912, 0.03514500707387924, 0.019811240956187248, -0.13647177815437317, -0.12205051630735397, -0.006910736672580242, 0.045906003564596176, -0.13050410151481628, -0.15146388113498688, -0.1457301378250122, 0.13374048471450806, 0.02356570214033127, -0.13279907405376434, -0.07842924445867538, -0.09955481439828873, 0.06749898195266724, -0.008870604448020458, 0.1414341926574707, -0.07261905819177628, 0.13090987503528595, -0.1372421532869339, -0.11620406061410904, 0.00197811471298337, -0.011417584493756294, -0.015783272683620453, -0.051371585577726364, 0.0836675614118576, 0.07119697332382202, -0.08423563838005066, -0.01717175543308258, 0.06887681037187576, 0.08353906124830246, 0.09368426352739334, 0.07224565744400024, -0.028146255761384964, 0.018850114196538925, 0.1443190574645996, 0.0016513566952198744, 0.01876765303313732, 0.13185526430606842, 0.001085924101062119, -0.06997273862361908, -0.09128590673208237, 0.06566597521305084, 0.14760220050811768, -0.12894700467586517, 0.12737637758255005, 0.028064606711268425, 0.0361008495092392, -0.11256133764982224, -0.07212456315755844, 0.03474331274628639, 0.06389942020177841, 0.07195651531219482, 0.13483116030693054, 0.1563875377178192, -0.062440481036901474, -0.08286286890506744, 0.02382861264050007, -0.08200111240148544, -0.030561693012714386, 0.14106371998786926, 0.04971884936094284, 0.13859842717647552, 0.08004215359687805, 0.0781308114528656, 0.04634755104780197, -0.09622340649366379, -0.06747601926326752, 0.07659266889095306, -0.1384314000606537, 0.05067206546664238, -0.03711249679327011, 0.07323065400123596, -0.13086386024951935, 0.07967761904001236, -0.06373672932386398, -0.14064815640449524, -0.10085063427686691, -0.1225980818271637, 0.15824604034423828, -0.07005491852760315, -0.1762649416923523, 0.09874677658081055, 0.19757424294948578, -0.00010788344661705196, 0.0038722536992281675, 0.05040977522730827, 0.0869908407330513, 0.08213555812835693, -0.14320118725299835, -0.07026504725217819, 0.12033408135175705, 0.12711244821548462, 0.017557503655552864, -0.0013467823155224323, 0.04859094321727753, -0.06049785763025284, -0.07927493005990982, 0.054086070507764816, 0.08200477808713913, -0.008682028390467167, 0.01772102154791355, -0.051060352474451065, 0.09134739637374878, -0.017988482490181923, 0.1037742868065834, 0.11699965596199036, 0.15000978112220764, -0.0334041565656662, 0.023645374923944473, 0.08065854758024216, 0.14016221463680267, -0.1527394950389862, -0.051876455545425415, 0.06937969475984573, 0.08905699104070663, 0.017912710085511208, -0.003949109464883804, 0.010227513499557972, 0.06653635948896408, 0.01908966526389122, -0.009802513755857944, 0.111607126891613, -0.06251464039087296, -0.05090519040822983, 0.13240408897399902, -0.14293056726455688, -0.1510785073041916, 0.07094050943851471, 0.20196202397346497, 0.029074078425765038, 0.5084536075592041, 0.12286743521690369, 0.0655466765165329, 0.012950352393090725, 0.002215108135715127, 0.06626816093921661, -0.10096580535173416, 0.06625421345233917, 0.025891488417983055, 0.06786773353815079, 0.14139075577259064, -0.1494724303483963, -0.0034027823712676764, -0.02938438206911087, 0.002047601854428649, -0.0015784165589138865, 0.04085898771882057, -0.14808623492717743, 0.14271028339862823, -0.12369223684072495, 0.04848414286971092, -0.06716776639223099, -0.14272816479206085, -0.10427603125572205, -0.017204269766807556, 0.06487610936164856, 0.08934122323989868, -0.06123434007167816, 0.11423113942146301, -0.08792729675769806, 0.003916585817933083, 0.11742693930864334, -0.11211647093296051, -0.04626155272126198, 0.12396620213985443, -0.16388346254825592, -0.03828928992152214, -0.0389082096517086, 0.10778730362653732, 0.24218955636024475, 0.2926461696624756, -0.09130589663982391, 0.12171440571546555, -0.10875168442726135, -0.03805459663271904, 0.11506688594818115, 0.056939661502838135, -0.10117647051811218, -0.08787471055984497, 0.0062498063780367374, 0.07951702177524567, 0.060519181191921234, -0.1101447269320488, -0.11847071349620819, 0.04265696182847023, -0.0389690026640892, 0.00787410605698824, 0.010593436658382416, -0.039252035319805145, 0.000624434498604387, -0.025235988199710846, -0.11814511567354202, -0.0003237630007788539, 0.015405852347612381, 0.05960759148001671, -0.08178984373807907, -0.12348722666501999, -0.11671040952205658, -0.06822232156991959, 0.028440481051802635, 0.05405082926154137, -0.016842739656567574, 0.07120979577302933, -0.10074219107627869, -0.017615914344787598, 0.15619920194149017, 0.09376467019319534, -0.10718430578708649, 0.04056737571954727, 0.10164058953523636, -0.18771140277385712, 0.09409887343645096, 0.022747265174984932, -0.06462780386209488, 0.06203170493245125, 0.05925288796424866, -0.03613078221678734, 0.13048706948757172, 0.021325742825865746, 0.09144943952560425, -0.07313454896211624, -0.17531922459602356, 0.04601132869720459, -0.15461155772209167, 0.12957102060317993, -0.0266435444355011, -0.0914435014128685, -0.14716669917106628, 0.0977289006114006, 0.08325164020061493, -0.05419540032744408, -0.08379407972097397, 0.13542184233665466, 0.030908128246665, -0.1483486443758011, 0.11472416669130325, -0.06779572367668152, 0.01101840753108263, -0.1385480910539627, -0.018541758880019188, 0.006291710305958986, 0.11964169144630432, 0.07205279916524887, -0.15183761715888977, 0.12003901600837708, -0.06142342463135719, -0.09638170152902603, -0.07431390881538391, 0.004601919092237949, 0.01338372752070427, -0.14399704337120056, 0.15004569292068481, -0.08453050255775452, 0.06586533039808273, -0.025723163038492203, 0.12247762084007263, 0.029399724677205086, -0.029552746564149857, 0.056756433099508286, -0.14243397116661072, 0.01620820164680481, -0.10335393995046616, -0.11925891041755676, -0.0907660499215126, -0.06049148738384247, -0.01504954881966114, -0.025399254634976387, -0.0561433881521225, -0.02068084105849266, 0.0992964506149292, 0.12887294590473175, -0.07655330747365952, -0.10984499007463455, -0.06054779514670372, 0.1285816878080368, -0.010552272200584412, -0.05813993886113167, 0.1338561326265335, 0.1143009141087532, 0.1492144614458084, -0.02714218758046627, 0.058554310351610184, 0.1392190307378769, -0.026871614158153534, -0.010908013209700584, -0.05499156191945076, 0.14047221839427948, -0.014407334849238396, 0.16516782343387604, 0.08914213627576828, -0.13556510210037231, -0.15374433994293213, 0.05508971959352493, 0.004340010229498148, -0.11488610506057739, -0.06509757786989212, -0.10870134085416794, -0.011189401149749756, 0.12120629101991653, 0.033151257783174515, 0.09437990188598633, -0.03805446997284889, -0.10742765665054321, 0.01773245260119438, -0.1430985927581787, -0.13292819261550903, -0.06251781433820724, -0.024145234376192093, 0.14223763346672058, -0.11601005494594574, 0.023922663182020187, 0.10277208685874939, -0.1526447832584381, 0.07374437153339386, 0.12726230919361115, 0.11040046811103821, 0.022114476189017296, 0.09744297713041306, 0.04537896811962128, 0.07306050509214401, 0.08087091147899628, 0.09422103315591812, -0.12527140974998474, -0.06641212850809097, -0.07277826219797134, -0.0185349453240633, -0.10612078756093979, -0.14209523797035217, 0.12519586086273193, 0.1167098879814148, -0.03535137698054314, 0.18118683993816376, 0.01640866883099079, 0.1003124788403511, -0.016873329877853394, -0.1301499456167221, -0.02277081273496151, 0.0892886072397232, -0.3217167556285858, 0.037516504526138306, -0.17794078588485718, -0.07273218035697937, -0.07231114059686661, 0.01080253068357706, -0.12289489060640335, 0.12533140182495117, -0.1494947373867035, -0.08550316095352173, -0.08067045360803604, -0.018706656992435455, -0.01007692702114582, -0.05878334492444992, 0.09265560656785965, -0.04727160558104515, 0.10013662278652191, -0.07114370912313461, -0.07191260904073715, -0.04824654385447502, 0.1167203038930893, 0.015687547624111176, 0.06460275501012802, 0.03460069000720978, 0.031199412420392036, 0.10839369148015976, -0.014331174083054066, -0.13416895270347595, 0.03779083862900734, -0.08611080795526505, 0.00406249426305294, 0.018668724223971367, -0.0604407899081707, 0.13651143014431, 0.070305734872818, -0.0816972479224205, -0.06106853112578392, -0.10044737905263901, -0.09393975883722305, 0.13131724298000336, -0.11987731605768204, -0.028172362595796585, 0.08529848605394363, 0.14567112922668457, 0.054639171808958054, -0.03424503654241562, -0.11620691418647766, -0.09050135314464569, -0.017049413174390793, 0.11804195493459702, 0.1096225306391716, -0.01981889083981514, -0.11751821637153625, 0.04275409132242203, 0.14071549475193024, 0.15413270890712738, -0.10698673129081726, -0.06697899103164673, 0.05119497701525688, 0.08006971329450607, -0.08084531128406525, 0.02796107903122902, -0.023841947317123413, 0.15136632323265076, 0.07688549906015396, 0.027178505435585976, 0.13175614178180695, 0.10021422058343887, 0.0959901288151741, -0.11645594239234924, 0.10620497912168503, 0.07015491276979446, -0.06649236381053925, -0.06797377020120621, 0.09069762378931046, 0.11107108741998672, 0.1121351569890976, -0.08940946310758591, 0.10728771239519119, 0.08358751237392426, -0.1909378618001938, -0.11028081923723221, 0.05382692068815231, 0.12027158588171005, -0.0831327959895134, -0.10833991318941116, -0.12883305549621582, 0.03900386765599251, 0.0700269415974617, -0.07784534990787506, 0.14210298657417297, 0.05278033763170242, 0.1345183104276657, -0.023324815556406975, -0.119156114757061, -0.0355476550757885, 0.08932267874479294, -0.05999208614230156, 0.03318003937602043, 0.09267769008874893, 0.08490683138370514, -0.028906797990202904, -0.0715634822845459, -0.09191279113292694, -0.08280162513256073, -0.10762612521648407, -0.06426285207271576, -0.0038067889399826527, 0.04102932661771774, -0.06044585257768631, -0.10677769035100937, 0.008671372197568417, -0.04274025559425354, -0.04828278347849846, -0.05222433805465698, 0.11896126717329025, 0.0570569783449173, -0.07777217775583267, 0.009075549431145191, -0.13264308869838715, -0.006953742820769548, -0.08967255800962448, -0.029022913426160812, -0.11099578440189362, -0.08999905735254288, -0.14756864309310913, -0.032696254551410675, 0.049001358449459076, 0.027626851573586464, 0.054080214351415634, 0.06617636978626251, 0.02766820229589939, -0.04265264421701431, -0.11754841357469559, -0.02665754221379757, -0.13890016078948975, -0.1382238268852234, 0.057103611528873444, 0.062254149466753006, 0.06547076255083084, 0.0895754024386406, 0.10471444576978683, -0.022388018667697906, 0.09731750935316086, 0.0028306397143751383, -0.11913640052080154, 0.07860954105854034, -0.0030762599781155586, -0.1532212197780609, -0.11918790638446808, -0.11662378162145615, -0.12355300784111023, -0.049599211663007736, 0.08647449314594269, -0.10743251442909241, -0.10498042404651642, -0.1076444685459137, -0.09409992396831512, -0.138118714094162, -0.12111873179674149, -0.08258799463510513, 0.14454394578933716, -0.03814426437020302, 0.07437392324209213, -0.16218851506710052, -0.07275955379009247, 0.07267235219478607, -0.21754741668701172, -0.0444607213139534, -0.08898328244686127, 0.034840185195207596, 0.12406686693429947, -0.15383321046829224, 0.14029628038406372, 0.11372624337673187, -0.11744921654462814, 0.15614257752895355, -0.1028960794210434, 0.17157429456710815, 0.03086048923432827, 0.12498221546411514, 0.025484271347522736, 0.16981911659240723, 0.008484285324811935, -0.031858958303928375, 0.13195917010307312, 0.06858621537685394, 0.11439462006092072, 0.09094685316085815, -0.04650632292032242, -0.09587491303682327, -0.0014411287847906351, 0.1098233237862587, 0.026414018124341965, 0.040653813630342484, 0.06673971563577652, 0.062475234270095825, -0.0867827758193016, 0.053202107548713684, 0.008105043321847916, 0.06991974264383316, 0.09022742509841919, 0.029195820912718773, 0.05880274251103401, -0.09137369692325592, 0.12946538627147675, 0.007815602235496044, -0.08414860814809799, 0.06264187395572662, -0.033981479704380035, 0.25688332319259644, -0.14112654328346252, 0.3990541696548462, 0.06002079322934151, -0.008519565686583519, -0.15407752990722656, -0.09663055092096329, 0.02048495225608349, -0.005236994940787554, -0.010918417945504189, 0.12694138288497925, -0.06684315204620361, -0.048589710146188736, 0.0798761323094368, -0.033157844096422195, -0.05593010410666466, -0.05470074340701103, 0.026010148227214813, 0.118007592856884, 0.14253969490528107, 0.10114705562591553, -0.1495903581380844, 0.03333345428109169, -0.15988416969776154, -0.10644876956939697, -0.036013297736644745, -0.02365090139210224, 0.0913943201303482, -0.0946204662322998, 0.02498687244951725, 0.14332586526870728, 0.016827763989567757, -0.09529256820678711, -0.09715607762336731, -0.014263530261814594, 0.16477461159229279, -0.06041762977838516, 0.01735532470047474, -0.02153487503528595, -0.03320169448852539, -0.019486460834741592, 0.3574822247028351, 0.006623726338148117, -0.08887434750795364, 0.1481533795595169, -0.06575455516576767, 0.09637564420700073, 0.030085870996117592, -0.10532432794570923, 0.12550771236419678, 0.0433042049407959, 0.1528606414794922, 0.026579303666949272, -0.0449027381837368, -0.07420539110898972, -0.0624053068459034, 0.11733126640319824, 0.013391504995524883, -0.031010793522000313, 0.1422511637210846, 0.007380492985248566, -0.03472147881984711, -0.09951259195804596, -0.020585615187883377, -0.013266531750559807, -0.11084990203380585, 0.018532631918787956, -0.0906481221318245, 0.15176834166049957, -0.12342365086078644, 0.07676857709884644, -0.09348110854625702, 0.00495125399902463, -0.049749188125133514, 0.148758664727211, -0.1226157397031784, 0.1330045461654663, 0.11377270519733429, -0.10034928470849991, 0.038283366709947586, -0.0532396100461483, -0.09344877302646637, -0.04125970974564552, 0.1432599425315857, 0.04442993551492691, 0.051121849566698074, -0.10726621001958847, -0.01709742285311222, 0.14022962749004364, 0.03992898762226105, 0.11997859179973602, -0.028434256091713905, 0.1139056608080864, 0.14326241612434387, 0.08819268643856049, -0.017296941950917244, 0.02834189683198929, -0.10819462686777115, -0.021511459723114967, -0.03900635987520218, -0.08759744465351105, 0.004612905438989401, -0.12214186042547226, 0.011542188003659248, 0.058844901621341705, -0.11136138439178467, 0.13563039898872375, 0.15470626950263977, -0.03762544319033623, -0.046658482402563095, 0.0967063456773758, -0.08721507340669632, -0.09760085493326187, -0.034316401928663254, 0.0022213715128600597, 0.05067501962184906, -0.05834284797310829, -0.039001062512397766, 0.021661929786205292, -0.12356115132570267, 0.05291271209716797, 0.1521998792886734, 0.028211049735546112, 0.1107318103313446, 0.04314166307449341, 0.16818858683109283, 0.010124661959707737, 0.06743090599775314, -0.15758028626441956, 0.12772300839424133, 0.1397792398929596, 0.07294927537441254, -0.09660089761018753, 0.021084554493427277, -0.13177385926246643, 0.08365676552057266, -0.06416438519954681, 0.013812505640089512, -0.07792023569345474, -0.11185361444950104, -0.08426317572593689, 0.10928428918123245, -0.0432957299053669, -0.12461647391319275, -0.11424528062343597, 0.09696967154741287, 0.1296849399805069, 0.12325171381235123, 0.14939582347869873, 0.07069598883390427, -0.14376682043075562, 0.04224741458892822, 0.00010923563968390226, -0.004424733109772205, -0.14830681681632996, -0.15764474868774414, -0.08050820231437683, -0.074417844414711, 0.04746565967798233, -0.026250693947076797, 0.03198359161615372, 0.019483039155602455, 0.006929277908056974, -0.056589383631944656, 0.07736626267433167, 0.16544760763645172, 0.14109981060028076, -0.018085768446326256, -0.09969734400510788, -0.04111791029572487, 0.19918830692768097, -0.09387635439634323, 0.02251177653670311, 0.13798171281814575, -0.08717036992311478, -0.13833923637866974, -0.039598505944013596, -0.04169020429253578, 0.03330220654606819, -0.0849076434969902, -0.10092771798372269, -0.11912964284420013, 0.11380677670240402, -0.09532973915338516, 0.045681945979595184, 0.1239733025431633, -0.07403537631034851, -0.056781284511089325, -0.07627883553504944, -0.13434532284736633, -0.02552100643515587, 0.06100493296980858, -0.10842030495405197, -0.0396515429019928, -0.06973391771316528, -0.07302200794219971, 0.09879682213068008, 0.024071969091892242, 0.07384143769741058, 0.09527294337749481, -0.12559890747070312, -0.14475342631340027, -1.31850265461253e-05, 0.05330093577504158, 0.1371871381998062, -0.062099091708660126, 0.18811672925949097, 0.15699857473373413, -0.08036153018474579, 0.07711903005838394, 0.2719627618789673, -0.04133600369095802, -0.16516560316085815, 0.07505545020103455, -0.017222780734300613, -0.10140752047300339, -0.0036866043228656054, 0.0996866524219513, 0.008756552822887897, -0.05031374841928482, 0.18634673953056335, 0.09490208327770233, 0.011371947824954987, 0.007612218149006367, 0.008203527890145779, 0.05477672070264816, -0.09123488515615463, 0.11693629622459412, 0.13279016315937042, 0.05663282424211502, 0.08414561301469803, 0.15466368198394775, 0.010747967287898064, 0.15171611309051514, 0.11499983072280884, -0.03595057129859924, -0.14032557606697083, 0.13421252369880676, 0.03284000605344772, 0.15082089602947235, 0.024428019300103188, 0.050382211804389954, 0.19715291261672974, 0.11219323426485062, 0.14418111741542816, -0.08960344642400742, 0.18369817733764648, -0.23208323121070862, 0.13760466873645782, 0.023936433717608452, -0.11140993237495422, -0.14016570150852203, 0.27981850504875183, -0.08786476403474808, 0.2244083285331726, -0.11572790890932083, -0.12030097097158432, 0.12284859269857407, -0.09771695733070374, 0.1316668540239334, 0.06231602281332016, 0.13980481028556824, -0.08818081021308899, -0.11519844830036163, -0.15251782536506653, 0.009898819029331207, 0.15528368949890137, -0.014913033694028854, -0.015678750351071358, -0.02238299883902073, -0.05861741304397583, 0.08568722754716873, -0.1368425190448761, -0.08459284901618958, -0.0559845007956028, 0.16366271674633026, 0.0582537017762661, 0.08784281462430954, 0.07604499906301498, 0.08327486366033554, -0.050635699182748795, 0.1678980588912964, -0.14371396601200104, -0.12458758056163788, 0.006624237168580294, -0.13834892213344574, 0.1788422018289566, -0.0902838259935379, -0.02173268236219883, -0.009826174937188625, 0.04135526716709137, -0.026747379451990128, 0.08297992497682571, 0.06908956170082092, -0.12215236574411392, 0.05699959024786949, 0.022168315947055817, 0.01402061153203249, 0.14549194276332855, 0.050730302929878235, 0.14106474816799164, -0.01953664794564247, 0.04612118378281593, 0.05887909233570099, -0.14960737526416779, 0.07261466234922409, -0.13255435228347778, -0.07726798951625824, -0.15108291804790497, -0.11102262139320374, -0.021561982110142708, -0.08538474887609482, 0.07079343497753143, -0.03519149124622345, 0.009682882577180862, 0.0021050728391855955, 0.10639587789773941, 0.08091173321008682, 0.14922772347927094, 0.10808670520782471, -0.0782676488161087, -0.13372205197811127, 0.15170200169086456, -0.14023926854133606, -0.1235029548406601, 0.09553246200084686, -0.07646280527114868, 0.09739474207162857, -0.11160873621702194, -0.0795830488204956, 0.10354135930538177, 0.043557554483413696, -0.07265695184469223, -0.05419858545064926, -0.07990851998329163, -0.00795765407383442, -0.03087581694126129, -0.08553234487771988, 0.03478904068470001, -0.013178129680454731, -0.12097267806529999, -0.09740503132343292, 0.054837070405483246, -0.14807625114917755, -0.07615762948989868, -0.10651075094938278, -0.05881960690021515, 0.07804082334041595, 0.0717555359005928, -0.03881527855992317, 0.008945911191403866, -0.020555127412080765, 0.10946023464202881, 0.02746378630399704, -0.03239826485514641, -0.04300020635128021, -0.09748350083827972, -0.021181898191571236, 0.06808405369520187, 0.14826498925685883, -0.0906272605061531, -0.06283938884735107, -0.12803411483764648, -0.14212380349636078, -0.10690238326787949, 0.02683718129992485, -0.07630997151136398, 0.0703374594449997, -0.07655329257249832, -0.12462400645017624, -0.09215758740901947, -0.07259112596511841, 0.04760313406586647, -0.01785467378795147, 0.11222071945667267, -0.018794458359479904, -0.09345795959234238, 0.023955127224326134, 0.07902032881975174, 0.0734090656042099, -0.09427812695503235, -0.028913868591189384, -0.08130279928445816, -0.1482732892036438, -0.1319044679403305, -0.026228656992316246, -0.08154357969760895, 0.10669279843568802, -0.1432092785835266, 0.11534863710403442, -0.10182899236679077, -0.05175313726067543, -0.1500767022371292, 0.014842288568615913, -0.10412395000457764, -0.14701184630393982, 0.08289966732263565, -0.09442982822656631, 0.08322826027870178, -0.07445152848958969, -0.11135207861661911, -0.10552316159009933, -0.16759814321994781, -0.10880713909864426, -0.004532580729573965, -0.11067897081375122, 0.020565317943692207, 0.10799247026443481, 0.03670358285307884, -0.02015838585793972, -0.15522339940071106, -0.14006859064102173, -0.029060976579785347, 0.06654231995344162, -0.042601656168699265, 0.06613367050886154, 0.036772049963474274, 0.14190995693206787, 0.06490755826234818, -0.2315729260444641, -0.11683133244514465, -0.022798962891101837, -0.09634549170732498, -0.037616338580846786, 0.10801806300878525, -0.13722817599773407, 0.1529475748538971, 0.13768385350704193, 0.12857285141944885, 0.07253161817789078, 0.09690935909748077, 0.0772874504327774, 0.10399441421031952, 0.09922371804714203, 0.08516363054513931, -0.011692598462104797, -0.00968087837100029, 0.10822463780641556, -0.14540453255176544, -0.07158463448286057, 0.09548657387495041, -0.03843233361840248, 0.08456999063491821, -0.04330848157405853, 0.1840393841266632, 0.04740704223513603, 0.1464620977640152, -0.059736885130405426, -0.12848791480064392, 0.08666220307350159, 0.05996148660778999, -0.010223345831036568, -0.026868965476751328, -0.12407732009887695, -0.05054235830903053, -0.14181563258171082, -0.03783576935529709, -0.1001325249671936, 0.08530796319246292, -0.10158254206180573, 0.10608672350645065, -0.07832114398479462, 0.09146112948656082, -0.03772993013262749, 0.06096326559782028, -0.1424168348312378, 0.025153597816824913, -0.0019415834685787559, -0.11825792491436005, -0.08568695187568665, -0.1569928079843521, 0.10890647023916245, -0.12909197807312012, 0.08941650390625, -0.15197700262069702, -0.1299983114004135, 0.11530771106481552, -0.004166274797171354, 0.007126348093152046, 0.11312704533338547, 0.1500239372253418, 0.1325777918100357, -0.15953315794467926, -0.0051982952281832695, 0.1369173675775528, -0.0023975051008164883, -0.06916514039039612, 0.12259259819984436, 0.09721755236387253, -0.09447590261697769, 0.016032129526138306, -0.15015552937984467, 0.028111683204770088, 0.0466119684278965, -0.09623127430677414, 0.06828795373439789, -0.16848769783973694, 0.08768509328365326, -0.04645385220646858, -0.0031570824794471264, -0.0282342117279768, 0.013926549814641476, -0.11433345079421997, 0.0736844390630722, -0.28764137625694275, -0.023556219413876534, 0.22206121683120728, 0.06531375646591187, -0.1279134601354599, -0.13862748444080353, 0.011352191679179668, -0.1359041929244995, 0.12264131009578705, 0.1558486521244049, -0.024404337629675865, -0.11772644519805908, -0.04240122810006142, -0.07090570777654648, -0.03063364326953888, -0.13918229937553406, -0.011542699299752712, 0.008184578269720078, 0.04525730758905411, -0.14790208637714386, 0.10124005377292633, 0.03319684788584709, -0.0737808495759964, -0.013124560937285423, -0.023246293887495995, 0.12083262205123901, 0.02651124633848667, 0.11431366205215454, -0.009510435163974762, -0.014782462269067764, 0.011298385448753834, 0.14874275028705597, -0.022585855796933174, -0.005028971936553717, -0.09204045683145523, -0.1321231722831726, 0.03393768519163132, 0.12706589698791504, 0.03560522943735123, 0.11731027811765671, 0.07195847481489182, 0.13366571068763733, 0.21728047728538513, 0.057591162621974945, 0.12585057318210602, -0.05086815357208252, 0.11311127990484238, 0.11928455531597137, 0.12093017250299454, 0.09656655788421631, -0.09774018079042435, 0.11227287352085114, 0.010118636302649975, -0.03518513962626457, -0.12123344093561172, 0.03981856629252434, 0.041168298572301865, -0.011044968850910664, 0.08607259392738342, -0.07841213047504425, -0.04145047813653946, 0.07570011913776398, -0.09022799134254456, -0.15764938294887543, 0.040424644947052, 0.1365828812122345, 0.11458074301481247, 0.07135362178087234, 0.007691183127462864, 0.11984694004058838, 0.10038234293460846, -0.008181868121027946, -0.04443802684545517, -0.047653477638959885, 0.06203126162290573, -0.1319577693939209, -0.06546354293823242, -0.11751573532819748, 0.08114875853061676, 0.01986587978899479, -0.03922015056014061, 0.10792452096939087, -0.02622648887336254, -0.07345078885555267, 0.06091315671801567, 0.05734693259000778, 0.1444573551416397, 0.08894284069538116, -0.06914503872394562, 0.1224614828824997, -0.0564848966896534, -9.015091927722096e-05, 0.029676321893930435, -0.057421233505010605, -0.06196650490164757, -0.12991869449615479, 0.018951155245304108, -0.0358714833855629, -0.0076974788680672646, -0.034533046185970306, -0.019166629761457443, 0.01716916263103485, 0.11396892368793488, 0.08332555741071701, 0.07710003852844238, 0.11578033119440079, -0.1464875042438507, -0.06537126749753952, 0.011055038310587406, 0.029246533289551735, 0.027237681671977043, 0.11551973223686218, 0.03856458142399788, -0.09696319699287415, 0.004697023890912533, 0.0031901486217975616, -0.0851745456457138, 0.11267820745706558, -0.16003118455410004, -0.040471818298101425, 0.09670031815767288, -0.1252686083316803, -0.14435552060604095, -0.15520049631595612, 0.05495240166783333, -0.028722956776618958, -0.34684649109840393, -0.05172896385192871, -0.021793508902192116, -0.13022281229496002, 0.07285763323307037, -0.012664447538554668, 0.038390811532735825, 0.003759354120120406, 0.13319744169712067, 0.029431452974677086, 0.04146726801991463, 0.09643851965665817, -0.13610008358955383, 0.1535230129957199, -0.07973935455083847, 0.00018517636635806412, -0.08973267674446106, -0.014456636272370815, -0.08369656652212143, -0.09868941456079483, 0.06932755559682846, 0.14681515097618103, 0.1328362077474594, -0.10723176598548889, -0.07466401159763336, -0.07542591542005539, 0.12789200246334076, 0.0344645194709301, 0.006954423617571592, -0.06412088125944138, 0.11844409257173538, 0.057306595146656036, 0.06115184724330902, -0.13187503814697266, 0.11984222382307053, -0.03930378705263138, -0.0021911300718784332, 0.060149092227220535, -0.1847515106201172, 0.03333013877272606, 0.1582171469926834, -0.06393998116254807, -0.15996959805488586, 0.05885268375277519, -0.1197642832994461, 0.009193114005029202, -0.06882630288600922, 0.004767937120050192, -0.03455272689461708, 0.004532930441200733, 0.06799688190221786, -0.007899405434727669, -0.10572047531604767, 0.012633716687560081, 0.07210955768823624, 0.06990914046764374, -0.005614928435534239, -0.10294260829687119, 0.12253958731889725, 0.16416648030281067, 0.029010681435465813, -0.025963392108678818, -0.09849879145622253, -0.08866524696350098, 0.13501298427581787, -0.09861934185028076, 0.13856585323810577, -0.09784936159849167, -0.005675152409821749, 0.1807628720998764, 0.06080697104334831, 0.16608712077140808, -0.030302591621875763, -0.09269087016582489, -0.044067610055208206, -0.005482669919729233, -0.02822401002049446, 0.15028823912143707, 0.12614063918590546, -0.09656676650047302, 0.12822167575359344, 0.007878736592829227, 0.05249183624982834, -0.14271187782287598, -0.1172361969947815, -0.10374834388494492, -0.13422620296478271, 0.1269960105419159, -0.03843793645501137, -0.11600985378026962, 0.024624500423669815, -0.03757157921791077, -0.10478534549474716, -0.10112226754426956, 0.026699520647525787, 0.12077714502811432, -0.005526338238269091, 0.007797265890985727, -0.1213952898979187, -0.08862584084272385, 0.009144307114183903, 0.10085886716842651, -0.12066829204559326, 0.04032738879323006, 0.04270148277282715, 0.11630824953317642, -0.01883225329220295, 0.016248418018221855, 0.1063307523727417, -0.1482306718826294, 0.07984105497598648, 0.07793411612510681, 0.09578736871480942, 0.13008643686771393, -0.004965643398463726, -0.012587951496243477, 0.05955391004681587, -0.04377271607518196, -0.1282610446214676, 0.014982321299612522, -0.11721603572368622, 0.1663336455821991, -0.06330747157335281, 0.039733849465847015, 0.04825684428215027, 0.19547925889492035, -0.11939245462417603, -0.06385932862758636, -0.025236353278160095, -0.052098348736763, -0.1511079967021942, -0.050551969558000565, 0.08560305833816528, 0.08746055513620377, 0.014779921621084213, 0.0008831103332340717, -0.09641097486019135, -0.03483249247074127, 0.0532478503882885, -0.12264763563871384, -0.12837782502174377, 0.040699563920497894, -0.14854273200035095, 0.06872814893722534, 0.02654833346605301, 0.13130101561546326, -0.057122308760881424, 0.05014192312955856, 0.04675648361444473, 0.13499902188777924, -0.06558392196893692, 0.11508656293153763, 0.006417693104594946, 0.08292239159345627, -0.0026337644085288048, -0.052237920463085175, 0.11600932478904724, -0.0912228524684906, -0.04550011456012726, -0.07364632934331894, 0.014552376233041286, -0.15407975018024445, 0.0049032787792384624, 0.05813560634851456, 0.13280421495437622, 0.05803460255265236, -0.10202997177839279, -0.018645992502570152, -0.04094849154353142, 0.02529553510248661, -0.06286896765232086, 0.09885308891534805, -0.024531351402401924, -0.000989029766060412, 0.14718928933143616, 0.11491817981004715, 0.036655765026807785, -0.14364388585090637, -0.07497996091842651, 0.10525985807180405, -0.11816107481718063, -0.11782700568437576, -0.10216711461544037, -0.10155272483825684, -0.013011656701564789, 0.04767047241330147, -0.0029053944163024426, -0.0621943324804306, 0.009927969425916672, -0.08876483887434006, 0.017957912757992744, -0.13670240342617035, 0.11397971212863922, 0.10127463936805725, -0.0023805289529263973, -0.10117118805646896, -0.11153341084718704, 0.015496690757572651, -0.10983864217996597, 0.05470900610089302, 0.009714324958622456, 0.07739029079675674, -0.16480892896652222, -0.15994103252887726, 0.03805200755596161, -0.07784348726272583, 0.015229974873363972, 0.18046654760837555, 0.09234967827796936, 0.2075507491827011, -0.2521342933177948, -0.010972081683576107, 0.19489522278308868, 0.0278098713606596, -0.04530450701713562, -0.1082514300942421, 0.0371272973716259, 0.1459580659866333, 0.048425719141960144, -0.11035728454589844, -0.0948183536529541, 0.1185951828956604, 0.05194561928510666, 0.12710700929164886, -0.10574949532747269, 0.12057105451822281, 0.10628356039524078, 0.10555634647607803, 0.0981389656662941, 0.12089923024177551, -0.09559105336666107, 0.09824021905660629, 0.09896466135978699, -0.15669842064380646, -0.11765458434820175, 0.13755735754966736, -0.12190787494182587, 0.04398718848824501, 0.08792143315076828, -0.06774842739105225, -0.11317390948534012, -0.12089107185602188, 0.019130224362015724, -0.12271836400032043, 0.02186998911201954, -0.17732030153274536, -0.09336927533149719, -0.14885111153125763, -0.11142216622829437, 0.13676348328590393, 0.1026085913181305, -0.19864334166049957, 0.29530206322669983, 0.05017121136188507, 0.002214370993897319, 0.04567459598183632, -0.010229692794382572, -0.011650051921606064, -0.15098828077316284, -0.09118755906820297, -0.016002722084522247, -0.0911661759018898, -0.15314365923404694, 0.07336858659982681, -0.15185803174972534, 0.13375625014305115, 0.13281796872615814, -0.12581130862236023, -0.12108513712882996, 0.0106779420748353, 0.061690159142017365, 0.07833865284919739, 0.045545630156993866, -0.03874608874320984, -0.0528605617582798, -0.0023338780738413334, -0.13292744755744934, -0.03226429969072342, 0.03609343245625496, -0.11627960205078125, -0.030582334846258163, -0.04527823626995087, -0.06763356924057007, -0.07770485430955887, 0.04733554273843765, 0.06616717576980591, 0.11272424459457397, 0.12108445167541504, 0.08560952544212341, 0.06308072060346603, 0.16154658794403076, 0.15445727109909058, -0.037111662328243256, 0.14435787498950958, 0.11335723102092743, 0.11863972991704941, 0.05138343945145607, 0.08004043251276016, -0.05778328329324722, -0.07750669121742249, 0.11956983059644699, 0.066227488219738, 0.0635848194360733, -0.11931265145540237, 0.14362585544586182, -0.04772064462304115, -0.010155691765248775, 0.058796219527721405, -0.13771075010299683, 0.1371224969625473, 0.005815250799059868, -0.05632614716887474, -0.088739775121212, 0.034240152686834335, -0.1258590668439865, -0.17124995589256287, 0.02512688748538494, -0.07476352155208588, -0.07661238312721252, -0.007026106584817171, -0.1378587782382965, -0.07185876369476318, 0.05781392753124237, 0.12244798243045807, 0.0174236036837101, 0.06448470056056976, 0.07993840426206589, -0.06153159961104393, 0.08972629904747009, 0.12801218032836914, 0.07470104843378067, 0.0762103796005249, 0.0007642870768904686, -0.023175206035375595, -0.12447035312652588, -0.02901853621006012, 0.040009867399930954, -0.01888134889304638, 0.009527192451059818, -0.11547840386629105, -0.014275594614446163, -0.12820568680763245, -0.015273545868694782, 0.0736902579665184, -0.08185335993766785, 0.1404757797718048, -0.15356889367103577, -0.145491823554039, 0.10303796082735062, -0.1275462508201599, -0.1536034196615219, 0.008918006904423237, -0.028072254732251167, 0.06409793347120285, 0.13510271906852722, 0.12860754132270813, -0.0827244222164154, -0.14942264556884766, -0.024474916979670525, -0.11765114963054657, -0.07421626150608063, 0.14840072393417358, 0.10537443310022354, -0.12690319120883942, -0.1506609320640564, 0.0836760625243187, -0.09680593758821487, 0.06598935276269913, 0.03846541792154312, 0.0283079594373703, -0.0071830106899142265, -0.034584950655698776, -0.04879027605056763, 0.05636915564537048, 0.20016175508499146, 0.07979051768779755, 0.022389521822333336, 0.09986613690853119, -0.22033217549324036, 0.1626003384590149, -0.11667802929878235, -0.12879842519760132, -0.10584989190101624, -0.11534274369478226, 0.07260432839393616, -0.11724961549043655, 0.006311159115284681, 0.06044190376996994, -0.022368699312210083, -0.04589718580245972, -0.10292547941207886, -0.051067933440208435, 0.06624896824359894, -0.11479812115430832, 0.1746624857187271, 0.16319799423217773, 0.11647716164588928, -0.15132197737693787, 0.055517714470624924, 0.07467962801456451, -0.03623327612876892, 0.1278323531150818, 0.06107396259903908, 0.00685476278886199, -0.06385454535484314, -0.012062891386449337, -0.0582527257502079, 0.1150478944182396, 0.15051521360874176, -0.13212959468364716, 0.05245007202029228, -0.05456172674894333, -0.11737483739852905, -0.14172600209712982, 0.011198451742529869, -0.053761813789606094, -0.016255095601081848, -0.11629266291856766, 0.05557750165462494, -0.16201643645763397, 0.07799975574016571, 0.046246640384197235, 0.2070562243461609, 0.03354671970009804, 0.024049382656812668, -0.015225352719426155, -0.1249050498008728, 0.041254449635744095, -0.10787558555603027, -0.07505874335765839, 0.10772639513015747, -0.017012841999530792, 0.07710429280996323, 0.15549923479557037, 0.08202814310789108, 0.1316540390253067, 0.0496908575296402, 0.0247513297945261, 0.004876500926911831, -0.017888382077217102, -0.08234259486198425, -0.015692567452788353, 0.01225702092051506, 0.00996438879519701, 0.10411617159843445, 0.03604469820857048, 0.13512511551380157, 0.00366682349704206, -0.12837150692939758, -0.10911637544631958, -0.049229443073272705, -0.017171764746308327, -0.12321005016565323, 0.07564081996679306, -0.11198890954256058, -0.04091426357626915, -0.02866637147963047, 0.11703392118215561, 0.07464054226875305, 0.05730026215314865, -0.09247903525829315, -0.06615766882896423, 0.0236620232462883, 0.1107814684510231, -0.02320004813373089, 0.10229994356632233, -0.14795653522014618, -0.03565642982721329, 0.10699441283941269, 0.11513853073120117, -0.13386450707912445, 0.048651762306690216, 0.0637788400053978, -0.033525120466947556, -0.01787489838898182, 0.11996696889400482, -0.07387154549360275, -0.13586953282356262, 0.13230036199092865, 0.03420364856719971, -0.07401217520236969, 0.10178197175264359, -0.037615854293107986, 0.08278484642505646, -0.13163630664348602, 0.1355227679014206, -0.13742803037166595, 0.12239524722099304, 0.01509997807443142, -0.07012826204299927, 0.08154554665088654, -0.0670507624745369, 0.1608773022890091, 0.1047787293791771, 0.09971307963132858, 0.11802510917186737, -0.07047043740749359, 0.10723058879375458, -0.07731903344392776, -0.12177997827529907, -0.04307793080806732, 0.046739913523197174, 0.012505528517067432, -0.08617115020751953, -0.021241657435894012, 0.09521894156932831, 0.04978489503264427, 0.11126800626516342, 0.14487117528915405, -0.07318128645420074, 0.12223043292760849, -0.10626611858606339, -0.1313207894563675, -0.1279156357049942, 0.05770020931959152, -0.06798381358385086, 0.015163344331085682, 0.05050113424658775, 0.12193786352872849, -0.008587717078626156, -0.05048487335443497, 0.1261366456747055, -0.08286139369010925, 0.004615650046616793, -0.0689772516489029, 0.14280273020267487, 0.1415521800518036, 0.05700294300913811, 0.12158022075891495, -0.10661821067333221, -0.11962231993675232, 0.07987412810325623, -0.03709761053323746, 0.0332564078271389, -0.022147126495838165, -0.02317204140126705, 0.05215755105018616, -0.07371203601360321, 0.046456314623355865, 0.014910186640918255, 0.0657903403043747, 0.10809620469808578, -0.13468609750270844, 0.15390048921108246, -0.11001618206501007, 0.17093634605407715, 0.19567164778709412, -0.08002988994121552, -0.16752776503562927, 0.08341941237449646, -0.018525857478380203, -0.10199590027332306, 0.11834219098091125, -0.09839858114719391, 0.054485831409692764, 0.06930013746023178, 0.13823549449443817, 0.0646786242723465, -0.07497839629650116, 0.02921781875193119, 0.10419940203428268, -0.06539939343929291, -0.07293278723955154, -0.08803406357765198, -0.04476360231637955, 0.1088344007730484, -0.006493637338280678, 0.07599986344575882, 0.049849774688482285, 0.12462493777275085, 0.0755000114440918, 0.0015030794311314821, -0.05601269751787186, 0.025567425414919853, 0.13271397352218628, -0.1140754446387291, -0.004051102790981531, -0.07001428306102753, -0.036869149655103683, 0.14622242748737335, 0.12652476131916046, 0.09060508757829666, -0.03452742099761963, -0.10319264978170395, -0.03944302722811699, -0.021876446902751923, 0.11508052796125412, -0.13138911128044128, -0.09685694426298141, 0.0670267641544342, 0.09375957399606705, 0.055483706295490265, 0.03924968093633652, 0.03760680556297302, -0.030641160905361176, 0.0414222814142704, -0.1360567808151245, 0.07853828370571136, 0.03083629347383976, -0.04455328732728958, 0.12586857378482819, -0.1286657750606537, 0.09974202513694763, 0.10226181149482727, 0.09035996347665787, -0.06083880364894867, 0.06931136548519135, -0.08164399117231369, -0.1463649719953537, 0.06599176675081253, 0.142635777592659, 0.010969337075948715, 0.026736166328191757, -0.022368906065821648, 0.08487516641616821, -0.0033664924558252096, -0.14151428639888763, 0.05408482253551483, -0.06778213381767273, 0.0686803087592125, -0.13661432266235352, -0.06176629662513733, -0.01692126877605915, 0.06218791753053665, 0.04785393923521042, -0.059369273483753204, -0.07553485035896301, 0.06369806081056595, -0.058639045804739, 0.09586139023303986, 0.12369783222675323, 0.04617287963628769, 0.20329508185386658, -0.14676342904567719, 0.13671375811100006, -0.018375612795352936, 0.15099360048770905, -0.11259336769580841, -0.06328815221786499, -0.021176015958189964, -0.022830139845609665, 0.019312262535095215, 0.09397532045841217, 0.011954190209507942, 0.0005261870683170855, -0.07280662655830383, 0.023009151220321655, -0.041050516068935394, -0.1239556223154068, -0.14796946942806244, 0.1469409167766571, 0.0993012934923172, 0.03552025556564331, 0.024712050333619118, 0.06615230441093445, 0.1443656086921692, 0.1269875168800354, -0.01918770931661129, -0.012975460849702358, -0.06782664358615875, -0.0962333157658577, 0.1199493482708931, 0.0794820562005043, 0.12595951557159424, 0.042737651616334915, -0.14407533407211304, 0.07409191876649857, -0.08925873786211014, -0.0849628746509552, 0.007460140623152256, -0.06864320486783981, -0.13748911023139954, -0.09079649299383163, 0.030867263674736023, -0.10171472281217575, -0.03775697574019432, 0.06079740822315216, 0.13696075975894928, 0.12095877528190613, 0.0389469638466835, -0.022769076749682426, 0.012552536092698574, 0.1162167340517044, -0.06815192848443985, -0.1273307502269745, 0.027000045403838158, -0.08811815828084946, -0.08548062294721603, -0.018484709784388542, 